{"model_data": {"model": "SimpleRNN", "input_size": 1, "skip": 1, "output_size": 1, "unit_type": "LSTM", "num_layers": 1, "hidden_size": 40, "bias_fl": true}, "state_dict": {"rec.weight_ih_l0": [[0.005768884904682636], [0.021808601915836334], [-0.0037964426446706057], [0.09559963643550873], [0.05489883944392204], [-0.1211773231625557], [-0.06324582546949387], [0.014568447135388851], [-0.04279389604926109], [-6.919846669006802e-07], [0.07020417600870132], [2.0421687452198967e-07], [0.10371345281600952], [-6.429311179090291e-05], [-0.099109947681427], [0.04770451784133911], [0.06349272280931473], [-4.8588262870907784e-05], [-0.345811665058136], [-0.04831945523619652], [0.002615801291540265], [0.016607817262411118], [8.025717193049786e-07], [-2.932762868113059e-07], [0.1853620558977127], [0.004040175583213568], [0.10442503541707993], [-0.05772237479686737], [-7.062375289024203e-07], [-3.802201717917342e-07], [-0.0002907266025431454], [0.159235879778862], [0.02974744513630867], [0.04097722843289375], [-1.3919462560352258e-07], [0.029319899156689644], [0.03539147600531578], [0.06108022481203079], [-1.869989745273415e-07], [-7.213529329419544e-08], [0.008109881542623043], [-0.005583822727203369], [-0.004367046989500523], [-0.029655199497938156], [0.060348931699991226], [0.010722102597355843], [0.037606168538331985], [0.019461721181869507], [-0.09583646059036255], [-3.9209828628372634e-07], [0.14676512777805328], [2.035148582990587e-07], [0.20315124094486237], [-7.64049545978196e-05], [-0.16345570981502533], [-0.1415308713912964], [-0.01778312213718891], [-4.512473606155254e-05], [-0.03710399568080902], [-0.03940640762448311], [-0.058498550206422806], [0.06696709990501404], [7.257138463501178e-07], [-3.2554260087636067e-07], [0.23195785284042358], [-0.014584913849830627], [0.17567867040634155], [-0.1099679097533226], [-6.491233648375783e-07], [-3.458848709669837e-07], [-0.00038721703458577394], [-0.08592619746923447], [-0.033471524715423584], [-0.010290407575666904], [-1.866577008513559e-07], [0.044847264885902405], [0.015429146587848663], [0.1286761611700058], [-1.9864759792653786e-07], [-1.3190242498239968e-07], [0.090471051633358], [-0.8285470008850098], [-0.2534346878528595], [-0.019486019387841225], [-0.39729273319244385], [-0.22884047031402588], [0.11642668396234512], [0.4193415939807892], [-0.2258170247077942], [0.0007635115180164576], [0.14364244043827057], [-6.365618173731491e-05], [-0.2966689467430115], [-0.0057780081406235695], [0.1094869077205658], [1.5056140422821045], [0.008036348037421703], [-0.0038455273024737835], [0.11953374743461609], [-0.13592000305652618], [0.1788577437400818], [0.17145441472530365], [0.00020840561774093658], [-0.0002510625927243382], [-0.140660360455513], [-0.017051251605153084], [-0.013528667390346527], [-0.06768549978733063], [-8.846003038343042e-05], [1.7826236216933466e-05], [-0.01826426014304161], [-0.12121865153312683], [-0.053182777017354965], [0.03910748288035393], [-0.00014674800331704319], [3.208414077758789], [0.1158631294965744], [-0.05436457321047783], [-4.822508344659582e-05], [-4.233113577356562e-05], [0.01753336749970913], [0.006339400075376034], [-0.004353945609182119], [0.12539222836494446], [0.09286929666996002], [0.1697995960712433], [0.14137820899486542], [0.041463129222393036], [-0.16597877442836761], [-2.430936092423508e-06], [0.1289847493171692], [2.3751165656449302e-07], [0.15961024165153503], [-7.2854345489759e-05], [-0.12540803849697113], [0.0620008185505867], [0.06309818476438522], [-5.1801736844936386e-05], [-0.009010203182697296], [0.03626563027501106], [-0.007983308285474777], [0.0013820388121530414], [8.760057994550152e-07], [-2.9555752689702786e-07], [0.3172997236251831], [0.02884196676313877], [0.15560922026634216], [-0.159542053937912], [-7.706339602009393e-07], [-4.6346386284312757e-07], [-0.00040848623029887676], [-0.12782475352287292], [0.024802982807159424], [0.0793858990073204], [-2.1112195724981575e-07], [0.020084887742996216], [0.020467275753617287], [0.06814609467983246], [-2.4217644067903166e-07], [-2.2822953837930982e-07]], "rec.weight_hh_l0": [[-0.04194371774792671, -0.017337007448077202, -0.016283242031931877, -0.08273199200630188, -0.1360762119293213, -0.008118947967886925, -0.03177358955144882, -0.03905300796031952, 0.1150389239192009, 0.00018403673311695457, 0.004184145946055651, -4.20877113356255e-05, -0.0017421935917809606, -0.00026428737328387797, 0.023515425622463226, 0.15385493636131287, -0.043712545186281204, -0.0004922878579236567, -0.022810062393546104, -0.16106171905994415, 0.005220816470682621, 0.04146929085254669, 6.191580177983269e-05, 4.5241238694870844e-05, -0.01409999467432499, -0.009691187180578709, -0.005408027209341526, -0.0627511739730835, 0.00018742127576842904, 6.541592301800847e-05, -0.0003135005827061832, 0.10611193627119064, 0.11249927431344986, -0.01850767806172371, 0.00021074425603728741, -0.010307708755135536, -0.021177342161536217, 0.012894176878035069, -1.2579465874296147e-05, -5.135492301633349e-06], [0.008076571859419346, -0.024205004796385765, -0.0223449245095253, -0.06414492428302765, 0.06367021799087524, -0.059181392192840576, 0.0707118883728981, 0.020035497844219208, 0.12594667077064514, -0.00030761316884309053, 0.011231688782572746, -1.0868800018215552e-05, -0.009740713983774185, 0.0008413791656494141, -0.07282324135303497, 0.022587981075048447, 0.2355976700782776, 0.0004878357576671988, 0.053425565361976624, 0.09760014712810516, 0.00907092448323965, -0.13466320931911469, -5.613800567516591e-06, 3.7065525248181075e-05, -0.025304274633526802, 0.014570208266377449, -0.00570338498800993, 0.026996025815606117, 6.204726378200576e-05, 3.91385328839533e-05, 0.0018262095982208848, -0.055830441415309906, 0.04912761598825455, 0.01678391546010971, 3.631946674431674e-05, -0.04100474715232849, 0.014021966606378555, 0.01204587984830141, 3.2327287044608966e-05, 6.879271677462384e-05], [0.015623020939528942, 0.0028793637175112963, -0.0011386105325073004, 0.015076720155775547, 0.03979022055864334, -0.04116110876202583, 0.0791601911187172, -8.411897579208016e-05, 0.06193819269537926, -4.424779490364017e-06, -0.010607769712805748, -3.643951640697196e-05, -0.0009685776312835515, -0.00015238985361065716, -0.017628449946641922, -0.0419585183262825, 0.10625360161066055, -0.00013541505904868245, 0.018620196729898453, 0.11278238147497177, 0.0205758698284626, -0.07522065192461014, 9.812954522203654e-05, 1.3111316548020113e-05, -0.008272157050669193, -0.012878960929811, 0.0004484074015635997, 0.028710894286632538, 6.08564296271652e-05, 5.441464054456446e-06, -0.000635197851806879, -0.054918110370635986, -0.010693895630538464, 0.022210722789168358, 4.8802263336256146e-05, 0.02253846451640129, -0.00199917727150023, -0.004492156207561493, -3.385091622476466e-05, -1.1911742149095517e-05], [-0.03056042268872261, 0.0028047908563166857, 0.04310713708400726, -0.011949612759053707, 0.11329654604196548, 0.008031072095036507, 0.014344379305839539, -0.03932439535856247, 0.19165340065956116, -0.000562690373044461, 0.010750679299235344, 7.66904340707697e-05, 0.02461501769721508, 0.0013618915108963847, -0.060942716896533966, -0.15844108164310455, 0.5288162231445312, 0.00147219467908144, -0.00992177426815033, 0.1860438585281372, 0.02704896777868271, -0.2998894453048706, -7.470260607078671e-05, 7.474982794519747e-06, 0.04615247622132301, -0.018209880217909813, 0.007378427777439356, -0.09150359034538269, -0.00010826624202309176, -4.818326033273479e-06, 0.003630662802606821, 0.12503139674663544, 0.09048817306756973, 0.07863584160804749, -0.00013866992958355695, 0.03480767831206322, 0.002008928218856454, 0.014444337226450443, 8.119732228806242e-05, 8.484747377224267e-05], [-0.00882956013083458, -0.06171364337205887, -0.05143410339951515, -0.10974226891994476, 0.005074888467788696, -0.09520914405584335, 0.1581977754831314, 0.023806815966963768, 0.137160524725914, -0.0001521935482742265, 0.026735052466392517, 3.1286464945878834e-05, -0.0333426333963871, 0.0004606750444509089, -0.06909654289484024, 0.060366321355104446, 0.375261127948761, 0.00015955869457684457, 0.03203766420483589, 0.19362856447696686, 0.02540324628353119, -0.19096748530864716, -0.00012128629168728366, 9.544679642203846e-07, -0.023140324279665947, 0.01518634520471096, -0.016422659158706665, 0.04636092856526375, -0.00011930407345062122, -5.969280391582288e-05, 0.0008404424297623336, -0.06804464757442474, -0.02526237443089485, 0.046628326177597046, -8.492714550811797e-05, 0.0620080828666687, 0.005597378592938185, 0.01684553548693657, 4.736114351544529e-05, 2.7572781618800946e-05], [-0.021622279658913612, 0.2165522277355194, 0.24455134570598602, 0.0512394905090332, -0.00046641757944598794, 0.08009050041437149, -0.5600427389144897, -0.07506652176380157, -0.5129786729812622, 0.0007310428190976381, -0.09324698150157928, -0.00025701936101540923, 0.01645090989768505, 0.0002867073053494096, 0.14641959965229034, 0.14067310094833374, -1.2531862258911133, -0.001288156840018928, -0.14016202092170715, -0.6312505602836609, -0.13402323424816132, 0.700766384601593, 0.0004547065473161638, 1.8574519344838336e-05, 0.3182385265827179, -0.10233251750469208, 0.014466115273535252, -0.35114383697509766, 0.00043492953409440815, 8.965034794528037e-05, 0.002623756881803274, 0.2421032041311264, -0.2530018985271454, 0.02043074369430542, 0.00020620599389076233, -0.05860545113682747, -0.09778682887554169, -0.05068723484873772, -1.749415969243273e-05, -0.000173450171132572], [0.024760277941823006, 0.05866468697786331, -0.003633578773587942, -0.02830587700009346, 0.09394065290689468, -0.05770440027117729, -0.13570554554462433, -0.05041518434882164, -0.03538237512111664, 0.00039014688809402287, 0.0020608960185199976, 1.2780787074007094e-05, 0.044240403920412064, -0.0009483244502916932, 0.059732113033533096, 0.014938200823962688, -0.28150245547294617, -0.001012675929814577, -0.11693129688501358, -0.2938063442707062, -0.08368143439292908, -0.006563561502844095, 0.00034111522836610675, 0.00010862874478334561, 0.08767340332269669, 0.011027672328054905, 0.03037872724235058, -0.007339277304708958, 0.00026073644403368235, 5.548479384742677e-05, -0.002801561029627919, 0.039571553468704224, -0.04987906664609909, 0.07791056483983994, 0.00041977287037298083, 0.17937210202217102, 0.07459110766649246, -0.05673021450638771, -0.0002646023058332503, -0.00014786014799028635], [-0.033583614975214005, -0.013340326026082039, -0.005260589998215437, -0.07916524261236191, -0.035016853362321854, -0.028985464945435524, 0.04166128858923912, -0.023690320551395416, 0.13439692556858063, -0.00011515506776049733, -0.012429029680788517, 2.2133293896331452e-05, -0.026438748463988304, 0.0002542658185120672, -0.03488973155617714, -0.01898859441280365, 0.12876692414283752, 0.0001463094085920602, 0.036773208528757095, -0.0034155864268541336, 0.02650814689695835, -0.06557289510965347, -0.00012472207890823483, 3.848243795800954e-05, -0.02895771712064743, 0.026950977742671967, -0.013967555947601795, 0.02626952901482582, 3.6989244108553976e-05, 4.8882186092669144e-05, 0.0007532964227721095, -0.04702330380678177, 0.037679895758628845, 0.0012727071298286319, 7.613589696120471e-05, -0.015731804072856903, 0.014594283886253834, 0.028356166556477547, 7.313922105822712e-05, 8.28738120617345e-05], [-0.04404280707240105, -0.011260033585131168, 0.007722910027951002, 0.042274024337530136, 0.03897124528884888, -0.02558879181742668, -0.02064874954521656, 0.004621359519660473, 0.07982045412063599, 0.0006051707314327359, -0.008839924819767475, 4.3725599425670225e-06, -0.01953478343784809, -0.0005385429249145091, -0.0409432016313076, -0.01072689238935709, 0.03037506528198719, -0.0009064484038390219, 0.009393774904310703, 0.04344838485121727, 0.031285230070352554, -0.04905134439468384, -0.00018987366638612002, 6.279136141529307e-05, -0.033915575593709946, -0.022936727851629257, 0.00388529640622437, 0.058585818856954575, -0.00025239193928427994, -0.00018081811140291393, 2.9812035791110247e-05, -0.04210366681218147, 0.00810361560434103, 0.069796122610569, -1.5719429939053953e-05, -0.0032703098841011524, -0.015518732368946075, 0.007589311338961124, 1.4537819879478775e-05, -8.345160313183442e-05], [-1.3034654102739296e-06, 6.7685814428841695e-06, 3.332184860482812e-06, -4.425647261996346e-07, 2.094343835779e-05, -3.025338912721054e-07, 1.3951543223811314e-05, 8.617029379820451e-06, 2.7663256332743913e-05, 1.1151015399946118e-07, -1.0194671631325036e-06, -6.687219111789489e-10, -2.4135322291840566e-06, -1.6933971380694857e-07, -2.1014997400925495e-05, -2.266650517412927e-05, 3.918867514585145e-05, -1.2801532989215048e-07, 1.4061447473068256e-05, 2.19644934986718e-05, 1.1383747278159717e-06, -2.3082609914126806e-05, 5.358672172661727e-09, 6.500663563002718e-09, -5.72283079236513e-06, 3.636465407907963e-06, 1.0310681091141305e-06, 1.5844008885324e-05, -3.781973845207176e-08, -3.089468236794346e-08, -2.1818091511249804e-07, -1.2211992725497112e-05, -5.713259199069398e-08, -7.711040780122858e-06, -1.0866890498562043e-08, -4.743299086840125e-06, -1.1243658263992984e-05, 1.86843067240261e-06, -1.8851086025506447e-08, -2.4275484733493613e-08], [-0.009942994453012943, -0.006022538058459759, 0.0007007475360296667, 0.06621355563402176, 0.004048183094710112, -0.04993387311697006, 0.031146440654993057, 0.0590803325176239, -0.03854993358254433, 2.543838127166964e-05, -0.08415522426366806, -9.305997082265094e-05, -0.0752282589673996, -0.00044453947339206934, -0.026035485789179802, -0.019568635150790215, 0.05222729220986366, 4.433318099472672e-05, 0.11600974947214127, 0.008230731822550297, 0.020838100463151932, -0.020573699846863747, 0.0002579528954811394, -5.850312300026417e-05, -0.09252624213695526, 0.048675280064344406, -0.06739261001348495, 0.049445874989032745, 7.290464418474585e-05, 1.2742835679091513e-05, -0.000985046848654747, -0.019221188500523567, -0.005686433985829353, 0.06565362215042114, -5.2994397265138105e-05, -0.0358174592256546, -0.007459521759301424, 0.04699660465121269, -7.068595732562244e-05, -2.7133850380778313e-05], [2.74751332796086e-08, -7.150271130740293e-08, 1.4340850285066153e-08, -2.361517772442312e-07, -7.152490297812619e-07, 4.69831178406821e-07, -5.436100423139578e-07, 5.2596245581071344e-08, -9.324801908405789e-07, -3.407630566609754e-10, -1.531998705672777e-08, -5.978683520480033e-11, -4.3297955443222236e-08, 7.677919411364087e-10, 1.0582002119008393e-07, 7.721984047748265e-07, -1.1885330195582355e-06, 7.46888606517615e-10, 9.348286056365396e-08, -1.1577607210710994e-06, 5.808850289668044e-08, 7.901041954028187e-07, 5.094643040770563e-10, -1.6842328920407823e-10, 4.112309426318461e-08, -5.2236057257459834e-08, -2.709521140786819e-08, -5.227003612162662e-07, 2.4480445448560317e-10, 1.8276062607736066e-10, 1.1693777057786292e-09, 8.050766950873367e-07, -3.038000784272299e-08, -3.925765312828844e-08, -2.282299349509742e-10, 1.0677179318463459e-07, -1.4309041951321433e-08, 3.3768625229413374e-08, -1.9186176952734613e-11, 1.5231087224787387e-11], [-0.009575492702424526, -0.05768328532576561, -0.04321609064936638, 0.01994757167994976, -0.10855883359909058, -0.09500402212142944, 0.02516460418701172, 0.04154977947473526, 0.04763185605406761, 0.00029855253524146974, -0.041074927896261215, -0.00012868831981904805, -0.10005229711532593, -0.00067741988459602, -0.0076982746832072735, 0.07276599854230881, -0.028192585334181786, -0.0007874286384321749, 0.07376185804605484, -0.016842497512698174, 0.01142906490713358, -0.0053826505318284035, 0.0003018407733179629, -1.3615360330732074e-05, -0.08071007579565048, 0.06209242343902588, -0.06599941104650497, 0.05657123774290085, 5.893023990211077e-05, -4.770993837155402e-05, -0.0016736520919948816, -0.09335125237703323, -0.02696887217462063, -0.004203735385090113, 8.150071516865864e-05, 0.1112024188041687, -0.007962802425026894, 0.057273976504802704, -0.00015192934370134026, -8.276857988676056e-05], [1.4623517927248031e-05, 5.586235783994198e-05, 3.999589534942061e-05, 4.057290789205581e-05, 9.621946810511872e-05, -4.418110108872497e-07, 5.3590214520227164e-05, -1.443484961782815e-05, 7.975711196195334e-05, 2.822299336457945e-07, -4.2098640733456705e-06, -1.0918310699992162e-08, 2.323487751709763e-05, -3.9947912000570795e-07, -1.1628046195255592e-05, -0.00014763546641916037, 0.0001457259786548093, -3.277539804003027e-07, -1.7606393157620914e-05, 9.367478196509182e-05, -3.899856164935045e-05, -7.012634159764275e-05, 8.786653182824011e-08, 2.6461540514333137e-08, 7.527914476668229e-06, -1.3665022379427683e-05, 2.613970536913257e-05, 6.591265264432877e-05, -5.524883306406991e-08, -5.47384395588324e-08, -3.541929629591323e-07, -6.274195766309276e-05, 6.67453014102648e-06, -2.659694291651249e-05, 9.336329043208025e-09, -1.7895736164064147e-05, -1.5908566410871572e-06, -8.64284265844617e-06, -6.552804165949055e-08, -4.342835779880261e-08], [-0.03829300403594971, -0.0029835477471351624, -0.022953690961003304, 0.0028079980984330177, -0.004183002281934023, -0.03647049516439438, -0.014119056053459644, -0.05840384215116501, 0.09206797182559967, 0.0012695195619016886, 0.01922205649316311, -0.00018249158165417612, -0.020274503156542778, -0.0016781167360022664, 0.110251285135746, -0.07669664174318314, -0.13642773032188416, -0.002362022176384926, -0.1699804961681366, -0.009522183798253536, -0.09095621854066849, 0.0020439333748072386, 0.0003342166601214558, 7.805423956597224e-05, 0.004646038170903921, -0.01369808055460453, 0.01571224071085453, 0.15766432881355286, 1.780620004865341e-05, -0.00016352736565750092, -0.003083448391407728, -0.13164012134075165, -0.08176908642053604, -0.09226304292678833, 0.00018552991969045252, 0.0009762679692357779, 0.02655460499227047, 0.00808744691312313, -0.00025102001382037997, -0.00029212769004516304], [0.0004859542823396623, -0.019634278491139412, -0.007486149203032255, -0.040699027478694916, 0.10830482095479965, 0.04341515526175499, 0.19190140068531036, 0.012600698508322239, 0.25462400913238525, 8.970754424808547e-05, 0.02143610082566738, -1.782106119208038e-05, 0.011820299550890923, 0.00020996046077925712, -0.10036126524209976, -0.09275937080383301, 0.6020359992980957, 0.00023586864699609578, -0.01534742210060358, 0.3465230464935303, 0.01632601022720337, -0.29980260133743286, 5.624090772471391e-05, -5.1681374316103756e-05, 0.0337909571826458, -0.04960386082530022, 0.007637184113264084, 0.003909759223461151, -9.555310680298135e-05, -8.115085802273825e-05, 0.0011183639289811254, 0.03712751343846321, -0.026127805933356285, 0.0459991879761219, -0.00016544159734621644, -0.022920945659279823, 0.006881458219140768, -0.0016960336361080408, -4.23895562562393e-06, -6.443694292102009e-05], [-0.01771530881524086, -0.009920400567352772, 0.013523362576961517, -0.09967175126075745, -0.13761019706726074, 0.23892611265182495, 0.08527222275733948, 0.014080921187996864, 0.02045285888016224, 0.0005849999142810702, 0.0056157344952225685, -0.000168116413988173, -0.0157789159566164, -0.0010111453011631966, -0.0386454276740551, 0.18030481040477753, 0.051799528300762177, -0.0011592477094382048, -0.044734444469213486, -0.0661994218826294, 0.08440496772527695, -0.054009731858968735, 0.00014516718511004, 7.241303683258593e-05, 0.034063272178173065, -0.014314703643321991, 0.0019144588150084019, -0.15252940356731415, -7.308206841116771e-05, -0.00013776423293165863, -0.002159779891371727, 0.5607831478118896, 0.08010396361351013, 0.07212251424789429, 0.00011512689525261521, 0.030749432742595673, -0.027131671085953712, -0.007783170323818922, -0.00015603982319589704, -0.00010830472456291318], [2.5787661797949113e-05, 3.027045568160247e-05, 2.3400385543936864e-05, 3.283532350906171e-05, 1.754231925588101e-05, -1.060313661582768e-05, 1.262762179976562e-05, -2.326633875782136e-06, -8.774020443524932e-07, 4.2211320305796107e-07, -7.505134817620274e-06, -4.725374225245105e-08, 8.377694939554203e-06, -7.300664037757087e-07, 1.3469604709825944e-05, -4.962437378708273e-05, 3.568094689399004e-05, -7.267470323313319e-07, -2.6235991754219867e-05, 3.616037793108262e-05, -3.663453026092611e-05, -1.7603686501388438e-05, 1.4773425505154592e-07, 1.2114613312519396e-08, 9.684900987849687e-07, -7.390561222564429e-06, 1.242495454789605e-05, 2.6222287488053553e-05, -3.056647557286851e-08, -7.518811884210663e-08, -1.3534851177610108e-06, -2.7159932869835757e-05, -9.186700481222942e-06, -1.242612415808253e-05, 2.0188220872796592e-08, -1.9377219359739684e-05, 9.200382010021713e-06, -1.212724600918591e-05, -1.0762829560917453e-07, -9.555181890164022e-08], [0.05761914700269699, -0.11908634752035141, -0.0639052763581276, -0.2099415808916092, -0.6371895670890808, -0.01039043441414833, -0.26909691095352173, 0.0403701588511467, -0.03934988006949425, -0.0014945869334042072, 0.170212060213089, 0.00012988522939849645, -0.17418640851974487, 0.001626205979846418, 0.3401827812194824, 0.7864273190498352, -0.5200550556182861, 0.0019372539827600121, -0.15919822454452515, -0.5377933979034424, -0.10313582420349121, 0.30947351455688477, -0.0005008644075132906, 1.17821518870187e-05, -0.10315362364053726, 0.31405752897262573, -0.11757555603981018, -0.19429641962051392, 0.00039484244189225137, 0.00021053240925539285, 0.0013787616044282913, 0.0742269828915596, -0.35380738973617554, -0.0483366958796978, 0.0003373510262463242, -0.06766413152217865, -0.22849968075752258, 0.05185703933238983, 0.0001567003782838583, 0.00030352972680702806], [0.024986019358038902, 0.09188836812973022, 0.06976696848869324, -0.056432388722896576, 0.3806706666946411, 0.13551847636699677, 0.11813867837190628, -0.0385291613638401, 0.034422725439071655, 0.000866004906129092, -0.02592884935438633, -0.0001356399297947064, 0.04732200875878334, -0.0010623394045978785, -0.015313449315726757, -0.5242300033569336, 0.04621896892786026, -0.001027902471832931, 0.06362222880125046, 0.15701718628406525, 0.09120188653469086, -0.13897782564163208, 4.521476148511283e-05, 7.05831334926188e-05, -0.006569147575646639, -0.13689877092838287, 0.0032757434528321028, -0.0952722504734993, -6.801796553190798e-05, -8.364306995645165e-05, -0.0010432536946609616, 0.07768640667200089, 0.24558822810649872, 0.1310441792011261, 0.00010989221482304856, -0.0478316992521286, -0.11963696777820587, -0.03157132491469383, 4.6399098209803924e-05, -0.00021136128634680063], [0.009879455901682377, -0.028247816488146782, -0.05429442971944809, 0.026058239862322807, 0.056852489709854126, -0.06200236454606056, 0.03527121618390083, 0.00497256126254797, -0.09298240393400192, -0.0002647223009262234, 0.03729316219687462, 7.780950545566157e-05, -0.014871414750814438, 6.793930515414104e-05, 0.025318628177046776, 0.07611867785453796, -0.045924294739961624, 0.00023955560754984617, -0.03973144292831421, -0.020060472190380096, -0.03651314228773117, -0.016392134130001068, 1.0301236216037069e-05, -1.3239178770163562e-05, -0.020977351814508438, 0.01019301824271679, -0.0040172855369746685, -0.016902979463338852, 0.00014426425332203507, 0.00011748461110983044, -0.0006511607789434493, -0.03753601759672165, -0.007205003406852484, -0.04171466454863548, 4.4805110519519076e-05, 0.05080019310116768, 0.012658873572945595, 0.006806392688304186, -1.2736384633171838e-05, 4.469004852580838e-05], [-0.03694494068622589, -0.03047557920217514, 0.0064891427755355835, 0.10228340327739716, 0.04641448333859444, 0.07450447231531143, -0.1711817979812622, 0.009566675871610641, 0.1116938591003418, 0.00032168140751309693, -0.00729162385687232, -5.736394814448431e-05, -0.014513656497001648, -0.00030380423413589597, -0.02228468656539917, -0.06891261041164398, 0.01901998743414879, -9.92132190731354e-05, 0.006926639936864376, -0.08312708139419556, 0.024406272917985916, 0.026716139167547226, 7.256332173710689e-05, -3.6380919482326135e-05, -0.009390856139361858, 0.05230898782610893, -0.01271404605358839, 0.011991004459559917, -4.553234248305671e-05, -4.1079278162214905e-05, -8.335401071235538e-05, 0.05085938423871994, -0.015587231144309044, 0.036620426923036575, -7.686654134886339e-05, 0.00015392077330034226, -0.03963695466518402, 0.010411315597593784, -5.64089605177287e-05, -0.00012133869313402101], [-8.915433724610011e-09, 5.229158546171675e-07, 1.7000992613702692e-07, -1.9487031295284396e-06, -5.811047230963595e-06, 4.614278168446617e-06, -8.335437087225728e-06, -1.5739948366899625e-07, -9.50462526816409e-06, 8.800141948483997e-09, -1.1665591870269054e-07, -8.438839627089578e-10, -1.2411351235641632e-07, -6.734204749392347e-09, 1.0078194634388637e-07, 7.2382172220386565e-06, -2.1851597921340726e-05, -2.796326226128798e-10, 9.005112815430039e-07, -1.5641193385818042e-05, 3.594290944874956e-07, 1.0827604455698747e-05, 6.624381931885637e-09, -6.992695311680563e-10, -4.2574910708026437e-07, -1.3638116342917783e-06, 1.4402236558908044e-07, -5.292060450301506e-06, -5.551341053511294e-10, -1.0707160713607777e-09, 1.4040185902786106e-08, 8.642205102660228e-06, 1.2028276614728384e-06, -2.4338285129488213e-06, -2.7185977913291026e-09, -2.7326305485075864e-07, -1.3260490732136532e-06, 7.843976845833822e-07, -2.432160473020417e-09, -2.7064281926669764e-09], [1.1455962578565959e-07, 3.145264599879738e-07, 3.3204253213625634e-07, 5.299372105582734e-07, -1.405248610808485e-07, 4.1143280782307556e-07, -3.4861406561503827e-07, -1.6257740753644612e-07, -4.231710590829607e-07, -1.4312986906794833e-10, -1.2416262507031206e-07, 3.5873928827534485e-11, 2.0067415107405395e-07, -5.672912695153798e-10, 7.027139758974954e-08, -2.066295365921178e-07, -6.884196750434057e-07, 3.962832562098839e-10, -9.946252532699873e-08, -4.5774677914778295e-07, -1.5643745143734122e-07, 4.857126896240516e-07, 2.0268629830066942e-10, 4.95953625390122e-11, 1.154661077862329e-07, -1.620024931980879e-07, 1.2907430857467261e-07, -3.0169812248459493e-07, 6.399981239413322e-11, 1.199294552556296e-10, -6.947322717110183e-10, 5.240390805738571e-07, 2.1187855736570782e-07, -1.2249613234871504e-07, 1.1647216524579562e-10, -1.6250965018116403e-07, 8.377027427286521e-08, -1.0883875489753336e-07, 6.483183781491597e-12, 1.2209826205644703e-10], [0.0017667502397671342, 0.035985156893730164, 0.027793461456894875, 0.0888783261179924, 0.02288752608001232, -0.05012835934758186, 0.03783596307039261, 0.00881153903901577, -0.0018657671753317118, -7.499239291064441e-05, -0.11290796101093292, -0.00010401271720184013, -0.08014451712369919, -0.0005399442161433399, -0.048085130751132965, -0.22518742084503174, -0.026653120294213295, 0.0001150214666267857, 0.2089899331331253, 0.09113015234470367, -0.0020225855987519026, 0.025776460766792297, 0.00031407689675688744, -2.539970046200324e-05, -0.11996874958276749, -0.03526832163333893, -0.08159851282835007, 0.0274446289986372, 0.00018280032963957638, 6.882259913254529e-05, -0.0015315038617700338, -0.01610085368156433, 0.03877720981836319, -0.006486054044216871, 6.746382132405415e-05, 0.09550422430038452, -0.058530718088150024, 0.0772717073559761, -9.798479004530236e-05, -1.2324960152909625e-05], [-0.06944329291582108, -0.036419935524463654, -0.06827859580516815, -0.31851592659950256, -0.29841864109039307, -0.07639674097299576, 0.19893762469291687, -0.1160464808344841, 0.05704391375184059, -0.00040360333514399827, -0.0018796275835484266, 8.49458301672712e-05, 0.003138018539175391, 0.0003469324146863073, 0.06596150994300842, 0.44739001989364624, 0.04275048151612282, 0.0005156968254595995, -0.05962567403912544, -0.284071683883667, 0.06049743667244911, 0.012369313277304173, -0.00013016595039516687, 3.059463415411301e-05, -0.026126723736524582, 0.04117082059383392, -0.01642529107630253, -0.034911319613456726, 9.876553667709231e-05, 9.980588947655633e-05, 9.749548917170614e-05, -0.07464199513196945, 0.07809867709875107, 0.019740352407097816, 0.00010031248530140147, -0.008782056160271168, 0.04336792975664139, 0.020513689145445824, 3.4734744986053556e-05, 8.938742394093424e-05], [-0.01831747591495514, -0.024132367223501205, -0.019650816917419434, -0.03782830014824867, -0.11140967160463333, -0.05748249590396881, 0.011972315609455109, 0.03461446985602379, -0.04652847349643707, 8.710901602171361e-05, -0.05423175171017647, -6.883237801957875e-05, -0.08272752910852432, -0.0006819451227784157, 0.016830572858452797, 0.0900709480047226, -0.024315297603607178, -6.556837615789846e-05, 0.078640416264534, -0.07028288394212723, 0.020202070474624634, 0.016599945724010468, 0.00024678377667441964, -3.49390902556479e-05, -0.08080389350652695, 0.03880792483687401, -0.070162832736969, -0.011559376493096352, 7.449957774952054e-05, -1.953896799022914e-06, -0.0017023556865751743, 0.026722505688667297, -0.012654568068683147, 0.030303088948130608, 3.0241431886679493e-05, 0.0661587044596672, -0.03758798912167549, 0.054063525050878525, -0.00013253037468530238, -7.619804819114506e-05], [0.01327934954315424, 0.01697959564626217, -0.026198316365480423, -0.018655557185411453, 0.11836341768503189, -0.09759513288736343, 0.08952955901622772, 0.030297264456748962, -0.006800311151891947, 0.0002477560774423182, 0.003953639883548021, -2.1308227587724105e-05, -0.01696011610329151, -0.00047620810801163316, 0.017866317182779312, -0.15398311614990234, -0.10609903186559677, -0.0007149875164031982, 0.007099851034581661, 0.12358420342206955, -0.01686977408826351, -0.02576301619410515, 9.062122990144417e-05, 3.2014013413572684e-05, -0.04145323857665062, 0.03893730416893959, -0.007123477291315794, 0.12510086596012115, -4.391167749417946e-05, -0.0001381111505907029, -0.0014891234459355474, -0.22108194231987, -0.05075434595346451, 0.0003539055760484189, 0.00011266469664406031, -0.03900277987122536, -0.017351413145661354, -0.00018676936451811343, -0.0001661619753576815, -0.00010868663957808167], [2.740679008184088e-07, 8.878786275090533e-07, 5.170901999917987e-07, 1.9722574506886303e-06, 2.4175833459594287e-06, 7.689206995564746e-07, -1.1765938552343869e-06, 2.3803627868801414e-07, -1.0268789765177644e-06, 2.3894051182082876e-09, -9.549078185955295e-07, -1.615349937145183e-10, -6.586326151136745e-08, -3.916968527306608e-09, -1.166267452390457e-06, -4.295688995625824e-06, -5.533566309168236e-06, -2.214288974400347e-09, 8.767435133449908e-07, 1.092343495656678e-06, 1.2752656175507582e-07, 1.1675498399199569e-06, 1.0502338998463756e-09, 5.76266423468752e-10, -6.428451797546586e-07, -6.639443768108322e-07, 1.0620550661144534e-08, 1.3522201243176823e-06, -3.960587136031535e-10, -3.8312519823335833e-11, -2.9857909478181455e-09, -9.394891975489372e-08, -7.155847470130539e-07, -2.0654766785810352e-07, 2.1050766685348776e-10, -1.550556021356897e-06, -2.161934986588676e-07, 2.496710465038632e-07, -2.3301469087577686e-10, -4.0392739153460866e-10], [1.5373321105016657e-07, 4.4096091755818634e-07, 2.519083466268057e-07, 3.569410296222486e-07, 1.4277960644903942e-06, -3.0903390779712936e-07, 1.98793841832412e-07, 5.01202407576784e-07, 6.192167916196922e-07, 6.506572169939773e-09, -2.506932901269465e-07, -4.977501188996314e-10, -2.7606364483290236e-07, -1.0441188358356612e-08, -8.42887800445169e-07, -1.916237806653953e-06, -2.399119125584548e-07, -1.0447160470050676e-08, 4.128736748043593e-07, 1.031714759847091e-06, -2.777890415472939e-07, -6.168336312839529e-07, 1.247957182037851e-09, 3.0103633474887204e-10, -3.506674772779661e-07, -1.0528636629203447e-08, 1.0002806583031543e-08, 1.6741145145715564e-06, -5.931836688510828e-10, -7.009500202492802e-10, -1.853092967962766e-08, -1.3495454140866059e-06, -8.484555564791663e-07, -2.3022478501388832e-07, 2.98569849399577e-11, -3.637081533724995e-07, -2.757273591669218e-07, 3.3576842639604365e-08, -8.523016736816658e-10, -1.194589538400237e-09], [4.573598562274128e-05, 0.00015383295249193907, 7.451464625773951e-05, 0.0001441870117560029, 0.0005224792403168976, -0.00023001516819931567, 0.00032671738881617785, -0.00017226135241799057, 0.0005164813483133912, 5.724729135181406e-07, 5.44336899110931e-07, -1.4527367397931812e-07, 0.00010555786866461858, -1.9420538137637777e-06, 3.209611531929113e-05, -0.0009276382043026388, 0.0009189064148813486, -4.2327272353759327e-07, -0.00010569514415692538, 0.0005208565853536129, -0.00014575502427760512, -0.0004966684500686824, 1.0248415946989553e-06, 7.028284443322264e-08, -2.1303263565641828e-05, 1.7052827843144769e-06, 0.0001138131701736711, 0.00029337446903809905, 3.711091380864673e-07, 1.1365759178261214e-07, -3.7531740417762194e-06, -0.0005724859656766057, 5.9183639677939937e-05, -4.574941340251826e-05, 3.8976838823145954e-07, 7.53784624976106e-05, 0.00010869940160773695, -8.773349691182375e-05, -4.4520885467136395e-07, -1.2379791769490112e-07], [-0.05152309685945511, -0.14015759527683258, -0.11549238115549088, 0.03139057755470276, 0.0013631698675453663, 0.07409621775150299, -0.17350856959819794, -0.05668359994888306, -0.06649728864431381, -0.0013612150214612484, 0.030827973037958145, 9.613444126443937e-05, -0.02680649422109127, 0.002728681545704603, 0.21775472164154053, 0.44856834411621094, -0.8641412258148193, 0.0009811276104301214, 0.19608303904533386, -0.429540753364563, -0.2069995105266571, 0.8545582890510559, -0.0008824174874462187, 0.00014642413589172065, -0.0167784933000803, -0.5133368968963623, 0.0013978643110021949, -0.03583131358027458, 0.0003708485164679587, 0.0004071902367286384, 0.0037324472796171904, 0.07952838391065598, -0.10932490229606628, -0.128307044506073, 0.00012340693501755595, 0.1506955474615097, -0.09894341230392456, 0.039117105305194855, 0.0005859563243575394, 0.00039531366201117635], [-0.01631806045770645, -0.07033924013376236, -0.06674990803003311, -0.2974964380264282, -0.09550254046916962, -0.10877850651741028, 0.17844745516777039, -0.02816285751760006, 0.06623620539903641, -0.00011364534293534234, 0.021284932270646095, -0.0001695900282356888, -0.031812213361263275, 0.0009366624290123582, 0.02902335114777088, 0.2225203663110733, 0.067890465259552, -0.00043005344923585653, -0.02608511596918106, -0.0048614260740578175, 0.04917435720562935, -0.05821211636066437, 0.000329218921251595, 5.757838880526833e-05, -0.003792798612266779, 0.03968515992164612, -0.02107558399438858, 0.055596403777599335, 0.00016020280600059777, -4.7197198000503704e-05, 0.0016013849526643753, -0.08411473035812378, -0.06850360333919525, 0.1490817666053772, 0.0002114632516168058, -0.09585471451282501, 0.0710180327296257, 0.026093753054738045, -0.00016831736138556153, -6.83907201164402e-05], [0.04362804442644119, -0.006529430393129587, -0.0675666332244873, -0.1045672744512558, 0.04369693249464035, 0.07743199914693832, 0.15811534225940704, 0.007810547482222319, -0.07757540047168732, 3.343470598338172e-05, 0.006400858983397484, 6.021025910740718e-05, 0.02804066240787506, -0.0006908689392730594, 0.0024144405033439398, 0.1854892075061798, -0.20727324485778809, -0.00028166701667942107, -0.010667189955711365, -0.09804368764162064, -0.023863591253757477, 0.25469693541526794, 0.00031503569334745407, -4.239462941768579e-05, -0.0009159705368801951, 0.037086937576532364, 0.010834899730980396, -0.004286283627152443, 0.0002559848944656551, 0.00015566687216050923, -0.0025591582525521517, 0.033085860311985016, 0.0025672323536127806, 0.09164687991142273, 9.694779146229848e-05, 0.052905336022377014, 0.04187673330307007, -0.04044357314705849, -0.00014453816402237862, -3.0942377634346485e-05], [3.6972420502934256e-07, 9.558108615692618e-08, 4.481967152969446e-07, 1.1352428828104166e-06, -1.0969988579745404e-06, 2.1527762328332756e-06, -2.2039994291844778e-06, 3.53539064690267e-08, -3.468848035481642e-06, -1.013223172030564e-09, -1.3632454276546468e-08, -4.04741899717731e-11, 5.220719501153326e-08, 5.423186344444275e-09, 4.160573041644966e-07, 2.525200386571669e-07, -4.998183158022584e-06, 1.0153128338075135e-09, -3.8508551369886845e-07, -1.5324801552196732e-06, -5.275775833979424e-07, 2.923830834333785e-06, 3.311203533584717e-10, -1.940782257126017e-10, 7.150645728870586e-07, -3.0945119533498655e-07, 1.6287721393837273e-07, -8.823605526231404e-07, 9.757885471861627e-11, 4.040927592541266e-10, 1.1818765521809382e-08, 2.3756549580866704e-06, -9.284070756621077e-07, -6.701193342451006e-07, -6.666164842350497e-10, 1.2829563900140784e-07, 5.863435035280418e-07, -4.048373014597928e-08, 4.664683084243393e-10, 5.375009326513691e-10], [-0.005848197266459465, -0.026960495859384537, -0.050595492124557495, -0.033645812422037125, 0.09426087886095047, -0.11172902584075928, 0.24360531568527222, -0.022377366200089455, 0.3191712200641632, -0.00020560288976412266, 0.029652554541826248, 3.875190941471374e-06, -0.001691398792900145, 0.00033678938052617013, -0.07296586781740189, 0.05023033544421196, 0.610802173614502, 0.0004166082653682679, -0.00042707379907369614, 0.2991238534450531, 0.035721924155950546, -0.32618120312690735, 9.647736442275345e-05, -3.622834992711432e-05, -0.014541855081915855, 0.02135404944419861, 0.0032776088919490576, 0.020677754655480385, 5.280931873130612e-05, 1.3681198652193416e-05, 0.0006405824678950012, -0.1279892474412918, 0.010693016462028027, 0.01627727970480919, -3.0591098038712516e-05, 0.05252726376056671, 0.004448110703378916, 0.007107058074325323, -1.496969343861565e-05, -3.3897194953169674e-06], [0.007861892692744732, -0.04171711578965187, -0.020143702626228333, -0.01582658849656582, 0.026608183979988098, -0.033156681805849075, 0.05635690316557884, 0.05042380094528198, 0.09233880043029785, 0.000674137962050736, 0.005204804241657257, -0.00011641289165709168, -0.0278775617480278, -0.0009663444361649454, -0.04951832443475723, 0.024611283093690872, 0.0723828673362732, -0.0013586379354819655, 0.029519787058234215, 0.1465151309967041, 0.019536947831511497, -0.07361050695180893, 0.0001320544834015891, 6.375905650202185e-05, -0.01246339175850153, -0.018406644463539124, -0.005649116355925798, 0.0756625086069107, -0.00018857675604522228, -0.00025422192993573844, -0.0019328375346958637, -0.032670341432094574, -0.030972713604569435, 0.008809433318674564, 5.792934098280966e-05, 0.07143569737672806, -0.026863479986786842, 0.0010460879420861602, -0.00022269638429861516, -0.0002208216319559142], [-0.005327029153704643, -0.004275420214980841, -0.018266404047608376, -0.03719691187143326, 0.005976902320981026, -0.007532785646617413, 0.04896138235926628, 0.044766660779714584, 0.003439361462369561, 0.0001315158006036654, -0.05200755223631859, -5.1745697419391945e-05, -0.054186996072530746, -0.0005680425674654543, -0.00654617277905345, -0.04149412736296654, 0.05153021216392517, 4.645325316232629e-05, 0.07274395227432251, 0.005577848758548498, 0.01588837057352066, -0.0218286644667387, 0.00023918968508951366, -4.219526090309955e-05, -0.06725450605154037, 0.028272174298763275, -0.05702725797891617, -0.0007714203093200922, 2.770778701233212e-05, -4.2232670239172876e-05, -0.0011570379137992859, 0.006320918910205364, 0.004515203647315502, 0.031368087977170944, -8.515855370205827e-06, 0.03181036189198494, -0.05185456946492195, 0.04186252877116203, -0.00014461921819020063, -0.00010087219561683014], [4.417183774307887e-08, 3.428593799981172e-07, 3.1885957696431433e-07, 1.283369215343555e-06, -5.761534893622411e-08, 8.272272680187598e-07, -2.585288257250795e-06, 3.495756288884877e-07, -1.5899066738711554e-06, 5.258979918210116e-09, 2.367304290373795e-07, -3.5920649787968273e-10, -2.3263875448265026e-07, -5.2630717561896745e-09, -2.3088216494215885e-07, -8.290551818390668e-07, -2.9278314741532085e-06, -6.553947606846577e-09, 2.7979351102658256e-07, -1.1399667982914252e-06, -4.663543791139091e-07, 2.0407387637533247e-06, 9.205775031162489e-10, 8.442949117615228e-11, -1.755634571054543e-08, -5.656810344589758e-07, 1.4726079200499953e-07, -2.0294514513352624e-08, -1.865565202319175e-10, -2.58397997443538e-10, -4.265506614586911e-09, 8.486463229928631e-07, -1.31586105567294e-07, -1.595738922333112e-06, -3.4989969255327935e-10, 1.0480147238922655e-07, -7.243008894874947e-07, 1.716874038493188e-07, -3.0081059865239013e-10, -7.492991227486812e-10], [4.7578783579638184e-08, 8.206859547499334e-08, 7.948044355998718e-08, 1.7619224479403783e-07, 6.149306841507496e-07, 4.4462029791247915e-07, -2.739465685408504e-07, 4.6565727984670957e-07, 4.5913495227978274e-07, 7.627639853069468e-09, 4.1868881339723885e-07, -5.831902738506756e-10, -3.900221656749636e-07, -7.3746497797344546e-09, -7.784169042679423e-07, -5.10462882630236e-07, 7.071766390254197e-07, -9.860372074399493e-09, 1.5175918122167786e-07, -4.031476663612921e-08, -4.5808528170709906e-07, -5.213870508669061e-07, 1.8511394639375567e-09, -4.3686924737496025e-12, 7.454470818402115e-08, 1.5884337756233435e-07, 1.2644004243611562e-07, 6.207126830304333e-07, -1.0849684484171007e-09, -1.2562413331806965e-09, -5.8985829554103475e-09, -3.7145312603570346e-07, -6.789009034946503e-07, -1.3678051118404255e-06, -9.155409763650368e-10, 4.7266601654882834e-07, -3.0091834446466237e-07, 1.8433979676046874e-07, -1.212394296068453e-09, -1.571441199388346e-09], [-0.04341760650277138, -0.013222119770944118, -0.02017662115395069, -0.07574658840894699, -0.09497403353452682, -0.015623373910784721, -0.03864021599292755, -0.03569013252854347, 0.1325346976518631, 0.0003014217072632164, 0.015742933377623558, -3.562024357961491e-05, -0.015425360761582851, -0.0004045895184390247, 0.01743224821984768, 0.11007890850305557, 0.007391831371933222, -0.0006344226421788335, -0.02657341957092285, -0.091779425740242, 0.0009582950151525438, 0.023683926090598106, 2.6851706934394315e-05, 3.912700412911363e-05, -0.020874353125691414, -0.03399384021759033, -0.004809122532606125, -0.024739723652601242, 0.00013132636377122253, 2.5160008590319194e-05, -0.0004733846290037036, 0.05037324130535126, 0.0822196677327156, -0.03437336906790733, 0.00016876145673450083, 0.006857441272586584, -0.04788969084620476, 0.021809255704283714, -1.8459872080711648e-05, -3.1066218070918694e-05], [0.0063076019287109375, -0.0030180246103554964, 0.0015879350248724222, 0.003750743344426155, 0.04663389176130295, 0.04221765324473381, -0.0686023160815239, 0.006265627685934305, -0.043940335512161255, -0.00017737969756126404, 0.021585926413536072, -1.0592078069748823e-05, 0.014022164978086948, 0.00030206036171875894, 0.005293757189065218, 0.06639733165502548, -0.11530997604131699, 0.0002711441193241626, -0.03471238166093826, -0.09250576049089432, -0.007579816970974207, 0.062385618686676025, -4.699697092291899e-05, 4.271875150152482e-05, 0.024206217378377914, -0.030205031856894493, 0.011530226096510887, -0.035779085010290146, 9.313186637882609e-06, 1.4063431990507524e-05, 0.00045284524094313383, 0.08669790625572205, 0.03747484087944031, 0.005810702685266733, 2.511346247047186e-05, 0.03911940008401871, 0.007161092013120651, -0.01328080240637064, 1.6980315194814466e-05, 6.27789631835185e-05], [0.012679774314165115, 0.0066980961710214615, 0.005519411060959101, -0.01406419463455677, 0.02772637829184532, 0.0022338523995131254, 0.08043566346168518, -0.005949568934738636, 0.02967613749206066, -3.268588989158161e-05, -0.007035022601485252, -1.0155327800021041e-05, 0.012032396160066128, -0.00015116871509235352, -0.005202217493206263, -0.02182941883802414, 0.08160168677568436, -7.932686276035383e-05, -0.0038984953425824642, 0.09297952800989151, 0.0186027642339468, -0.059993669390678406, 3.8775808206992224e-05, 2.4247847250080667e-05, 0.016176363453269005, -0.015844564884901047, 0.0028074474539607763, -0.0008906382718123496, 4.8639773012837395e-05, 1.039940252667293e-05, -0.000667052750941366, 0.001982951071113348, -0.018742600455880165, 0.036143332719802856, 4.999562224838883e-05, -0.007040672469884157, 0.006743941456079483, -0.013232414610683918, -1.803410668799188e-05, 1.0274677606503246e-06], [-0.054476212710142136, -0.05165524408221245, 0.06743806600570679, -0.08755046874284744, 0.2404758781194687, -0.34873145818710327, -0.28959810733795166, 0.06396014988422394, 0.08767654746770859, -7.094368629623204e-05, -0.040529265999794006, -2.276242412335705e-06, 0.047983720898628235, -0.0008464737329632044, 0.0149149214848876, 0.3943992257118225, -0.17193563282489777, 0.00018580870528239757, 0.12828901410102844, -0.26086944341659546, 0.0048066419549286366, -0.15243124961853027, -0.0001488086418248713, -8.225652709370479e-05, -0.13537484407424927, 0.10831726342439651, 0.029370510950684547, 0.08487483859062195, -0.00020073710766155273, -0.00010804545308928937, -0.0023702592588961124, -0.20478183031082153, 0.10144136101007462, 0.2686140835285187, -0.00016889217658899724, 0.11192336678504944, -0.10018833726644516, -0.04178560897707939, 6.027924609952606e-05, -3.005281359946821e-05], [0.00838899053633213, -0.0009038758580572903, -0.013638705015182495, 0.052843816578388214, -0.05002737417817116, 0.08760129660367966, 0.0482771061360836, 0.030309569090604782, -0.12864314019680023, -0.0005263271159492433, 0.007399021647870541, 0.000129223451949656, -0.028612716123461723, 0.0007230407209135592, -0.0242408886551857, 0.012674347497522831, 0.04727892577648163, 0.0010855685686692595, 0.00602600397542119, 0.07822137326002121, 0.027760205790400505, 0.02834140509366989, -0.0004179275128990412, -3.6096091207582504e-05, 0.024286022409796715, -0.11545500159263611, -0.022744521498680115, -0.11532015353441238, -0.0002463761775288731, -2.5138027922366746e-05, 0.0012711401795968413, 0.26144838333129883, -0.06269995868206024, 0.08989181369543076, -0.00025566533440724015, 0.013116265647113323, 0.0014745719963684678, 0.01033923402428627, 0.0002268897369503975, 0.00014949258184060454], [-0.21277721226215363, -0.12833712995052338, -0.059941936284303665, 0.13040532171726227, 0.21744440495967865, -0.25593870878219604, 0.30795538425445557, 0.07811497151851654, 0.7100836634635925, 0.0004632886266335845, 0.17392466962337494, -0.0002146058832295239, -0.0705929845571518, 0.0007962301024235785, -0.36765536665916443, -0.19236072897911072, 0.7868714332580566, -0.0016209851019084454, 0.0890122652053833, 0.9124414920806885, 0.03196365013718605, -0.5360570549964905, 0.00028047559317201376, 0.0001567312137922272, -0.17886291444301605, 0.31678783893585205, 0.024634484201669693, 0.41333457827568054, 0.0007244854932650924, 0.00025508709950372577, 0.002405061386525631, -0.20852351188659668, 0.1160506084561348, 0.23789428174495697, 0.00044522882672026753, 0.045278988778591156, -0.058261606842279434, 0.04485616087913513, -4.063265441800468e-05, -1.3990175830258522e-05], [0.05984758585691452, -0.019754396751523018, -0.027530180290341377, 0.013384517282247543, 0.06397882848978043, -0.1005929484963417, 0.14532703161239624, 0.046097468584775925, 0.21629244089126587, 0.0009182345820590854, -0.01737537793815136, -0.00011582635488593951, 0.013710536062717438, -0.001042196643538773, -0.07318733632564545, -0.0837116613984108, 0.4844447374343872, -0.0022866346407681704, 0.02080806903541088, 0.08357776701450348, -0.014570413157343864, -0.37850847840309143, 0.0005258817691355944, 0.00012853897351305932, 0.031019065529108047, 0.05883612856268883, -0.00018346813158132136, 0.11762703955173492, 0.00019511007121764123, -9.468707867199555e-05, -0.002940058708190918, -0.021088333800435066, -0.038945384323596954, 0.2232511192560196, 0.0004406817606650293, -0.05009952932596207, 0.04604698717594147, -0.048854269087314606, -0.00034223892726004124, -0.00029213406378403306], [-0.04260842502117157, -0.0051189144141972065, -0.005240712780505419, -0.0810655727982521, -0.06532828509807587, -0.0005458600935526192, 0.01330551691353321, -0.03642953187227249, 0.11347291618585587, 0.00015462757437489927, 0.011504143476486206, 2.4462311557726935e-05, -0.03045962005853653, -0.00022355564578901976, -0.019279800355434418, 0.04811318218708038, 0.06190574914216995, -0.0002168471837649122, -0.015187172219157219, -0.032975565642118454, 0.010513737797737122, -0.029758283868432045, -0.00017143767036031932, 5.1701441407203674e-05, -0.002935099182650447, -0.005086126737296581, -0.00939831230789423, 0.016378099098801613, -2.6022515157819726e-05, -1.6021578630898148e-05, -0.00016801383753772825, -0.0018903946038335562, 0.01722053624689579, -0.007219310849905014, 7.789272058289498e-05, -0.00867481715977192, -0.005403117276728153, 0.027665555477142334, 3.999585533165373e-05, 2.0465333363972604e-05], [-0.09292680770158768, -0.02905532345175743, 0.001778117148205638, -0.09675978869199753, 0.03214148432016373, -0.02775566466152668, -0.0043000043369829655, -0.0086636608466506, 0.1362571269273758, 0.0011894485214725137, -0.01372692920267582, -5.949029582552612e-05, -0.014604875817894936, -0.0010022048372775316, -0.05428998917341232, 0.06117314472794533, 0.08900879323482513, -0.001912107109092176, -0.011121412739157677, 0.03963737562298775, 0.04799884930253029, -0.09144280105829239, -0.00015615564188919961, 0.00010633932106429711, -0.048203546553850174, -0.021324509754776955, 0.015617060475051403, 0.09038735181093216, -0.00032100739190354943, -0.0002950369962491095, -0.00023832751321606338, -0.07880125939846039, 0.03268237039446831, 0.08072914183139801, 2.7846523153129965e-05, -0.10898074507713318, -0.02145085111260414, 0.007074481807649136, -5.849264925927855e-05, -0.0002029246388701722], [1.0580710068097687e-06, 6.8848758019157685e-06, 3.3204407827724935e-06, 1.1428793186496478e-05, 2.3365009838016704e-05, 1.8464452296029776e-06, 1.4783260667172726e-05, 1.1643735888355877e-05, 2.486135417711921e-05, 1.5307688272514497e-07, -2.0450006559258327e-06, -1.8322399153447577e-09, -2.1691146230296e-06, -2.651604233960825e-07, -2.2779078790335916e-05, -3.1157596822595224e-05, 3.3157248253701255e-05, -1.9699811559803493e-07, 1.4120641026238445e-05, 2.6919940864900127e-05, 1.9671672362164827e-06, -2.260149449284654e-05, 9.138306111822203e-09, 1.4792513880479419e-09, -4.998496478947345e-06, 3.230954916944029e-07, 1.666572302383429e-06, 1.4405447473109234e-05, -4.845569989697651e-08, -3.9676141483369065e-08, -4.3020136786253715e-07, -8.201899618143216e-06, -5.671498001902364e-06, -5.138883352628909e-06, -2.3196918164103408e-08, -8.014651939447504e-06, -1.1593775525398087e-05, -7.641049251105869e-07, -2.2465323823439576e-08, -3.5956048805019236e-08], [-0.011031304486095905, -0.015057537704706192, 0.003277732525020838, 0.06283193826675415, 0.03397979214787483, -0.06415984034538269, 0.08204230666160583, 0.09446071088314056, -0.06603574752807617, -7.672449282836169e-05, -0.16646915674209595, -0.0001468094706069678, -0.11776083707809448, -0.0005577019182965159, -0.03406786173582077, -0.07020106911659241, 0.12006612867116928, 0.00017511507030576468, 0.22450973093509674, 0.02556147240102291, 0.04835624247789383, -0.040562521666288376, 0.00036470734630711377, -6.145866063889116e-05, -0.1778971403837204, 0.09102167934179306, -0.11788900196552277, 0.05312390625476837, 0.00013726521865464747, 3.586312595871277e-05, -0.001382474903948605, -0.007994508370757103, 0.02800297737121582, 0.11359892040491104, -5.421145033324137e-06, -0.020929349586367607, -0.007633861619979143, 0.08819124847650528, -0.00012236798647791147, -1.330798477283679e-05], [2.6276973486005772e-08, -6.351145032112981e-08, 1.2899641355090807e-08, -2.5988381935349025e-07, -6.32486830909329e-07, 4.29295226922477e-07, -5.442240649244923e-07, 5.339959940897643e-08, -8.962499578046845e-07, -2.0082467633297796e-10, -1.305305463716877e-08, -7.904873283726133e-11, -4.871176528808974e-08, 6.781110672982038e-10, 8.476533253087837e-08, 7.275930897776561e-07, -1.2331483958405443e-06, 5.219382703813835e-10, 9.55976560135241e-08, -1.079436970030656e-06, 5.917807044397705e-08, 7.725685122750292e-07, 5.065756703004354e-10, -1.3129225484576068e-10, 3.259107828057495e-08, -5.4990465514492826e-08, -3.229174438956761e-08, -4.81393044537981e-07, 2.1804963390437138e-10, 1.4101014800260714e-10, 1.2407533889202682e-09, 7.700878086325247e-07, -1.1670456601109436e-08, -2.065815074558941e-08, -1.837090202183589e-10, 7.361499143598849e-08, -2.519682951174218e-08, 3.805278225854636e-08, -4.245185800111351e-11, -1.8585331190701382e-11], [-0.024755533784627914, -0.05944386497139931, -0.05117126926779747, 0.008449777029454708, -0.1330815851688385, -0.034597624093294144, 0.042741626501083374, 0.10193699598312378, 0.0008658889564685524, 0.000498901295941323, -0.08971425145864487, -9.618242620490491e-05, -0.1508198380470276, -0.0014680195599794388, 0.0028334714006632566, 0.09126375615596771, 0.002616891637444496, -0.000657333992421627, 0.1354595273733139, -0.042419519275426865, 0.033720340579748154, 0.010204656049609184, 0.00028637595823965967, -3.007950544997584e-05, -0.12235617637634277, 0.0799788311123848, -0.131322979927063, 0.0005911759799346328, -6.873381607874762e-06, -9.205308015225455e-05, -0.0032509302254766226, 0.040333352982997894, -0.046997711062431335, 0.06247951462864876, 2.5391007511643693e-05, 0.08108896762132645, -0.07210558652877808, 0.09164424985647202, -0.00020461731764953583, -0.00016384939954150468], [3.818080949713476e-05, 6.339350511552766e-05, 5.471867916639894e-05, 0.00011426256969571114, 5.9252924984321e-05, 3.6421475670067593e-05, 1.2316969332459848e-05, -7.886502316978294e-06, 3.035138433915563e-05, 5.824509230478725e-07, -9.707569915917702e-06, -3.139105331229075e-08, 2.439658419461921e-05, -1.0256369478156557e-06, -8.920234904508106e-06, -0.00013767975906375796, 6.60807199892588e-05, -9.255679742636858e-07, -3.881598240695894e-05, 0.00010607695003272966, -4.968209032085724e-05, -2.7501291697262786e-05, 1.271343137432268e-07, -2.3305124940975475e-08, 2.3589509510202333e-05, -5.9441776102175936e-05, 3.495906275929883e-05, 4.902886939817108e-05, -9.887797602914361e-08, -9.154628344276716e-08, -1.856893504736945e-06, -5.630973191728117e-06, -3.9326554542640224e-05, -3.317994196549989e-05, -9.055148098013888e-08, -3.2964257115963846e-05, 6.025827588018728e-07, -2.346216388104949e-05, -6.960375742437463e-08, -1.1388770815301541e-07], [-0.025156067684292793, 0.02152174711227417, -0.020869329571723938, 0.009075304493308067, 0.012978318147361279, -0.018294472247362137, 0.032561156898736954, -0.08354438096284866, 0.08593223243951797, 0.0016798858996480703, 0.02303273230791092, -0.00024223685613833368, -0.003337428206577897, -0.0026485866401344538, 0.18836665153503418, -0.16998952627182007, -0.13257832825183868, -0.0033213673159480095, -0.26598384976387024, 0.09026440978050232, -0.13024230301380157, -0.004468087572604418, 0.0004052192089147866, 0.0001330637896899134, 0.013079478405416012, -0.0707913264632225, 0.03338141366839409, 0.22994954884052277, -9.919265721691772e-06, -0.00027177645824849606, -0.005558523815125227, -0.16546572744846344, -0.10226402431726456, -0.08904941380023956, 0.00031367820338346064, 0.014658098109066486, 0.021252423524856567, -0.0062599191442132, -0.00039526246837340295, -0.0004344225744716823], [-0.011652031913399696, 0.010881277732551098, 0.02271783910691738, -0.005070131737738848, 0.40258947014808655, 0.2832520306110382, -0.12961333990097046, 0.0949537456035614, -0.0009465084294788539, 0.0001433353463653475, -0.027756452560424805, -0.000146241785841994, 0.036044638603925705, 0.0015561314066872, -0.12948697805404663, -0.3667704463005066, -0.06449023634195328, 0.00043701723916456103, 0.060455963015556335, 0.0006831767386756837, -0.021281080320477486, 0.021640067920088768, -0.00023377170145977288, 7.161102257668972e-05, 0.026029586791992188, -0.15215542912483215, 0.011735163629055023, -0.09679684787988663, -0.00015875475946813822, -7.170133903855458e-05, 0.005648256279528141, 0.44697192311286926, 0.1379764825105667, 0.1397346556186676, -7.368763181148097e-05, 0.07225091755390167, 0.07380334287881851, -0.00013759020657744259, 0.00015931478992570192, 0.0001308320788666606], [0.01543677318841219, 0.06791488826274872, 0.053638163954019547, 0.1938207745552063, 0.13325321674346924, -0.09692414104938507, 0.12434612959623337, 0.040213361382484436, 0.3172394037246704, 0.0009363751742057502, -0.01404950488358736, -0.00020442555251065642, 0.005833741743117571, -0.0017788755940273404, -0.07803411781787872, -0.25533437728881836, 0.07646320015192032, -0.0014697435544803739, -0.11651929467916489, 0.31729498505592346, 0.005138782784342766, -0.38055869936943054, 0.0002053554344456643, 7.03269470250234e-05, 0.012527071870863438, -0.08016539365053177, 0.017652880400419235, 0.38432884216308594, -0.00016653561033308506, -0.00019488103862386197, -0.003389993216842413, -0.14334827661514282, 0.10329239070415497, 0.06479768455028534, 6.364475120790303e-05, -0.006825982592999935, -0.0626462996006012, -0.027583574876189232, -0.00020009280706290156, -0.00018563047342468053], [2.9715858545387164e-05, 2.2980462745181285e-05, 2.124469574482646e-05, 4.702931619249284e-05, 1.6526380932191387e-05, -1.3665270671481267e-05, -2.6504130801185966e-06, 3.7573108784272335e-06, -1.2940746273670811e-05, 5.440938366518822e-07, -4.5901288103777915e-06, -5.814664305603401e-08, -5.485661631610128e-07, -8.857962825459254e-07, 8.405904736719094e-06, -4.182652628514916e-05, -1.481570416217437e-05, -1.0022932883657631e-06, -2.5406137865502387e-05, 3.0845571018289775e-05, -3.9137641579145566e-05, -3.753714963750099e-06, 1.3710796054056118e-07, 5.885397946769899e-09, -1.2670583373619593e-06, -2.2955673557589762e-05, 1.2258137758180965e-05, 3.118710083072074e-05, -5.7480452397840054e-08, -9.947181212055511e-08, -1.70919213360321e-06, -1.5102207726158667e-05, -2.452565786370542e-05, -1.1504950634844135e-05, -7.366137033670839e-09, -2.4013732399907894e-05, 3.8535349631274585e-06, -1.2513270121417008e-05, -1.0216704993126768e-07, -1.197522720985944e-07], [0.052400991320610046, 0.10905789583921432, -0.07214245200157166, 0.21963733434677124, 0.06342155486345291, 0.18075688183307648, 0.2388777881860733, 0.03999962657690048, 0.07752995193004608, 0.0009025046601891518, 0.07474014163017273, -0.00011821856605820358, -0.09470146894454956, -0.0028015507850795984, 0.0687224417924881, -0.720187246799469, 0.508109450340271, -0.0019730969797819853, 0.0362665057182312, 0.6712273955345154, -0.036627769470214844, -0.20741814374923706, 2.6475074719201075e-06, 0.00013720730203203857, -0.18774540722370148, -0.10690061002969742, -0.0662931501865387, 0.34070611000061035, -0.00026303832419216633, -0.00024850957561284304, -0.007258201017975807, 0.12215892225503922, 0.014469070360064507, 0.3173692524433136, 0.00023306015646085143, 0.07127296179533005, -0.032866816967725754, -0.07486141473054886, -0.00022442206682171673, -0.00023181570577435195], [0.03921150043606758, 0.16711530089378357, 0.10083547979593277, 0.009438582696020603, 0.2748886048793793, 0.2668156623840332, 0.11639930307865143, -0.126299649477005, 0.0806628093123436, 0.0009411974460817873, -0.016519250348210335, -0.00017677078722044826, 0.00838493462651968, -0.0006392563809640706, -0.040756143629550934, -0.3636777698993683, 0.1400231420993805, -0.0006025764741934836, 0.036245111376047134, 0.1276983916759491, 0.10671155899763107, -0.09494650363922119, 0.0001586819562362507, 0.00026107410667464137, -0.004818200599402189, -0.43047034740448, 9.84008966042893e-06, -0.02597442828118801, -9.437486369279213e-06, -0.00010981879313476384, 0.0007751811062917113, 0.12307950109243393, 0.1449875384569168, 0.13255575299263, 0.00036927868495695293, -0.0028486927039921284, -0.2590527832508087, 0.01671450212597847, -0.00014428840950131416, -0.0001748608483467251], [0.007771093398332596, 0.009948423132300377, -0.04422323778271675, 0.04865368455648422, 0.11214496195316315, -0.06590354442596436, 0.029761627316474915, -0.022623252123594284, -0.010518531315028667, -0.0002880201500374824, 0.0350901298224926, 5.525397136807442e-05, -0.0058154272846877575, 0.00014793167065363377, 0.031018970534205437, -0.05582742393016815, 0.17900371551513672, 0.00013863827916793525, -0.07002708315849304, 0.08513084053993225, -0.026931598782539368, -0.10451339185237885, -1.554268237669021e-05, -1.095940297091147e-05, 0.004007451701909304, -0.015178446657955647, 0.002644175197929144, 0.0308787003159523, 0.000130961459944956, 0.00011576359975151718, -0.0005676576402038336, -0.10031374543905258, -0.010830136016011238, -0.051870059221982956, 3.071629907935858e-05, -0.005745552945882082, 0.013048007152974606, 0.00787584949284792, 1.8937791537609883e-05, 6.647030386375263e-05], [-0.04513920471072197, -0.04185037314891815, 0.006022111978381872, -0.001004510442726314, 0.034869808703660965, 0.19076259434223175, 0.06734950095415115, 0.03221217542886734, 0.10568726807832718, 0.0004092298913747072, -0.01588832028210163, -5.910593245062046e-05, -0.023055674508213997, -0.0004479351919144392, -0.04107816517353058, -0.07536806166172028, 0.44633567333221436, -8.642881584819406e-05, 0.08637144416570663, 0.011399459093809128, 0.1177610233426094, 0.1587551385164261, 7.729318167548627e-05, -3.774809374590404e-05, -0.03366377577185631, 0.07409065216779709, -0.027098514139652252, 0.02152915671467781, -5.902253178646788e-05, -3.9619462768314406e-05, -0.00021650863345712423, 0.27191710472106934, 0.023759271949529648, 0.2685336172580719, -7.635980728082359e-05, 0.0003544601204339415, -0.05174003168940544, 0.014617634937167168, -5.7316585298394784e-05, -0.00014823219680693], [8.370278692382271e-08, 3.948927655983425e-07, 1.3257429998247972e-07, -1.5162771660470753e-06, -5.3842195484321564e-06, 4.681042355514364e-06, -8.181562407116871e-06, 8.775343474098918e-08, -9.134801075560972e-06, 1.184386011487959e-08, -9.626273822505027e-08, -9.02623253917767e-10, -1.484364702264429e-07, -1.298176499631154e-08, -4.212857618313137e-08, 6.526498509629164e-06, -2.152916022168938e-05, -5.153049542627741e-09, 9.102957392315147e-07, -1.5330000678659417e-05, 3.6088920296606375e-07, 1.0573347026365809e-05, 6.9126815382958284e-09, -1.041495334419551e-09, -4.2482710682634206e-07, -1.4452602954406757e-06, 1.704193408613719e-07, -5.2198247431078926e-06, -1.2788355929771456e-09, -1.7002769192586697e-09, 8.207636237322902e-10, 8.660277671879157e-06, 8.120179018078488e-07, -2.395438741586986e-06, -3.54686657821901e-09, -4.927775876240048e-07, -1.4304582691693213e-06, 6.72982764626795e-07, -2.7349857933955946e-09, -3.5193048475434807e-09], [1.576976416117759e-07, 2.5181319074363273e-07, 2.8234234150659177e-07, 6.319908152363496e-07, -1.7396816076598043e-07, 3.4253781677762163e-07, -3.57864223587967e-07, -8.813526619633194e-08, -4.339491113114491e-07, 5.565737870583121e-10, -1.0552213325354387e-07, -1.7106266490124478e-12, 1.5506182649005495e-07, -1.6079502174193294e-09, -1.9035622855767542e-08, -1.3411326449386252e-07, -8.661791071062908e-07, -1.044975661557146e-09, -6.675372077324937e-08, -3.2531701776861155e-07, -1.5102921224752208e-07, 4.818192564925994e-07, 1.8193192785620482e-10, -1.4420887227417634e-11, 9.898558062104712e-08, -2.472081632731715e-07, 1.3089280059830344e-07, -2.16161694766015e-07, -1.4662773772933235e-10, -5.7588094015681435e-11, -3.024156924880117e-09, 4.5047815433463256e-07, 5.779923739623882e-08, -1.137425655883817e-07, -1.2043176178533344e-10, -3.003400195211725e-07, 7.418147873750058e-08, -1.214101388313793e-07, -2.416874859967333e-12, -4.7183309342946345e-11], [-0.008895864710211754, -0.01621522754430771, -0.0022389227524399757, 0.03663073852658272, -0.04621748626232147, -0.05107292905449867, 0.08356210589408875, 0.04935504496097565, -0.039163269102573395, -0.00023975546355359256, -0.15014539659023285, -0.00015349315071944147, -0.14608998596668243, -0.00018578700837679207, -0.0667838305234909, -0.0902615562081337, 0.11971279978752136, 0.00020190207578707486, 0.32855677604675293, 0.07443495839834213, -0.008492627181112766, 0.012941335327923298, 0.0003519009333103895, -2.5832630853983574e-05, -0.19703461229801178, 0.02874230593442917, -0.14162710309028625, 0.051234323531389236, 0.0002305718371644616, 8.080434781732038e-05, -0.0010343198664486408, -0.007408183068037033, 0.013794852420687675, 0.0425291508436203, 8.945897570811212e-05, 0.04006589204072952, -0.03599536418914795, 0.13316161930561066, -0.00012163694191258401, 1.4060964531381615e-05], [-0.049354758113622665, 0.002748433966189623, -0.044416267424821854, -0.18780280649662018, -0.21792259812355042, -0.0643797367811203, 0.18851591646671295, -0.12608954310417175, 0.03676988556981087, -0.000470808387035504, -0.0288337841629982, 8.072883065324277e-05, 0.012650098651647568, 5.41423651156947e-05, 0.05859336629509926, 0.19178016483783722, 0.11691410094499588, 0.0003948259400203824, -0.0681987777352333, -0.22403940558433533, 0.04899245500564575, 0.023720191791653633, -0.00018751565949060023, 3.408289558137767e-05, -0.0164205189794302, 0.00397975230589509, -0.012379956431686878, -0.08044689148664474, 8.728847751626745e-05, 0.00011711962724803016, -0.0009335226495750248, 0.03214462846517563, 0.15057119727134705, 0.07145252078771591, 0.00010458347242092714, -0.008633634075522423, 0.08014295250177383, 0.0005938734975643456, 9.952070831786841e-05, 0.00014217046555131674], [-0.02432813122868538, -0.03545985370874405, -0.029675645753741264, 0.028605252504348755, -0.11119132488965988, -0.028994467109441757, 0.018595051020383835, 0.08117295801639557, -0.041505955159664154, 0.00011433110194047913, -0.1046053096652031, -9.413877705810592e-05, -0.14720815420150757, -0.0008388763526454568, 0.00259869871661067, 0.04312660172581673, 0.04781055822968483, 7.329923391807824e-05, 0.17354026436805725, -0.05184632167220116, 0.03743557259440422, 0.016740331426262856, 0.0002886403235606849, -5.281552512315102e-05, -0.13852345943450928, 0.05977445840835571, -0.12815137207508087, -0.019173821434378624, 0.00010068580013466999, 1.5864992747083306e-05, -0.001897494774311781, 0.07950898259878159, -0.017515534535050392, 0.06870333850383759, 1.056198470905656e-06, 0.04447293281555176, -0.05029229447245598, 0.10170270502567291, -0.00014035223284736276, -7.452029967680573e-05], [0.011620611883699894, 0.006199262570589781, -0.04927600920200348, -0.07217385619878769, 0.14352020621299744, -0.1609872728586197, 0.14302892982959747, 0.01703644171357155, 0.016989843919873238, 0.0003121242334600538, 0.027010593563318253, -7.560366066172719e-05, -0.0393192358314991, -0.00021683634258806705, 0.05204093083739281, -0.1791895627975464, -0.07964884489774704, -0.0010336794657632709, -0.04616726189851761, 0.15709657967090607, -0.04335840791463852, -0.0640408918261528, 0.00015076555428095162, 8.145634637912735e-05, -0.04921644553542137, 0.07855594903230667, -0.014941391535103321, 0.17704862356185913, -6.414252766262507e-06, -0.00018048853962682188, -0.0009807855822145939, -0.3333745300769806, -0.08231226354837418, -0.004911929368972778, 0.00024062349984887987, -0.032482489943504333, 0.015366691164672375, 0.016182733699679375, -0.00025814137188717723, -0.0001510147558292374], [4.167961549228494e-07, 1.1766862826334545e-06, 6.937433454368147e-07, 2.5462570647505345e-06, 2.2913829980097944e-06, 9.613497695681872e-07, -1.277183059755771e-06, 2.277062236544225e-07, -1.3463284176395973e-06, 3.4010365634884465e-09, -1.0336367495256127e-06, -1.885059608408568e-10, 3.6307291395587526e-08, -7.616455910408604e-09, -1.1483118669275427e-06, -4.3065001591457985e-06, -5.85344332648674e-06, -3.6923439861169527e-09, 8.185979822883382e-07, 1.2976933021491277e-06, 1.3734921822106116e-07, 1.3461583421303658e-06, 1.4760219713139122e-09, 4.73279138102356e-10, -5.512484335667978e-07, -1.0728080042099464e-06, 1.1132738819696897e-07, 1.3401369187704404e-06, -4.055048519191473e-10, -6.932642654389198e-11, -1.185694831207229e-08, 7.955172520723863e-08, -8.853936606101342e-07, -1.8365713572165987e-07, 8.387985445112989e-11, -1.3155379292584257e-06, -3.6641893075284315e-07, 1.3895670747388067e-07, -4.5262199543927295e-10, -7.308293969998658e-10], [2.218700672074192e-07, 5.143019734532572e-07, 2.675384962458338e-07, 6.482644607785915e-07, 1.4328799124996294e-06, -2.7203128638575436e-07, 2.1301575259258243e-07, 5.765496666754188e-07, 5.300334464664047e-07, 7.594572082325612e-09, -2.770335356672149e-07, -5.441277983742054e-10, -2.660528082287783e-07, -1.3117015029706636e-08, -8.668008604217903e-07, -1.9501660517562414e-06, -4.4980265556660015e-07, -1.2168841045934187e-08, 4.1491949787086924e-07, 1.1532027883731644e-06, -2.528216214159329e-07, -5.914889129599032e-07, 1.4804596437656414e-09, 2.0311990978072458e-10, -3.360310927291721e-07, -1.434610794603941e-07, 3.740573717436746e-08, 1.7182950386995799e-06, -7.586942740722691e-10, -8.832354847498891e-10, -2.463778514538717e-08, -1.3439163240036578e-06, -1.043364704855776e-06, -1.534620395204911e-07, -1.7141325858727186e-10, -4.0647842070029583e-07, -3.452271926107642e-07, -2.9519490851726005e-08, -1.0411932427345505e-09, -1.5276210296732984e-09], [0.00016192543262150139, 0.0001823668135330081, 0.0001399235043209046, 0.000545634189620614, 0.00013839639723300934, -1.0544933502387721e-05, -4.1973271436290815e-06, -0.00013985755504108965, 0.00016482079809065908, 2.456732318023569e-06, 4.8075828090077266e-05, -3.3498997709102696e-07, 0.00010178748198086396, -5.05391744809458e-06, 8.196366979973391e-05, -0.00044347246875986457, 0.0003685681149363518, -4.534654181043152e-06, -0.0003319044189993292, 0.0005238237208686769, -0.00026529366732575, -0.00017183725140057504, 1.2424745818861993e-06, -1.9600274470121803e-07, 0.00015225322567857802, -0.0002518398396205157, 0.00017016012861859053, 0.00026505510322749615, 1.7494886606073123e-07, -8.62283258129537e-08, -1.0994976037181914e-05, -0.0002614912227727473, -0.00024070736253634095, -0.00015219367924146354, -1.6519116741164908e-07, 1.7020960513036698e-05, 0.00012449065980035812, -0.00012972313561476767, -4.2335273064963985e-07, -5.045814646109648e-07], [0.0015190956182777882, 0.019216151908040047, -0.0025358484126627445, 0.03363845869898796, -0.023149864748120308, -0.14131328463554382, 0.3497909903526306, -0.06303970515727997, 0.2839183807373047, -0.0019101033685728908, -0.016375640407204628, 0.00042616180144250393, 0.010471577756106853, 0.001643874915316701, -0.08319828659296036, -0.30448073148727417, 0.47274139523506165, 0.0032304718624800444, 0.15704107284545898, 0.7123836874961853, 0.04281606152653694, -0.03851782903075218, -0.0008543262374587357, -0.00012606059317477047, -0.3331455588340759, 0.09220840036869049, 0.0036476003006100655, 0.49044302105903625, 7.952133455546573e-05, 0.0004952860763296485, 0.003176583908498287, -0.048437897115945816, 0.1306387484073639, 0.14940692484378815, 1.5222118236124516e-05, -0.13961108028888702, 0.1727169156074524, 0.040176935493946075, 0.0007021824712865055, 0.0002927590685430914], [0.040113385766744614, 0.04246136173605919, 0.0037825023755431175, -0.34946492314338684, 0.05534785985946655, -0.019015096127986908, 0.30726751685142517, -0.06972239166498184, -0.0941743552684784, -0.0002601073356345296, -0.001000142889097333, -0.0001668816403253004, 0.007071596570312977, 0.0005828785942867398, 0.07975494116544724, -0.12320688366889954, 0.07053319364786148, -0.00026640386204235256, -0.08385057002305984, 0.11768685281276703, 0.05966535583138466, 0.01725189946591854, 0.00030014701769687235, 9.382989082951099e-05, 0.051918454468250275, -0.07593338936567307, -0.0015930753434076905, 0.046735603362321854, 0.00020967761520296335, -7.576678854093188e-06, 0.00038760562893003225, 0.0495956614613533, -0.12742586433887482, 0.30296120047569275, 0.00034182285889983177, 0.0340038500726223, 0.07566645741462708, -0.003387106815353036, -0.00016122199303936213, -4.4172706111567095e-05], [0.044394660741090775, 0.022669799625873566, -0.05255892127752304, -0.431726336479187, 0.08746557682752609, 0.03317899629473686, 0.391227662563324, -0.012836148031055927, 0.1290016919374466, -2.0415882318047807e-05, -0.024522600695490837, -1.801825601432938e-05, 0.028288282454013824, -0.0004887765389867127, -0.036804523319005966, -0.01868661679327488, 0.2520529329776764, -0.0006730346358381212, 0.05376972258090973, 0.18186882138252258, 0.06830235570669174, 0.04383126273751259, 0.00034212094033136964, -2.4443392248940654e-05, 0.01857340894639492, 0.023172805085778236, -0.010269290767610073, 0.09602212905883789, 0.00024114764528349042, 0.0001238021213794127, -0.002564187627285719, -0.03858250752091408, 0.05833720415830612, 0.28783026337623596, 0.00013228607713244855, -0.05437624827027321, 0.01755109801888466, -0.03591352328658104, -0.00012104055349482223, -2.0379832221806282e-06], [4.6392975150411075e-07, 3.156564503115078e-07, 4.902423711428128e-07, 1.8776516981233726e-06, -8.376273399335332e-07, 2.1168341390875867e-06, -2.1320872747310204e-06, 1.608881063930312e-07, -3.55870497514843e-06, 1.728653553634274e-09, -1.1124141963136935e-07, -2.579931407398206e-11, 1.306302834791495e-07, -2.057329417937126e-09, 1.9918819305075885e-07, -3.987760237578186e-07, -5.53021845917101e-06, -2.9036530957426976e-09, -2.4841315848789236e-07, -1.0594006880637608e-06, -2.6334762992519245e-07, 2.915721552199102e-06, 4.656987018236691e-10, -3.824993377588015e-10, 6.698842867081112e-07, -8.094233407973661e-07, 2.3287491046630748e-07, -8.900897796593199e-07, -5.51959478123365e-10, -1.1786369102928518e-10, -4.715525747656102e-09, 2.5216631911462173e-06, -1.113534381147474e-06, -4.4465986093200627e-07, -1.21958609877737e-09, -4.699324307466668e-08, 2.2054814508010168e-07, -1.8650351307769597e-07, 1.7414827913064812e-10, -3.0858465782657163e-10], [0.02761165238916874, -0.025982078164815903, 0.02536705881357193, -0.013181290589272976, -0.03958453983068466, 0.1424979865550995, -0.0495244525372982, 0.04068514332175255, -0.08749585598707199, 0.0001381854817736894, 0.021974606439471245, 4.086380795342848e-05, -0.008916168473660946, 0.00025564475799910724, -0.026555920019745827, -0.2045806348323822, -0.1342771351337433, -0.00019652269838843495, -0.0260724276304245, -0.021213941276073456, -0.028463318943977356, 0.08741586655378342, -0.00026977990637533367, 3.8098245568107814e-05, 0.062157753854990005, -0.05933206528425217, -0.001961219822987914, -0.0060204933397471905, -0.00020339872571639717, -0.0001009641564451158, 0.0009350703912787139, 0.17620889842510223, -0.0642969161272049, 0.018423350527882576, -8.013358456082642e-05, 0.050915129482746124, 0.01448985654860735, -0.007144979201257229, 7.354145782301202e-05, 8.437642463832162e-06], [-0.011454382911324501, -0.04199276119470596, -0.02223684825003147, -0.18989555537700653, -0.06852728873491287, 0.008944404311478138, -0.016502831131219864, 0.06420085579156876, 0.030494166538119316, 0.0007596157374791801, -0.0030528432689607143, -0.00010805495548993349, -0.04060140624642372, -0.0008980019483715296, -0.02452687732875347, 0.13962183892726898, -0.09359481185674667, -0.0014554801164194942, 0.05009814724326134, -0.04346942529082298, 0.015116872265934944, 0.02624344639480114, 6.147240492282435e-05, 0.0001017466202029027, -0.028732964769005775, 0.027568742632865906, -0.02430679090321064, 0.047953102737665176, -0.00025148122222162783, -0.00031171407317742705, -0.0016488005639985204, 0.030777715146541595, -0.02266523241996765, -0.006090932991355658, 0.00010444920917507261, -0.048114363104104996, -0.04078671336174011, 0.017707137390971184, -0.00025497638853266835, -0.00024201533233281225], [-0.000524126342497766, -0.02271198481321335, -0.0296771340072155, 0.021837512031197548, -0.02349241077899933, 0.00888596661388874, 0.042932190001010895, 0.08555187284946442, -0.020900094881653786, 0.00019184499979019165, -0.08968596905469894, -8.051329496083781e-05, -0.10681330412626266, -0.0008452257025055587, -0.012036974541842937, -0.035878248512744904, 0.06823799014091492, -5.853691982338205e-05, 0.12576545774936676, 0.021246928721666336, 0.013304940424859524, -0.004434696864336729, 0.0002767983532976359, -4.13558300351724e-05, -0.11010633409023285, 0.028876055032014847, -0.09906159341335297, -0.003913450054824352, 7.203498535091057e-05, -8.303004506160505e-06, -0.0018163954373449087, 0.05177728086709976, -0.012733237817883492, 0.04797292873263359, -1.019864086515554e-07, 0.045625876635313034, -0.06017809733748436, 0.0733405277132988, -0.00014618087152484804, -8.278507448267192e-05], [1.445271351485644e-07, 2.681707087504037e-07, 2.652083139764727e-07, 1.537173375254497e-06, -2.428260081899225e-08, 8.905003028303327e-07, -2.4592579848103924e-06, 5.086346277494158e-07, -1.5542997289230698e-06, 6.616704961714959e-09, 2.8257642270546057e-07, -4.151029520116367e-10, -2.6189269419774064e-07, -7.725440731576327e-09, -3.19600928833097e-07, -7.921449878267595e-07, -2.8421025035640923e-06, -8.739962531478795e-09, 2.704106520923233e-07, -9.681880328571424e-07, -5.093601771477552e-07, 1.952138291017036e-06, 1.205230026890547e-09, -9.483324542314264e-11, 3.530253867012334e-09, -5.444210842142638e-07, 1.631484565223218e-07, 1.0717450749098134e-07, -5.111071565977454e-10, -5.874008501827177e-10, -9.406830869806981e-09, 7.928903187348624e-07, -4.54404556649024e-07, -1.5614285757692414e-06, -7.677522506632783e-10, -3.5068122627990306e-08, -6.882539764774265e-07, 1.1606995542479126e-07, -5.326619145762379e-10, -1.147155481717732e-09], [2.756351022981107e-07, 7.889730824217622e-08, -4.7674326708602166e-08, 1.2510439546531416e-06, 1.1417447467465536e-06, 4.482754434320668e-07, 2.0755659591031872e-07, 8.716904176253593e-07, 5.557104145736957e-07, 1.075893862889643e-08, 3.734380129571946e-07, -5.987677020868887e-10, -3.9677343011135235e-07, -1.397110782619393e-08, -1.1300124924673582e-06, -1.2351911209407263e-06, 6.385975552802847e-07, -1.4323508601421509e-08, 3.241511592477764e-07, 8.783843554738269e-07, -3.651143458682782e-07, -8.553979000680556e-07, 2.121731901283397e-09, -3.5205671711224795e-10, 4.41297522968398e-08, 1.615244400454685e-07, 1.4003656190197944e-07, 8.32421392260585e-07, -2.158561995813102e-09, -2.136697929699949e-09, -1.9448842536462507e-08, -5.162305569683667e-07, -1.266771732844063e-06, -1.0751288073151954e-06, -1.9418786578739855e-09, -9.845678050623974e-08, -2.730852202148526e-07, 1.7198735768886309e-09, -1.6578853845317099e-09, -2.5296746919423185e-09], [0.1545708328485489, 0.07137832045555115, 0.0020780942868441343, 0.053871411830186844, 0.26026809215545654, -0.20003660023212433, 0.22314953804016113, 0.05178583040833473, -0.2854830026626587, -0.0011314782314002514, 0.003812827868387103, 2.0057943402207457e-05, 0.017293941229581833, 0.001100385095924139, -0.019525866955518723, -0.3286709189414978, -0.02069956809282303, 0.0004135946510359645, 0.10201050341129303, 0.18768171966075897, -0.01954260654747486, 0.09640751779079437, 8.791135041974485e-05, -6.496026617242023e-05, -0.009537757374346256, -0.024224741384387016, 0.031843531876802444, 0.045450758188962936, 0.00032503012334927917, 0.00033344203257001936, -0.00021606823429465294, 0.003386884927749634, -0.0158810093998909, 0.03888705372810364, -2.6632953449734487e-05, 0.10069943219423294, 0.07277543097734451, -0.02632654458284378, 0.00025503846700303257, 0.00041931626037694514], [-0.018402520567178726, -0.6106072664260864, -0.13657835125923157, -0.0854126438498497, -0.045717205852270126, 0.1267039179801941, 0.08122924715280533, -0.11078133434057236, -0.07510162144899368, 0.0016556691844016314, 0.04094255715608597, -0.00013011787086725235, -0.06526832282543182, -0.0006450187647715211, -0.06256835162639618, -0.5362026691436768, 0.21617400646209717, -0.0021604474168270826, 0.22006718814373016, -0.36909762024879456, 0.025279035791754723, 0.01752704568207264, 1.858678115240764e-05, -0.0002853107580449432, -0.04502458497881889, -0.2034621238708496, -0.10048892349004745, -0.07501101493835449, -0.0004844003706239164, -0.0004628982860594988, 0.0004386541259009391, 0.05265989899635315, -0.1849159151315689, -0.002812076359987259, -0.0006117455195635557, -0.29745274782180786, -0.12046252936124802, 0.012774154543876648, -8.818878995953128e-05, -0.0004972645547240973], [-0.03659765422344208, 0.049048975110054016, 0.14363937079906464, -0.13014335930347443, -0.016822105273604393, -0.0061382120475173, -0.25704461336135864, 0.03884626552462578, -0.07426105439662933, 0.0019819731824100018, -0.013121300376951694, -0.00034056161530315876, -0.013357163406908512, -0.0009940288728103042, -0.06986275315284729, -0.1943504959344864, 0.0676690936088562, -0.0012462406884878874, 0.01092548854649067, 0.017334843054413795, 0.02057752199470997, -0.10108162462711334, 0.00047511368757113814, -0.00023140838311519474, 0.04828609898686409, 0.10799536108970642, 0.012774121947586536, -0.10833412408828735, -0.00014557558461092412, -0.00021634047152474523, 0.003088085213676095, 0.11733952909708023, -0.11243084818124771, 0.11098988354206085, -0.00046253239270299673, -0.34434810280799866, 0.034906771034002304, -0.018375620245933533, -0.00012167647946625948, -0.000598988204728812], [-0.10507365316152573, 0.3814089894294739, 0.2197248339653015, 1.0507619380950928, 1.2440128326416016, -0.06928519904613495, -0.01441685389727354, -0.5265486240386963, -0.09763582050800323, -0.013730517588555813, -0.23462682962417603, 0.000373268558178097, 0.07816238701343536, 0.01759318634867668, -0.017041359096765518, -2.3874588012695312, -0.2440587431192398, 0.01878494583070278, 0.354973167181015, -0.22064712643623352, -0.07536093890666962, -0.03780551254749298, -0.00041039512143470347, 0.002103666542097926, 0.030722465366125107, 0.16971275210380554, -0.09431096911430359, -0.4472932517528534, 0.0027865387964993715, 0.0029094864148646593, 0.029480328783392906, 0.425332635641098, 1.197574496269226, -0.009023497812449932, 0.005310798063874245, 0.9462392330169678, 0.09199751168489456, 0.01784456893801689, 0.0009203885565511882, 0.004170021042227745], [-0.11888713389635086, -0.05576244741678238, -0.03203416243195534, -0.2501347064971924, 0.06976575404405594, 0.2445647418498993, -0.0348375104367733, 0.016708165407180786, 0.0014516403898596764, 0.001687541021965444, 0.10078628361225128, -0.0004541620728559792, -0.1550523191690445, 0.0035990276373922825, -0.2913914620876312, -0.7023810744285583, -0.0702471062541008, -0.0011238440638408065, 0.5339210033416748, 0.026581261307001114, -0.12124872207641602, -0.11618274450302124, 0.0001477254118071869, 0.0002856450737453997, 0.05842570587992668, 0.3335367441177368, -0.08352542668581009, 0.006976109463721514, -0.00012785157014150172, -0.00020974539802409708, 0.014613050036132336, -0.2825074791908264, -0.030353745445609093, 0.09325531870126724, 0.00022502926003653556, -1.6182529926300049, 0.06147564575076103, 0.052323926240205765, -0.00020118895918130875, -0.00022802574676461518], [-0.07145866006612778, -0.14663736522197723, -0.1531980037689209, -0.08116599172353745, 0.04362562298774719, 0.5575161576271057, 0.14024178683757782, 0.0807492583990097, -0.2207670509815216, -0.0016375361010432243, -0.03385567665100098, -5.738288018619642e-05, -0.07416793704032898, -0.001222687540575862, -0.03179541230201721, -0.02289806678891182, 0.08193693310022354, -0.0025808517821133137, -0.07443572580814362, 0.18511863052845, -0.07523808628320694, 0.10773929208517075, -0.0004949895665049553, -4.706420804723166e-05, -0.09058453142642975, 0.13438785076141357, 0.03528387099504471, -0.0515650138258934, 0.00017611152725294232, 0.00010566063428996131, -0.01121780276298523, 0.22593557834625244, -0.09816719591617584, 0.07575353980064392, 0.0003616602916736156, -0.003347818972542882, 0.1799217015504837, -0.10135601460933685, 0.00029605202144011855, 0.0005226244684308767], [0.08828429132699966, 0.0624937042593956, -0.03669242188334465, -0.10036839544773102, -0.09248974174261093, -0.11521177738904953, 0.4958711266517639, -0.0008461694815196097, 0.0872192531824112, -0.0024992991238832474, -0.04174591973423958, 0.0004172144108451903, 0.12196727842092514, 0.005804885644465685, -0.06733549386262894, 0.055486563593149185, -0.09695105254650116, 0.004659375175833702, -0.006573070771992207, 0.09217482805252075, 0.2859301269054413, 0.00959803257137537, -0.0008717150776647031, -0.00012020170106552541, 0.10911501944065094, 0.04318254441022873, -0.01218709908425808, 0.011750869452953339, -3.2426007237518206e-05, 0.0004525596450548619, 0.012967796064913273, 0.030901914462447166, -0.29072830080986023, 0.1833493560552597, -0.0005438675289042294, -0.27977338433265686, 0.0976095199584961, 0.013499009422957897, 0.0008124588057398796, 0.000678379088640213], [0.017816169187426567, -0.07180456817150116, 0.0817350447177887, 0.15402474999427795, 0.27823203802108765, 0.07996437698602676, -0.044538531452417374, 0.12379351258277893, -0.0032016069162636995, 0.0007777895079925656, -0.0023910333402454853, 8.696025179233402e-05, -0.03149466589093208, -0.002073521725833416, -0.05120354890823364, 0.0064879427663981915, -0.13975796103477478, 0.0002163933968404308, 0.26748546957969666, -0.040010858327150345, -0.012628109194338322, 0.005248621106147766, 0.00038914973265491426, 8.892149344319478e-05, -0.0824703574180603, 0.19745932519435883, -0.07217859476804733, 0.11004351079463959, 0.0001391125697409734, 6.0320096963550895e-05, -0.0024610485415905714, 0.03281090781092644, 0.02930750697851181, 0.11334124207496643, 0.0002600377192720771, 0.3075129985809326, -0.0837278664112091, 0.04210757836699486, -0.00034803731250576675, -0.00019406428327783942], [-0.09869878739118576, -0.18561406433582306, -0.09180784225463867, -0.12898406386375427, -0.11767076700925827, 0.1887597292661667, -0.39228954911231995, 0.0512026809155941, 0.1899958699941635, 0.002339756116271019, 0.06432327628135681, -0.00041570491157472134, -0.07255088537931442, -0.002165591809898615, -0.1662687212228775, 0.057892583310604095, -0.14087042212486267, -0.005110954400151968, 0.019648106768727303, 0.003969601821154356, 0.10273078829050064, -0.06486812978982925, 0.0002117285766871646, 3.343449498061091e-05, -0.03770996630191803, -0.08885126560926437, 0.08114106953144073, 0.034753136336803436, -0.00036373466718941927, -0.000350533751770854, -0.0030526756308972836, -0.01181553304195404, 0.02711971290409565, -0.14408428966999054, -0.00018592739070300013, -0.1514759659767151, 0.043267276138067245, 0.028184443712234497, 5.715434599551372e-05, -0.0004036364844068885], [-0.00036043429281562567, 0.0011147722834721208, 0.0019832770340144634, 0.001213295035995543, 0.004747170023620129, 0.0019675481598824263, -0.002076882403343916, 0.0017497551161795855, -0.00029828998958691955, 4.8626541683916e-05, 0.0009582039783708751, 1.8080288555211155e-06, 0.00028769084019586444, -0.00010004201612900943, 0.0009057034621946514, -0.0008822315721772611, -0.009439485147595406, -4.832076228922233e-05, -0.0012390830088406801, -0.004213311709463596, 0.001239544479176402, -0.00019172270549461246, 1.1552010619197972e-05, -2.3335368837251735e-07, 0.0010801503667607903, 0.00155943154823035, 0.0009356991504319012, 0.00024714917526580393, -1.3888569810660556e-05, -1.176583373307949e-05, -0.0001484142994740978, 0.0012948067160323262, -0.0005787326954305172, 0.0002964954765047878, -6.072255928302184e-06, 0.004003564361482859, -0.0034266035072505474, -0.0008832452003844082, -1.3932381989434361e-05, -1.5237817024171818e-05], [0.06781742721796036, -0.018506662920117378, -0.13344751298427582, -0.0026096408255398273, 0.07612618058919907, -0.05556301400065422, -0.10152606666088104, 0.05347731336951256, -0.04786859452724457, -0.0015267025446519256, 0.2182852327823639, -4.2712803406175226e-05, 0.05277158319950104, 0.003711877390742302, -0.07388120889663696, 0.1474768966436386, -0.001174402073957026, 0.00018893998640123755, -0.26988279819488525, 0.0805514007806778, -0.05619167909026146, 0.1494239717721939, -0.00026665200130082667, 0.00011886777065228671, 0.11278484016656876, -0.037372324615716934, 0.18155264854431152, 0.10506156831979752, 0.00015614852600265294, 0.00018452580843586475, 0.0045461757108569145, -0.026351341977715492, 0.13398867845535278, -0.09205766767263412, 0.00016897794557735324, 0.2542930245399475, 0.015388485975563526, -0.09442742168903351, 0.00033865589648485184, 0.0006166639504954219], [0.00018368763267062604, -9.926844768415322e-07, -0.00018623810319695622, -0.00022035444271750748, -0.00012773527123499662, 0.00015770448953844607, -9.752032929100096e-05, -1.2931027413287666e-06, -2.5962919607991353e-05, -3.076437224081019e-06, -0.00014747006935067475, -1.678879243627307e-06, 1.2749730558425654e-05, 7.024100341368467e-06, 2.460109317325987e-05, -0.0002978189440909773, 0.001828108448535204, 2.2638150767306797e-06, 0.00022090875427238643, -9.211259020958096e-05, -0.00022331903164740652, -6.179625779623166e-05, 7.1343229137710296e-06, -7.719814334450348e-07, -0.0001491204311605543, 0.00014217273565009236, -9.137896267930046e-05, 3.4579861676320434e-05, -8.580449843975657e-07, -2.3897812297946075e-06, 1.5469937352463603e-05, -0.00032353581627830863, 0.0001489543356001377, -0.00011041715333703905, -8.477943538309773e-07, 4.882940629613586e-05, 0.0004225638695061207, 0.00012818738468922675, -3.210559498256771e-06, -1.7287051150560728e-06], [-0.04659998044371605, 0.1042741909623146, -0.029259515926241875, -0.10365711897611618, 0.07768427580595016, 0.10584896057844162, 0.016507698222994804, -0.017006266862154007, -0.016936222091317177, -0.0011323835933580995, 0.021948859095573425, -8.621726692581433e-07, 0.09778744727373123, 0.0031568105332553387, -0.09734362363815308, -0.047285016626119614, 0.1392882913351059, 0.0012757097138091922, -0.1712382584810257, 0.03718538582324982, 0.03431585431098938, -0.0567694790661335, -0.0004573464102577418, 5.760174826718867e-05, 0.085343137383461, 0.2015644609928131, 0.07396307587623596, -0.1033770814538002, -0.00020426814444363117, 4.5421318645821884e-05, 0.005822598002851009, 0.0018370579928159714, 0.14477817714214325, 0.08079485595226288, -0.00013064316590316594, -0.342163622379303, 0.046657662838697433, -0.05225071310997009, 0.00037653243634849787, 0.0004886774113401771], [-0.0004113521717954427, -0.00420437753200531, -0.002287243725731969, -0.0023748818784952164, -0.0070687029510736465, -0.0023222281597554684, -0.0009145826916210353, 0.0003061605675611645, 0.00023191362561192364, -5.668537414749153e-05, -0.0005064894212409854, 6.045767349860398e-06, -0.0009200142812915146, 0.00012453408271539956, -0.004126958083361387, 0.00787760503590107, 0.010119816288352013, 2.860697168216575e-05, 0.0030266190879046917, 0.012258866801857948, -0.0019097549375146627, -0.0008067964226938784, -2.839438457158394e-05, -7.87579938332783e-06, -0.0006056932616047561, -0.002799402689561248, -9.844184387475252e-05, -0.002366934437304735, 7.78530284151202e-06, 1.9111377696390264e-05, 0.00027234238223172724, -0.0020037000067532063, -0.002057280857115984, -0.0006743030971847475, -8.341461580130272e-06, -0.007101054303348064, 0.006083096377551556, 7.230996561702341e-05, 2.7188421881874092e-05, 2.9285831260494888e-05], [0.061544276773929596, 0.17706610262393951, -0.04314711317420006, -0.06763751059770584, 0.03152533620595932, 0.0013813750119879842, -0.01619681902229786, 0.005009067244827747, -0.01776883937418461, -0.000694147776812315, -0.05534127354621887, -0.00016903220966923982, -0.02373400889337063, 0.0023698715958744287, 0.2897234857082367, -0.023561319336295128, 0.06670794636011124, 8.872609760146588e-05, -0.6108084321022034, -0.14539436995983124, -0.08245065063238144, -0.004817493259906769, -0.00023099013196770102, 3.8868696719873697e-05, -0.016606805846095085, 0.008799250237643719, -0.034275952726602554, -0.1171756312251091, -0.0001386068033752963, -0.00012924024485982955, 0.0033438552636653185, -0.12916173040866852, 0.01788891851902008, -0.012661151587963104, -5.526508903130889e-05, -0.09288590401411057, 0.164865642786026, 0.05875585228204727, 0.00011218730651307851, 0.00030871512717567384], [-0.016368504613637924, -0.6682994365692139, -0.006171530578285456, 0.125051811337471, -0.02865460515022278, -0.12336742132902145, -0.13845913112163544, -0.1695113629102707, 0.0020619819406419992, 0.0006628407281823456, 0.3523288071155548, -0.00025342986918985844, 0.3012370467185974, -0.0009621072676964104, 0.22271166741847992, 0.49233606457710266, 0.09070396423339844, -0.002900396240875125, -0.7605525851249695, -0.48753106594085693, -0.1322043240070343, -0.02828381024301052, 0.0002776739711407572, 0.00011832210293505341, 0.5407379865646362, -0.1981707364320755, 0.39227229356765747, 0.014441939070820808, 0.0001621183764655143, 1.9438324670773e-05, -0.004040383268147707, -0.06043883040547371, -0.016285933554172516, -0.1586969941854477, 0.0006659474456682801, 3.0182693004608154, 0.15536494553089142, -0.13937367498874664, -0.000258977641351521, -8.227492799051106e-05], [-0.09699773043394089, -0.06142421066761017, 0.010615287348628044, -0.031536683440208435, -0.11070135980844498, 0.4381733238697052, 0.1900208741426468, 0.04212037846446037, -0.1027044802904129, 0.0015342809492722154, 0.015151431784033775, -9.253057942260057e-05, -0.08827240020036697, -0.004458767827600241, -0.014229188673198223, -0.03203726187348366, 0.31978318095207214, -0.0036150978412479162, -0.1575905680656433, 0.05541560426354408, 0.09077267348766327, -0.13214276731014252, -0.00019186330609954894, -1.655997766647488e-05, -0.014315168373286724, 0.10760825127363205, 0.023568399250507355, 0.05331600457429886, -7.767048373352736e-05, -7.793198165018111e-05, -0.01119137555360794, 0.6264530420303345, 0.20175187289714813, 0.15432846546173096, 0.00010355071572121233, -0.05377733334898949, -0.0075520724058151245, -0.0786019116640091, -4.597318547894247e-05, -0.0003130946133751422], [0.00012404231529217213, -0.003004803555086255, -0.0016307758633047342, -0.003841471392661333, -0.006131699308753014, -1.6716798199922778e-05, -0.00313199358060956, 0.000475887005450204, -0.0008890972239896655, -1.2344239621597808e-05, -0.0014448828296735883, -2.113366917910753e-06, -0.0012188348919153214, 7.872117566876113e-05, -0.002612902084365487, -0.0005312042194418609, 0.019925614818930626, 2.497197601769585e-05, 0.003596262540668249, 0.0025398945435881615, -0.001666023745201528, -0.0006688442663289607, -3.94296512240544e-06, -1.64791927090846e-05, -0.0008688452653586864, 0.00021551543613895774, -0.0013058751355856657, -0.0024042772129178047, 1.1192651982128154e-05, 2.02018072741339e-05, 0.0002700794721022248, -0.002644011750817299, -0.001732015865854919, -0.0005509877810254693, -2.4299775759573095e-05, -0.007530848030000925, 0.006593107245862484, 0.0011582979932427406, 2.4721981390030123e-05, 2.087876600853633e-05], [0.12214435636997223, -0.22493621706962585, -0.0945994183421135, 0.07948032021522522, -0.2435244768857956, -0.09557980298995972, -0.011911443434655666, 0.0836743488907814, -0.015342715196311474, 0.0014253553235903382, 0.0710071474313736, 0.00011508655006764457, -0.01899866759777069, -0.0029509267769753933, 0.09294337779283524, 0.35366129875183105, 0.03214787319302559, -0.0025598781649023294, 0.3230499029159546, 0.16566869616508484, 0.04255741834640503, 0.025966398417949677, 0.00031202350510284305, -0.0003431376244407147, -0.1376582682132721, -0.020410431548953056, -0.02884952537715435, -0.08177275210618973, -0.00025913421995937824, -0.00025153206661343575, -0.007569058332592249, 0.09395771473646164, -0.19998320937156677, 0.08918367326259613, -0.0006442065350711346, 0.15345045924186707, -0.17255498468875885, 0.045998986810445786, -0.00022107049881014973, -0.0005427892319858074], [0.09237491339445114, 0.41040781140327454, 0.22806528210639954, -0.0043942611664533615, 0.6422923803329468, 0.19736401736736298, 0.15488995611667633, -0.07949182391166687, 7.318732241401449e-05, 0.0008071845513768494, -0.0180762130767107, -0.00047590534086339176, 0.035142932087183, -0.0011843738611787558, -0.029834013432264328, -0.9212490320205688, 0.05203456059098244, 0.003749473951756954, 0.013673308305442333, 0.20702974498271942, 0.04096120223402977, -0.15345603227615356, -0.0007718157721683383, 0.0009949328377842903, -0.04650186374783516, 0.06092116981744766, -0.08646586537361145, -0.07988706976175308, 0.00025221100077033043, -6.487234713858925e-06, 0.002430240623652935, -0.2031169980764389, 0.4647632837295532, -0.023625003173947334, 0.002150177024304867, 0.10949257016181946, -0.2591598927974701, 0.019526289775967598, -0.000411399407312274, 0.0004339092702139169], [-0.0090079540386796, 0.00287167401984334, 0.11835304647684097, -0.2884008586406708, 0.009941277094185352, -0.1149187833070755, 0.0842510387301445, 0.03717302158474922, 0.14982430636882782, -0.0012561712646856904, -0.057242851704359055, 6.157421012176201e-05, 0.03993818908929825, 0.0020288240630179644, -0.03873686119914055, 0.11479783803224564, 0.10911688208580017, 0.0018156011356040835, 0.3968682587146759, -0.10181035846471786, 0.23762594163417816, -0.06191520392894745, 8.146318577928469e-05, -8.88690738065634e-06, -0.02724955603480339, 0.005320781841874123, 0.000826723815407604, 0.018960388377308846, 0.00032908961293287575, 0.0002183305041398853, 0.004518840461969376, 0.22004108130931854, -0.04951934143900871, 0.17437735199928284, 0.0002669300010893494, 0.022804325446486473, -0.1582387536764145, 0.021154416725039482, 0.00013575686898548156, 0.00023601834254804999], [-0.04961550235748291, 0.023209236562252045, 0.032378360629081726, 0.11934573948383331, -0.17797482013702393, 0.36198627948760986, 0.0833369642496109, 0.0628175362944603, -0.190341055393219, 0.000630462949629873, -0.003487655660137534, 1.9392969988984987e-05, -0.007635894231498241, -0.0009043209720402956, -0.00027505209436640143, 0.12085721641778946, -0.10285546630620956, -0.0007725319010205567, -0.0901460126042366, -0.1874338984489441, -0.014888709411025047, 0.30457186698913574, 0.0006637666956521571, -0.0001473246666137129, 0.06694336980581284, -0.18796022236347198, 0.010783666744828224, -0.1823248267173767, -0.00032003995147533715, -0.00042031920747831464, -0.0022236723452806473, 0.6595329642295837, 0.03135102242231369, 0.00944968219846487, -0.00039867960731498897, 0.06359361112117767, -0.05311550945043564, -0.014486483298242092, -0.0006169778644107282, -0.00031355262035503983], [-0.00016559216601308435, 0.00023398191842716187, 0.0007007747190073133, -7.064230157993734e-05, 0.0001327553909504786, 0.000667187268845737, -0.0003582119243219495, 0.00019846412760671228, -0.0008387916604988277, 2.363100975344423e-06, 6.370678602252156e-05, 8.241174327849876e-06, 0.00020424001559149474, 2.7038131520384923e-06, 0.00013809029769618064, -0.00014501951227430254, -0.0030978636350482702, 1.4238052244763821e-05, -0.00011235123383812606, -0.0008775233873166144, 0.00034551971475593746, 8.144835192069877e-06, -3.5493590985424817e-05, -7.900952141426387e-07, 0.0004388767119962722, 8.315089507959783e-05, 0.00025393199757672846, -0.000293163291644305, 7.609809472342022e-06, 1.909487218654249e-05, -9.610119377612136e-06, 0.00027486460749059916, -0.00035678502172231674, -5.371683528210269e-06, 6.40726739220554e-07, 0.0003973933926317841, -0.0007440085173584521, -0.000372055423213169, 1.9799863366642967e-05, 1.2588106983457692e-05], [-3.401049616513774e-05, -0.00011367154365871102, -0.0001390698307659477, -0.000200820664758794, -0.0006157967145554721, -0.00028084221412427723, 0.00010915588063653558, 3.629539787652902e-05, -0.00024620522162877023, 6.922738521097926e-06, -1.426194899067923e-06, -1.1154678531966056e-06, -0.00027213781140744686, -1.2642814908758737e-05, -0.00035432318691164255, -0.00014268039376474917, -0.0011504808207973838, -9.854675226961263e-06, 0.00016124309331644326, 0.00018232768343295902, -0.0001714725949568674, -0.00010115976328961551, 5.608090759778861e-06, -1.1887585742442752e-06, -0.00012757167860399932, -0.0002270814002258703, -5.2859850256936625e-05, -0.00020983442664146423, -4.373559931991622e-06, -4.411970166984247e-06, -1.6034067812142894e-05, 0.0001801534672267735, -5.9542187955230474e-05, -0.00021553570695687085, -4.573367732518818e-06, -0.0009071293752640486, 0.00021645646484103054, 0.0001282763696508482, -2.5759695745364297e-06, -3.0173555387591477e-06], [0.07391215115785599, 0.12659677863121033, -0.09132297337055206, 0.0029881985392421484, 0.013903881423175335, 0.03863973170518875, 0.038552425801754, 0.1009276807308197, -0.0065063792280852795, 0.00026004156097769737, 0.07690846174955368, 0.0002996280090883374, -0.03893926739692688, -0.001912797917611897, -0.004450652748346329, -0.032574813812971115, 0.0772116556763649, 0.00047020765487104654, -0.49829190969467163, 0.03780626505613327, 0.13538901507854462, -0.10078040510416031, 2.328203117940575e-05, -0.0003674673498608172, 0.11366394907236099, -0.12069588154554367, 0.044967807829380035, -0.1559041291475296, -0.00040069615351967514, -0.00025952805299311876, -0.007188654039055109, 0.11853853613138199, -0.29837262630462646, 0.10337220877408981, -0.00029964192071929574, -0.017738519236445427, -0.1438252329826355, -0.07454674690961838, -0.0001815243304008618, -0.0003063329204451293], [-0.15673798322677612, 