{"conv1d": {"bias:0": [0.07026831060647964, 0.017743967473506927, -0.07493709772825241, -0.12639787793159485], "kernel:0": [[[-0.10375804454088211, 1.3042032718658447, -0.7050029635429382, -1.1478924751281738]], [[0.013843392953276634, 0.7347827553749084, -0.29361164569854736, -0.6537583470344543]], [[-0.11828397214412689, 0.3325404226779938, -0.3401610851287842, -0.33606791496276855]], [[-0.6176928877830505, -0.4209355115890503, 0.24697452783584595, 0.11236624419689178]], [[-0.572053074836731, -0.8894563317298889, 0.5291756987571716, 0.4112364649772644]], [[-0.5561108589172363, -0.872315526008606, 0.4677720367908478, 0.30552196502685547]], [[-0.6991461515426636, -0.8622894883155823, 0.3399127125740051, 0.29636862874031067]], [[-0.4859738349914551, -0.42155835032463074, 0.15889741480350494, 0.4705473482608795]], [[-0.016098041087388992, 0.25814583897590637, -0.33610081672668457, 0.1450759321451187]], [[-0.017693711444735527, 0.40732893347740173, -0.6191064715385437, 0.21817220747470856]], [[0.34424638748168945, 0.29638537764549255, -0.5261946320533752, 0.6325941681861877]], [[0.7057384848594666, 0.688804030418396, -0.392025351524353, 0.6577877402305603]]]}, "conv1d_1": {"bias:0": [-0.06519811600446701, -0.0895211398601532, -0.0875220075249672, -0.002476835623383522], "kernel:0": [[[-0.03542405366897583, -0.051543354988098145, -0.07028496265411377, 0.1782844066619873], [0.005582571029663086, 0.04896658658981323, -0.1890001893043518, 0.16730648279190063], [-0.15120631456375122, -0.046835899353027344, 0.1620756983757019, 0.027968108654022217], [-0.02357107400894165, -0.09306955337524414, 0.1802728772163391, -0.10278022289276123]], [[0.5306290984153748, 0.15311482548713684, 0.07984092086553574, 0.0002574479440227151], [-0.4696396589279175, 0.09279082715511322, -0.0461743101477623, -0.394735723733902], [0.007992078550159931, 0.7475355863571167, -0.053438037633895874, -0.0009363143472000957], [-0.35962459444999695, 0.33828625082969666, -0.3579968214035034, -0.15915611386299133]], [[0.11741919815540314, 0.370111346244812, 0.057256557047367096, 0.028098169714212418], [-0.12096403539180756, 0.04923367500305176, 0.2987833321094513, -0.11915703117847443], [-0.00874123815447092, 0.12387825548648834, -0.4895230233669281, -0.13763485848903656], [-0.1857883334159851, 0.010547897778451443, -0.299134761095047, -0.3276527523994446]], [[0.058789074420928955, 0.293050616979599, 0.2879503071308136, 0.22292056679725647], [-0.188526913523674, 0.29524198174476624, 0.2540262043476105, 0.14701780676841736], [0.1579236388206482, 0.2600806951522827, -0.2554766535758972, -0.0369778610765934], [-0.08261863887310028, 0.016382748261094093, -0.25195804238319397, -0.2906840145587921]], [[0.009694326668977737, 0.399120956659317, 0.25235363841056824, 0.3044581711292267], [0.009028787724673748, 0.14273594319820404, 0.493790864944458, -0.01719970442354679], [0.02228272706270218, 0.2957127094268799, -0.03740401566028595, -0.07245587557554245], [-0.1022418737411499, -0.08378416299819946, -0.3142521381378174, -0.22618530690670013]], [[0.14948908984661102, 0.44829311966896057, 0.34290558099746704, 0.39961758255958557], [-0.013184314593672752, 0.17268359661102295, 0.5522329807281494, 0.2847656011581421], [0.4091038405895233, 0.3323113024234772, -0.056310731917619705, 0.018749762326478958], [-0.1354893147945404, -0.09741686284542084, -0.3000844120979309, -0.0007084503304213285]], [[0.4339773654937744, 0.5381214618682861, 0.5371875166893005, 0.4422494173049927], [-0.07615780830383301, 0.5006517767906189, 0.47676992416381836, 0.12361358106136322], [0.4204968214035034, 0.4006887674331665, -0.19638197124004364, 0.21818600594997406], [-0.3596206307411194, -0.28595414757728577, -0.29604944586753845, -0.2574249505996704]], [[0.33944857120513916, 0.17080174386501312, 0.23462161421775818, 0.043083854019641876], [-0.04963924363255501, 0.3614271581172943, 0.2865615785121918, -0.2107815444469452], [0.5133504271507263, 0.46672675013542175, 0.1880844682455063, 0.036209143698215485], [-0.5922060608863831, -0.5313221216201782, -0.4753519892692566, -0.6232358813285828]], [[-1.0456632375717163, -0.7365348935127258, -0.5453999638557434, -1.4890810251235962], [-0.7880387306213379, -0.31467297673225403, -0.5978296399116516, -1.1459462642669678], [0.364258348941803, 0.15289315581321716, 0.013787015341222286, -0.021313706412911415], [-0.5710219740867615, -0.35188472270965576, -0.5747958421707153, -0.4381992816925049]], [[-0.2669696807861328, 0.07123805582523346, -0.19511468708515167, -0.4985205829143524], [-1.3616641759872437, -0.9568310379981995, -0.2883010804653168, -1.7307374477386475], [0.2456727921962738, 0.526162326335907, 0.03708750382065773, 0.20938271284103394], [1.3481810092926025, 0.7250999212265015, 0.4309800863265991, 1.7786864042282104]], [[0.24687223136425018, 0.06614380329847336, 0.06212322413921356, -0.06685753166675568], [-0.07842296361923218, 0.04278150573372841, 0.5512164831161499, -0.1578039824962616], [-0.304609477519989, 0.22939004004001617, 0.15415437519550323, -0.07150625437498093], [-0.16920332610607147, -0.45189186930656433, -0.056172776967287064, -0.13679969310760498]], [[0.0864986777305603, 0.13792824745178223, -0.03334403038024902, -0.033668696880340576], [0.1455683708190918, -0.20164543390274048, 0.24789893627166748, -0.10307252407073975], [0.2357894778251648, -0.033099472522735596, 0.019011974334716797, -0.1658318042755127], [0.15492284297943115, 0.02206575870513916, -0.21674489974975586, 0.07193726301193237]]]}, "dense": {"bias:0": [0.005022147670388222], "kernel:0": [[-0.021217234432697296], [0.0503334105014801], [0.053864773362874985], [0.19669444859027863], [-0.16531376540660858], [0.11108120530843735], [0.1425914317369461], [-0.04991484060883522], [0.20060552656650543], [0.2537429928779602], [0.026297498494386673], [-0.09563472121953964], [0.10011978447437286], [-0.2446616291999817], [0.05207835137844086], [0.10918606072664261], [-0.09441117197275162], [-0.11630981415510178], [0.08621949702501297], [0.12484617531299591], [-0.12225518375635147], [0.11081461608409882], [-0.18492576479911804], [0.2446947693824768]]}, "lstm": {"lstm_cell": {}, "kernel:0": [[-1.458038330078125, -0.02477521076798439, -0.38091543316841125, -0.45296400785446167, 0.29102885723114014, -0.2613362967967987, 0.3561481237411499, 0.45245060324668884, 1.0661498308181763, 0.3286787271499634, 0.34814372658729553, 0.17271988093852997, -0.18802767992019653, -2.113241672515869, 0.08318675309419632, 0.22952082753181458, 0.4365329146385193, -0.6415053009986877, 0.36833304166793823, 0.5483134388923645, -0.48606592416763306, -0.1970553994178772, 0.6271606683731079, -0.35289227962493896, 0.024207666516304016, 0.06391467154026031, -0.02044340968132019, -0.22369542717933655, 0.034637197852134705, -0.13307100534439087, 0.08618815243244171, 0.15916351974010468, 0.22465015947818756, -0.15917211771011353, -0.12291096895933151, 0.004091531038284302, -0.1705506145954132, -0.17994582653045654, 0.013154283165931702, -0.05872146785259247, 0.23112286627292633, 0.022104784846305847, -0.22635458409786224, 0.006036147475242615, -0.0004993826150894165, 0.07588447630405426, -0.12906870245933533, 0.14868871867656708, -0.5945529937744141, 0.1560719907283783, -0.12004315108060837, 0.24245284497737885, -0.33352628350257874, 0.3152076005935669, 0.4243045747280121, -0.3664192259311676, 0.5080565810203552, 0.26043227314949036, -0.15041296184062958, -0.20288477838039398, 0.17636126279830933, 0.012909352779388428, 0.23419345915317535, 0.3976365923881531, -0.16108086705207825, -0.20447273552417755, 0.3634280562400818, -0.21218779683113098, -0.3071017265319824, 0.14874300360679626, -0.3133678734302521, -0.004394713323563337, -1.2107487916946411, -0.7868391275405884, -0.033741168677806854, -0.414791077375412, 0.3092467188835144, -0.13611845672130585, 0.3209795653820038, 0.3507259786128998, 3.020345449447632, 0.5007237195968628, 0.24216875433921814, 0.5672150254249573, 0.015021215192973614, -1.8161700963974, 0.48989906907081604, -0.010325475595891476, 0.05000126734375954, -0.30877819657325745, 0.3748129904270172, 2.0864086151123047, -0.2659882605075836, -0.05409414321184158, 0.9297059774398804, -0.3213428258895874], [-0.11128732562065125, -0.5219352841377258, -0.20476581156253815, 0.33373185992240906, 0.1090862825512886, 0.10132746398448944, -0.03714209049940109, 0.08537787944078445, -6.220884323120117, 0.03125620633363724, 0.20087884366512299, 0.07775426656007767, 0.09522156417369843, 0.24500703811645508, 2.4337425231933594, 0.306613564491272, -1.3155165910720825, -0.7112283110618591, 0.08546790480613708, 2.3098278045654297, -0.6832294464111328, -0.6999392509460449, 0.4592227339744568, -0.7383253574371338, 0.0924694687128067, -0.11350780725479126, 0.1948367804288864, -0.07791908085346222, 0.03408215939998627, -0.23562651872634888, -0.11875589191913605, -0.06728681921958923, 0.03921590745449066, 0.1567632108926773, -0.04837636649608612, -0.12800569832324982, -0.23088084161281586, -0.006323829293251038, 0.10670574009418488, 0.2233668714761734, -0.1456199586391449, 0.013633206486701965, -0.05129025876522064, 0.06185494363307953, -0.15767771005630493, 0.025737062096595764, 0.07151518762111664, -0.2049584835767746, 0.4443434178829193, 0.06120099872350693, 0.17831234633922577, -0.11844463646411896, -0.019924569875001907, 0.15587453544139862, 0.14453348517417908, -0.2372729778289795, -0.23136453330516815, 0.17720413208007812, -0.2301998883485794, -0.03028048761188984, -0.08500378578901291, 0.14336872100830078, 0.43286246061325073, 0.1142195388674736, -0.199516162276268, 0.07348491996526718, -0.021779092028737068, -0.24078863859176636, -0.31506940722465515, 0.27628135681152344, 0.15366442501544952, 0.23188060522079468, -0.5304834246635437, -1.1079401969909668, -0.16198989748954773, 0.1292453110218048, 0.4309522211551666, -0.030629314482212067, -0.12483196705579758, 0.11743904650211334, -5.679155349731445, -0.011853874661028385, 0.24405412375926971, -0.07769538462162018, 0.0628579780459404, 0.5477660298347473, 2.742847442626953, 0.17036095261573792, -0.7283781170845032, -0.04905244708061218, 0.047119978815317154, 2.1668572425842285, -0.39414602518081665, -0.9396095275878906, 0.34065091609954834, -0.6964971423149109], [-3.508019208908081, -0.31100204586982727, -0.40746697783470154, -0.5557334423065186, 0.1477854698896408, -0.21222667396068573, -0.29636913537979126, -0.5597496032714844, 1.779753565788269, 0.22120440006256104, -0.12109337002038956, 0.3085090219974518, -0.3198443651199341, 0.7275789380073547, -3.1098294258117676, -0.33148032426834106, -1.0750949382781982, -0.9614406228065491, -0.051946647465229034, 1.3317720890045166, 0.39433953166007996, 0.8109367489814758, -0.1823987513780594, -0.6711485385894775, 0.2146017998456955, 0.1678507775068283, 0.14124973118305206, 0.0851319283246994, 0.17618118226528168, -0.17701348662376404, -0.2154282182455063, 0.01689283549785614, 0.18808777630329132, 0.18722473084926605, 0.09885405004024506, 0.07985083758831024, 0.03671668469905853, -0.15377533435821533, 0.10734732449054718, 0.09480111300945282, -0.08698047697544098, 0.09907783567905426, 0.0025327056646347046, 0.21156777441501617, 0.03842799365520477, -0.21791402995586395, -0.09151965379714966, 0.049420639872550964, -0.00029755322611890733, -0.008777277544140816, 0.09241743385791779, 0.19829274713993073, -0.09202560782432556, 0.10709118098020554, 0.0934353768825531, -0.21949177980422974, -0.45415326952934265, 0.1649598926305771, -0.02921568974852562, -0.002489146078005433, 0.12684574723243713, 0.5613799691200256, -0.1900288313627243, 0.09132581949234009, -0.187351793050766, 0.005098652560263872, -0.10461924225091934, -0.2338552474975586, 0.13970521092414856, 0.07094421237707138, 0.041094399988651276, 0.08949188143014908, -3.182373046875, -0.6580438017845154, -0.6610982418060303, -0.08944182097911835, 0.044077157974243164, -0.13977129757404327, -0.21675324440002441, -0.6995644569396973, -1.5484881401062012, 0.36101749539375305, -0.4531330168247223, 0.017640041187405586, -0.2739344537258148, 0.8034015893936157, -2.075091600418091, 0.07189109921455383, -1.0146857500076294, -0.5829063653945923, -0.0004621143452823162, 0.8514212369918823, -0.8618999719619751, 0.6101936101913452, -0.41488996148109436, -0.6054140329360962], [2.034163236618042, -1.299743413925171, 0.38037019968032837, -0.6176106333732605, 0.0832354724407196, 0.7553543448448181, 0.43690064549446106, 0.3455551564693451, -2.8908774852752686, 0.03090978041291237, -0.3746393322944641, 0.20021937787532806, -0.33492234349250793, -0.5518280863761902, -2.200024366378784, 0.31245365738868713, -0.47846511006355286, -0.14608144760131836, 0.25585874915122986, -3.4281601905822754, -0.9441494941711426, 0.6139878630638123, -0.04726570099592209, 0.6551656723022461, -0.20189234614372253, 0.20027728378772736, 0.1902337521314621, 0.09735016524791718, 0.11308540403842926, 0.06094662845134735, 0.1398884803056717, -0.17149406671524048, -0.0491018146276474, 0.18195079267024994, -0.1147586852312088, -0.13332200050354004, 0.1275717169046402, -0.0597318559885025, -0.07622751593589783, 0.172348752617836, -0.06351304054260254, 0.14058910310268402, 0.18523581326007843, -0.23006106913089752, 0.07452712953090668, 0.23794196546077728, -0.17405015230178833, -0.1574167162179947, 0.0006078049773350358, 0.028028281405568123, -0.10887962579727173, 0.29803454875946045, -0.4487037658691406, 0.6746335029602051, 0.39214617013931274, -0.6354839205741882, 0.0426739938557148, 0.32193636894226074, -0.0575939416885376, -0.21286430954933167, 0.13915249705314636, -0.5144931674003601, 0.6882193088531494, 0.6084012985229492, 0.05290733277797699, -0.05848481506109238, 0.2181818038225174, -0.15883472561836243, -0.03333975747227669, 0.5233282446861267, -0.12189648300409317, 0.2324792891740799, 1.948835849761963, -0.32132163643836975, 0.3745260238647461, -0.7254607081413269, 0.015866659581661224, 0.7707104682922363, 0.580234169960022, 0.5641430616378784, 2.504354238510132, -0.005245495587587357, -0.14759783446788788, 0.27254462242126465, -0.4517149329185486, -2.1358394622802734, -2.192868709564209, 0.4530819356441498, -0.3610261082649231, -1.181305170059204, 0.3777703046798706, -0.7590451836585999, -1.6215760707855225, 0.8206620216369629, -0.0037169335409998894, 0.6778822541236877]], "bias:0": [-1.7221767902374268, -0.49930691719055176, -0.8292144536972046, -0.6723157167434692, -0.5030369162559509, -0.46396416425704956, -0.6138077974319458, -0.6906567811965942, -0.7449742555618286, -0.2596418261528015, -0.5162961483001709, -0.3638504445552826, -0.49728068709373474, -0.543228805065155, -0.6156774163246155, -0.37384578585624695, -0.8893373012542725, -0.5156439542770386, -0.547269344329834, -1.6634387969970703, -0.5960624814033508, -0.5363583564758301, -0.5173428058624268, -0.5835794806480408, 1.0, 1.0, 1.0, 1.0, 1.0, 1.0, 1.0, 1.0, 1.0, 1.0, 1.0, 1.0, 1.0, 1.0, 1.0, 1.0, 1.0, 1.0, 1.0, 1.0, 1.0, 1.0, 1.0, 1.0, -0.05742631480097771, -0.04096968472003937, 0.17594920098781586, 0.08755050599575043, -0.08089472353458405, -0.03377757966518402, 0.06581433862447739, 0.08672815561294556, 0.011939185671508312, -0.02454780973494053, 0.06596709787845612, 0.048345498740673065, 0.07930587232112885, -0.047033727169036865, -0.09555146843194962, -0.007396581117063761, -0.04690992832183838, -0.06638718396425247, -0.049395836889743805, -0.06365565210580826, 0.05480474978685379, -0.027495888993144035, -0.09599989652633667, 0.30858930945396423, -1.6862006187438965, -0.46418696641921997, -0.8386176824569702, -0.6097555756568909, -0.5454778075218201, -0.4697764217853546, -0.5972040891647339, -0.685639500617981, -1.100284457206726, -0.25167515873908997, -0.49890467524528503, -0.3631334900856018, -0.4983385503292084, -0.5609897375106812, -0.9490021467208862, -0.37397369742393494, -0.8047606348991394, -0.6154127717018127, -0.5374700427055359, -1.326406478881836, -0.5452176928520203, -0.5609749555587769, -0.5304614305496216, -0.5768380761146545]}, "input_size": 120, "conv1d_stride": 12, "conv1d_1_stride": 12}