{"conv1d": {"bias:0": [-0.008137965574860573, 0.0044608209282159805, -0.003404963994398713, -0.0028733382932841778], "kernel:0": [[[-9.711555480957031, 2.932913064956665, 2.913919448852539, 0.9027065634727478]], [[-4.750852584838867, 1.244639277458191, -0.08139672130346298, -1.0088199377059937]], [[-1.628525733947754, 0.10694121569395065, -2.9400250911712646, -2.353476047515869]], [[-0.32926955819129944, 0.019013145938515663, -4.420660972595215, -3.259244441986084]], [[-0.09170535951852798, 0.5022827982902527, -5.003164768218994, -3.777963399887085]], [[0.01293780654668808, 1.135648250579834, -4.623501300811768, -3.269709348678589]], [[-0.265140563249588, 1.5707389116287231, -3.8339481353759766, -2.8652849197387695]], [[-0.9935857057571411, 1.8458341360092163, -2.881324052810669, -1.4805703163146973]], [[-0.5485865473747253, 1.9914686679840088, -2.3290786743164062, -0.7032023668289185]], [[-0.6696996092796326, 1.885321021080017, -1.9161643981933594, 0.2700880765914917]], [[0.23798495531082153, 1.334661602973938, -1.1199983358383179, 0.8041715621948242]], [[0.6261400580406189, 0.5797245502471924, -1.0623457431793213, 1.5186337232589722]]]}, "conv1d_1": {"bias:0": [-0.03909026458859444, -0.006569110322743654, 0.02771667391061783, 0.03462199866771698], "kernel:0": [[[-0.1622692346572876, 0.0502927303314209, 0.01061469316482544, -0.0002447366714477539], [-0.1036689281463623, 0.11062639951705933, 0.0784720778465271, 0.09169149398803711], [0.06950712203979492, 0.04172760248184204, 0.006612002849578857, -0.01761072874069214], [-0.07649487257003784, -0.21774905920028687, -0.15279704332351685, -0.12789851427078247]], [[3.1783461570739746, -0.3639437258243561, 0.4951189458370209, 7.557816505432129], [-1.093599557876587, 0.6498989462852478, 0.49464842677116394, -2.1341207027435303], [-1.4265815019607544, 1.1440917253494263, 0.46628570556640625, -0.45734021067619324], [-1.3303630352020264, 0.8657494783401489, 1.0579776763916016, 0.44605177640914917]], [[0.5609396696090698, 0.44966039061546326, -2.4465670585632324, -0.6307376623153687], [-0.022219549864530563, -0.2684401869773865, 1.8273950815200806, 0.3397284746170044], [-0.1490589678287506, 0.41581571102142334, -2.279158353805542, 0.046442076563835144], [0.2097034454345703, 0.3095357120037079, -1.818934679031372, -0.1649084836244583]], [[-0.5667282938957214, -1.27915358543396, -0.8238043189048767, -0.32297784090042114], [-0.4133216440677643, 2.4285120964050293, 1.0689138174057007, -0.62375807762146], [-0.09009373188018799, -3.6073927879333496, -0.8878070712089539, 1.0912799835205078], [-0.25346964597702026, -2.374309539794922, -0.6260069608688354, 0.409443736076355]], [[-1.8869645595550537, 0.1488851010799408, 2.137935161590576, -0.16092731058597565], [1.1382172107696533, -1.431416630744934, -1.6367226839065552, 0.7981489300727844], [-2.3758444786071777, 2.8051116466522217, 2.235534906387329, -1.2379230260849], [-2.095153331756592, 2.330005407333374, 2.5863733291625977, -1.1762263774871826]], [[0.6382228136062622, -0.6425171494483948, -0.9679055213928223, 0.7303763031959534], [0.12134550511837006, -0.33410322666168213, -0.26530376076698303, 0.03567991778254509], [-0.6008009910583496, -0.06827951967716217, -0.025261834263801575, 0.11175408214330673], [-0.3172392249107361, 0.2544979751110077, -0.18988488614559174, 0.40472277998924255]], [[-0.16846412420272827, -0.005657995119690895, 0.3642421066761017, 0.012783079408109188], [-0.008002173155546188, -0.312722384929657, -0.07320753484964371, 0.22952543199062347], [-0.1612624228000641, -0.08884349465370178, -0.35074299573898315, 0.420803427696228], [-0.11337749660015106, 0.10875207930803299, -0.38378462195396423, -0.006981321144849062]], [[-0.22442032396793365, 0.24786581099033356, -0.01795663684606552, -0.3671427071094513], [0.15665477514266968, -0.23363277316093445, -0.009356253780424595, -0.05556551739573479], [-0.16666463017463684, 0.03375624492764473, -0.18240077793598175, 0.2072829306125641], [-0.14452175796031952, -0.29061159491539, 0.09029100835323334, 0.22280040383338928]], [[-0.26691269874572754, 0.07623505592346191, 0.11464675515890121, -0.11979299783706665], [0.10389165580272675, 0.004628547001630068, 0.22023312747478485, 0.22377248108386993], [0.13905511796474457, 0.22755025327205658, 0.023675192147493362, 0.17233148217201233], [-0.2780108153820038, -0.26792994141578674, -0.16331098973751068, 0.2802399694919586]], [[-0.14743474125862122, 0.0037277834489941597, -0.15105731785297394, 0.07471030205488205], [0.12347152829170227, -0.04681895673274994, -0.3466593027114868, 0.02339218556880951], [-0.2081023007631302, 0.13158945739269257, -0.13552652299404144, 0.050537675619125366], [0.19145886600017548, 0.00014755409210920334, -0.236277773976326, 0.24605277180671692]], [[0.3008976876735687, 0.10083826631307602, 0.155361607670784, -0.370318204164505], [0.4647689461708069, -0.18674485385417938, -0.1546482890844345, -0.2949083149433136], [-0.7169470191001892, -0.07839779555797577, -0.267623633146286, 0.46987107396125793], [0.48667359352111816, 0.14678284525871277, -0.07377626746892929, -0.014911015518009663]], [[-0.142852783203125, -0.0464591383934021, 0.02134042978286743, -0.1549670696258545], [-0.02666449546813965, -0.1936057209968567, -0.19900727272033691, 0.0655820369720459], [0.21481937170028687, -0.24112921953201294, 0.028309881687164307, -0.06794285774230957], [0.1887444257736206, 0.21559536457061768, 0.20342105627059937, 0.027429521083831787]]]}, "dense": {"bias:0": [0.10589104890823364], "kernel:0": [[-0.18031837046146393], [-0.2251819670200348], [0.20967590808868408], [-0.10371517390012741], [-0.09227967262268066], [0.09755135327577591], [0.20202183723449707], [-0.2115146815776825], [-0.1352643072605133], [-0.1598772257566452], [-0.03734404221177101], [-0.03365853428840637], [-0.149782195687294], [-0.1348285675048828], [0.06638501584529877], [0.07390809804201126], [-0.045769102871418], [0.18782450258731842], [-0.028765356168150902], [0.09192445129156113], [-0.24386948347091675], [-0.23454712331295013], [0.44175484776496887], [0.3211876451969147]]}, "lstm": {"lstm_cell": {}, "kernel:0": [[-0.7677364945411682, 2.2325949668884277, -0.3600626289844513, -0.18806134164333344, 0.5187735557556152, 1.044724941253662, 0.6817306876182556, 0.5489486455917358, 0.5750681161880493, 0.764136791229248, 0.27838942408561707, 0.25322186946868896, 1.0129175186157227, 0.8401631712913513, 0.44613924622535706, 0.046870529651641846, 0.41255512833595276, 0.060388509184122086, -4.212545394897461, 0.17765304446220398, -0.7051485180854797, 1.2290133237838745, -0.41672301292419434, 0.5598697066307068, 0.22841431200504303, 0.03834797441959381, 0.00577525794506073, -0.021596699953079224, -0.02217462658882141, 0.10943789780139923, -0.23333324491977692, 0.18277083337306976, 0.003153562545776367, -0.11489066481590271, 0.03525562584400177, -0.1471720039844513, 0.08946938812732697, -0.18843171000480652, 0.21212263405323029, -0.12477785348892212, 0.011009708046913147, -0.13791057467460632, -0.09079280495643616, -0.09570801258087158, -0.055621981620788574, 0.015835270285606384, 0.14722193777561188, -0.20925495028495789, 0.32008159160614014, 6.000314235687256, 0.24997422099113464, 0.8075792789459229, -0.607444167137146, -2.1513452529907227, -0.9622275233268738, -2.7325620651245117, -0.15750791132450104, 0.2678260803222656, -1.0459338426589966, -0.33491280674934387, 1.1604208946228027, -0.38371625542640686, -2.0939340591430664, -1.0005377531051636, 0.3600257337093353, 0.5831246972084045, 0.682070255279541, 1.1962332725524902, 0.9748232960700989, -1.6380518674850464, 0.4341162443161011, 0.34804970026016235, 0.2705972194671631, -1.7527589797973633, 0.5332860350608826, -0.4515242278575897, -0.32526907324790955, 0.882066547870636, -0.5756902694702148, -0.8326987624168396, -0.2651996314525604, -0.7427256107330322, -1.29893159866333, -0.23561833798885345, -0.3089194893836975, 1.8961811065673828, -1.0252987146377563, 0.48332661390304565, 1.2490746974945068, -0.65524822473526, 0.5225885510444641, 1.0967828035354614, 0.9587204456329346, -0.8096535801887512, -0.7078759074211121, -0.4992637634277344], [1.3362658023834229, 2.5794427394866943, -0.5194429755210876, -0.2934669554233551, 0.6575741767883301, -1.4277416467666626, 1.6672754287719727, -0.8391458988189697, -0.5871712565422058, -0.8752943277359009, 4.013226509094238, -1.3235923051834106, 0.745939314365387, 2.074800729751587, -1.9038350582122803, 0.5546721816062927, 0.4182214140892029, 0.10872063040733337, 0.4147243797779083, 0.1795065999031067, 1.7130968570709229, -2.097008228302002, 0.6916793584823608, -0.5515612363815308, -0.09573908150196075, 0.18582098186016083, 0.01549898087978363, 0.046365126967430115, 0.11684854328632355, -0.23327356576919556, -0.012011036276817322, -0.23344263434410095, 0.1120205670595169, 0.0924718827009201, 0.014905765652656555, 0.03582127392292023, -0.013396695256233215, 0.12873254716396332, 0.07551433145999908, -0.027294933795928955, -0.2219678908586502, 0.09519894421100616, 0.19062907993793488, 0.159687802195549, -0.147233784198761, -0.09708923101425171, 0.0669480413198471, -0.2131592482328415, 1.0027942657470703, 2.2546026706695557, -0.47149279713630676, 0.0741950199007988, 0.4233619272708893, 0.9960519075393677, -1.145440936088562, 2.091613531112671, 0.7428053617477417, 1.1597281694412231, 1.7268562316894531, -0.989608883857727, 3.2783312797546387, -1.2634918689727783, 0.8628920316696167, 0.11819411814212799, -1.1854137182235718, -1.690159797668457, -1.3880200386047363, -1.0285179615020752, -0.2915070950984955, 0.9209560751914978, -0.6794379949569702, -1.130268931388855, 0.5632390379905701, -1.9937162399291992, -0.4110300540924072, 0.843680202960968, -0.06733965873718262, -0.12920230627059937, -1.551787257194519, 1.102489709854126, -0.04780085012316704, 0.6229986548423767, 1.480658769607544, 0.995669960975647, 0.05502089485526085, 1.706788420677185, 0.3939535915851593, -0.07564745843410492, -0.30861181020736694, 0.6178606748580933, 0.28300637006759644, -0.15873299539089203, -1.5202041864395142, 1.9999010562896729, 0.8905155658721924, -1.2456027269363403], [0.9938123226165771, 1.6614562273025513, 0.5842390656471252, -0.3480856418609619, -0.6304807066917419, -2.401895046234131, -0.6196884512901306, -1.3563969135284424, -0.37143075466156006, -1.511916995048523, -0.25951310992240906, 0.7179650068283081, -1.9289734363555908, 0.17051126062870026, 1.9499155282974243, -0.25239282846450806, -2.617016553878784, -0.09856277704238892, 0.7621538043022156, 0.41928234696388245, 3.351315975189209, -3.0589282512664795, 1.0458557605743408, -0.8447543382644653, 0.04125513136386871, -0.07556822896003723, 0.11726458370685577, 0.17409704625606537, -0.21618233621120453, 0.19693224132061005, 0.20889519155025482, 0.06639499962329865, -0.08213330805301666, -0.09885865449905396, -0.23391591012477875, -0.0769987404346466, 0.17167721688747406, 0.036475375294685364, 0.07248421013355255, 0.028394564986228943, 0.10932295024394989, -0.08528657257556915, -0.02622014284133911, 0.027817562222480774, -0.014134705066680908, 0.16959302127361298, 0.05385105311870575, -0.22925199568271637, -0.2860493063926697, -1.1380506753921509, -0.45120492577552795, -1.0733977556228638, 0.4984843134880066, -0.18101470172405243, -3.585207223892212, 0.7535063624382019, 1.3225932121276855, 2.4266669750213623, 0.7162598967552185, 0.4412633776664734, -2.607422113418579, 0.23127402365207672, -1.7070610523223877, -1.528984546661377, -2.3335115909576416, -0.023952463641762733, 0.18373316526412964, -1.697398066520691, 0.5802891850471497, -0.39119479060173035, -0.6519702076911926, -0.5853800773620605, -0.3041785955429077, -1.2898268699645996, -1.3738014698028564, 1.1160367727279663, -0.26131555438041687, 0.5772348642349243, -0.09610823541879654, 1.3367985486984253, -0.5008330941200256, 0.8828691244125366, 2.680426836013794, 0.7719960808753967, 1.076078176498413, -3.8364205360412598, -2.243511915206909, 0.6701687574386597, 0.5050422549247742, 1.7218352556228638, 2.2817330360412598, 0.5526851415634155, -2.194498300552368, 3.8003485202789307, 0.7795862555503845, 0.4781193137168884], [-0.7641379237174988, 4.467883110046387, -0.03572501242160797, -0.25723445415496826, 0.060847651213407516, 0.659707248210907, 0.46097251772880554, 0.5740508437156677, 0.8740320205688477, 0.6665654182434082, -1.1071254014968872, 1.0294773578643799, 0.38726770877838135, 0.8976469039916992, 2.401411294937134, -0.022574881091713905, 1.145931601524353, -0.30107051134109497, -1.2408603429794312, 0.23517060279846191, -0.2474057376384735, 1.2183650732040405, -0.45940497517585754, 0.4858641028404236, 0.06971453130245209, 0.008965089917182922, -0.10912895202636719, 0.03767542541027069, -0.11476662755012512, -0.24119020998477936, 0.04470227658748627, -0.09948675334453583, -0.21454286575317383, -0.11813271045684814, -0.15821143984794617, 0.13221608102321625, -0.02358347177505493, 0.04435579478740692, -0.1505158394575119, 0.027126625180244446, 0.15045316517353058, -0.055459633469581604, 0.07869283854961395, 0.0852816253900528, 0.22352518141269684, -0.11945132911205292, 0.026122257113456726, 0.2017044872045517, 0.1031365692615509, -5.034537315368652, 0.3701196610927582, 0.4477812349796295, -0.2041979432106018, -0.8998212218284607, -2.7548916339874268, -0.10954176634550095, 0.1443963199853897, -1.759460210800171, -0.5664218068122864, -0.034437477588653564, 0.09668299555778503, -0.6160497665405273, 1.7498829364776611, -1.4905937910079956, -2.895364999771118, 1.38690984249115, 1.0290604829788208, 0.7370822429656982, 1.5755107402801514, -4.072181701660156, 0.46014198660850525, 0.5678761005401611, 0.1292893886566162, -3.4741902351379395, 0.23774099349975586, -0.6783842444419861, 0.26617056131362915, -0.30704939365386963, -0.7284149527549744, -0.6722864508628845, -0.20979848504066467, -0.3167118728160858, 0.3891536295413971, 0.4964748024940491, -0.13070504367351532, 0.8498684167861938, -2.281963586807251, -0.8122100234031677, -1.0984477996826172, -0.32497525215148926, 2.3956403732299805, -0.46412837505340576, 0.9870033264160156, -0.21612004935741425, -0.5810044407844543, -0.36974066495895386]], "bias:0": [0.26962023973464966, 0.16509923338890076, -0.30227741599082947, 1.0134655237197876, 1.045584797859192, 1.5572987794876099, 0.8201354146003723, -0.02144804038107395, -0.5294997096061707, 1.1748919486999512, -0.5800020694732666, -2.242971181869507, 1.6032246351242065, -1.1296412944793701, 0.8382681608200073, 1.6036570072174072, 1.5132898092269897, -1.0605709552764893, -0.4593200385570526, 1.531461238861084, -0.005567627958953381, 1.10434091091156, -0.16131635010242462, -0.2810017764568329, 1.0, 1.0, 1.0, 1.0, 1.0, 1.0, 1.0, 1.0, 1.0, 1.0, 1.0, 1.0, 1.0, 1.0, 1.0, 1.0, 1.0, 1.0, 1.0, 1.0, 1.0, 1.0, 1.0, 1.0, -0.2999030351638794, -0.11557552963495255, -0.9252512454986572, 0.39873605966567993, 0.17504067718982697, 0.21316228806972504, -0.012780604884028435, 0.07942429929971695, -1.044378399848938, 0.026607997715473175, -0.9696217775344849, 0.9375152587890625, 0.28100866079330444, 0.14204254746437073, 0.2312818169593811, 0.2953565716743469, -0.18198205530643463, -0.11396840959787369, 0.005992068909108639, 0.6871173977851868, -0.0429721362888813, -0.07932404428720474, -0.8800942301750183, -0.12508316338062286, -0.30945828557014465, -0.02319204993546009, -0.009369280189275742, 0.46542683243751526, -0.1463194489479065, 0.5129469633102417, 1.2399547100067139, 1.1023309230804443, 0.23324550688266754, 0.339792400598526, 1.8917200565338135, 0.04998019337654114, 1.5136356353759766, 0.6041487455368042, 2.1831932067871094, 1.4842008352279663, 2.8809332847595215, 1.6372272968292236, -0.8849009871482849, 1.243613362312317, 0.6775745749473572, 1.0912359952926636, 0.494444876909256, -0.4953477680683136]}, "input_size": 120, "conv1d_stride": 12, "conv1d_1_stride": 12}