{"conv1d": {"bias:0": [0.007640397641807795, -0.010784102603793144, 0.007739625871181488, -0.03310709819197655], "kernel:0": [[[2.4480044841766357, 4.613415718078613, -1.1378310918807983, -1.3806458711624146]], [[1.0320378541946411, 4.473510265350342, 0.07079453021287918, -0.3501774072647095]], [[-0.017386004328727722, 3.8322300910949707, 1.2147789001464844, 0.4567263424396515]], [[-1.4836945533752441, 3.3118081092834473, 2.607379674911499, 2.3093087673187256]], [[-3.482651472091675, 2.196641206741333, 3.6483802795410156, 3.25238299369812]], [[-4.474091053009033, 1.2770904302597046, 4.816812992095947, 4.755423545837402]], [[-5.333359241485596, -0.3423987627029419, 4.910757541656494, 5.259939670562744]], [[-5.9179487228393555, -1.4931422472000122, 4.694792747497559, 5.311157703399658]], [[-5.564477920532227, -2.1504697799682617, 4.086623191833496, 4.8145365715026855]], [[-4.425285816192627, -2.6672582626342773, 2.482107400894165, 3.637611150741577]], [[-2.2685494422912598, -3.3623342514038086, -0.039661094546318054, 1.2746645212173462]], [[0.5583251714706421, -2.9029381275177, -2.4421873092651367, -0.7619994282722473]]]}, "conv1d_1": {"bias:0": [0.034217096865177155, 0.04985607787966728, 0.004492675419896841, -0.06108409911394119], "kernel:0": [[[0.17234981060028076, -0.018564999103546143, -0.12392938137054443, -0.09271126985549927], [0.10247719287872314, -0.20871448516845703, 0.14935314655303955, -0.121304452419281], [-0.038597047328948975, 0.12364077568054199, 0.13861054182052612, 0.24687325954437256], [-0.11423051357269287, 0.17621415853500366, 0.1247941255569458, -0.1030164361000061]], [[0.11482615768909454, 0.5200033187866211, 0.01181639265269041, 0.5463433265686035], [-0.09343847632408142, 0.21831288933753967, 0.029047951102256775, 0.20000790059566498], [-0.10010170936584473, -0.29886698722839355, 0.10433787852525711, -0.6386414170265198], [-0.04908141493797302, -0.4762035012245178, -0.29119861125946045, -0.4878142178058624]], [[0.0566621832549572, -0.10845749825239182, -0.10439243912696838, -0.25748211145401], [-0.1742657572031021, -0.8962797522544861, -0.4048464298248291, -2.0506796836853027], [0.06419795751571655, -0.20868754386901855, -0.27541592717170715, -0.3992595374584198], [-0.12419132143259048, -0.08944560587406158, 0.15641047060489655, -0.1562180519104004]], [[-0.2651597261428833, -0.4702281653881073, -0.11885251104831696, -0.19670961797237396], [0.3029223084449768, 0.9849677681922913, 0.16666626930236816, 1.2053931951522827], [0.06830687820911407, 0.20629335939884186, -0.09056577831506729, 0.15773238241672516], [0.17557959258556366, 0.4161435663700104, -0.275036096572876, 0.052253879606723785]], [[0.006264649331569672, 0.08996415883302689, -0.05827628821134567, -0.3964608311653137], [0.01829085685312748, 0.04114016145467758, -0.022411320358514786, 0.2290257066488266], [0.02709403820335865, 0.059661149978637695, 0.28424322605133057, 0.3504742980003357], [-0.36449676752090454, 0.04967832192778587, 0.30903539061546326, 0.18721580505371094]], [[-0.035374030470848083, 0.1560407280921936, 0.13235382735729218, 0.24761232733726501], [0.12125517427921295, -0.12753307819366455, -0.033071767538785934, 0.22454458475112915], [-0.09966326504945755, 0.14551983773708344, 0.08762472122907639, -0.22739970684051514], [0.11392862349748611, 0.017197854816913605, 0.09072205424308777, -0.2084956169128418]], [[-0.0017590827774256468, -0.0932612344622612, -0.31367358565330505, -0.10299070179462433], [0.16533012688159943, 0.13716410100460052, 0.07544030249118805, 0.40139248967170715], [0.021787937730550766, -0.08398042619228363, 0.3674885034561157, 0.3400806784629822], [-0.28834930062294006, -0.07620184868574142, 0.07897668331861496, 0.12723524868488312]], [[0.412173330783844, 0.009289036504924297, -0.39182451367378235, -0.16512714326381683], [0.43652135133743286, 0.3492432236671448, 0.0887884572148323, -0.5801791548728943], [-0.053609102964401245, -0.3345023989677429, 0.16791661083698273, 0.10672952234745026], [-0.2295287698507309, -0.3456348478794098, 0.2389691025018692, 0.05113764479756355]], [[0.3586806356906891, 0.10790082067251205, 0.5612354278564453, 0.0842100977897644], [-1.2809484004974365, -0.18778711557388306, 1.6780062913894653, -0.09670509397983551], [-0.3695583939552307, -0.05440602824091911, -0.24718023836612701, 0.32706624269485474], [-0.3740709125995636, -0.5131157040596008, -0.4316330552101135, 0.32887566089630127]], [[-1.742254376411438, 1.15596604347229, 1.817254900932312, -1.091892123222351], [-3.2504031658172607, 1.9603344202041626, -3.8243279457092285, -1.0017390251159668], [1.105288028717041, -0.8411382436752319, -2.189880132675171, 0.46521368622779846], [1.4713078737258911, -0.8106909394264221, -1.737086534500122, 0.839762270450592]], [[0.764991819858551, -1.2001501321792603, -1.9847726821899414, 0.7662417888641357], [0.9942409992218018, -0.6206908822059631, 1.547311544418335, 0.18412509560585022], [-0.510845959186554, 1.1138666868209839, 1.7879772186279297, -0.9676656723022461], [-0.42050546407699585, 1.029025673866272, 1.801324725151062, -0.9152454733848572]], [[0.04434412717819214, 0.04929095506668091, -0.08531653881072998, 0.11046642065048218], [-0.15874624252319336, 0.04579126834869385, 0.005483269691467285, -0.10207754373550415], [0.07791799306869507, -0.04001706838607788, 0.24922043085098267, 0.1776626706123352], [0.22503048181533813, 0.0336536169052124, 0.14261919260025024, -0.1919458508491516]]]}, "dense": {"bias:0": [0.026972418650984764], "kernel:0": [[0.2219071090221405], [-0.02954680845141411], [-0.16425995528697968], [-0.06542381644248962], [0.26505088806152344], [-0.04642273485660553], [0.11418665945529938], [-0.1758778989315033], [-0.23547768592834473], [-0.08220478147268295], [-0.13008810579776764], [0.15682794153690338], [-0.05719982460141182], [0.0948542058467865], [-0.08482202142477036], [-0.16922235488891602], [0.052954431623220444], [0.2261570692062378], [-0.09894772619009018], [0.07354659587144852], [0.025014303624629974], [-0.14641878008842468], [0.13607943058013916], [0.046744976192712784], [-0.13656239211559296], [0.1265142410993576], [0.1166643500328064], [-0.09375905245542526], [0.15507902204990387], [0.05892222002148628], [-0.2125101387500763], [0.14017166197299957]]}, "lstm": {"lstm_cell": {}, "kernel:0": [[-0.11281853169202805, 1.998901605606079, -0.45326724648475647, -0.9890466928482056, 0.6623760461807251, 0.28448817133903503, -0.3407660126686096, 2.0371551513671875, 2.7119836807250977, 0.7054330706596375, 0.5153181552886963, 1.9380356073379517, -0.17324198782444, -2.3985750675201416, -1.2037415504455566, -0.08668803423643112, -1.255096435546875, -0.8009200692176819, -0.748602032661438, 0.6895339488983154, -0.11207970231771469, 0.5974006652832031, -0.15901964902877808, 0.9546846151351929, 0.7765060067176819, 0.023315493017435074, -0.9551250338554382, -0.8574476838111877, -0.07950840890407562, 0.4707086384296417, -0.08628125488758087, 0.1004919782280922, -0.12253176420927048, -0.125236377120018, 0.012417152523994446, -0.10698749125003815, -0.17273658514022827, 0.15241241455078125, 0.11090442538261414, 0.04190787672996521, -0.019676536321640015, 0.16505154967308044, -0.17534060776233673, -0.1321827471256256, -0.1982935070991516, -0.10513053089380264, -0.1132858544588089, -0.1375657021999359, -0.19363051652908325, 0.007423862814903259, -0.17448806762695312, 0.18381139636039734, 0.14776840806007385, -0.023124143481254578, 0.16248494386672974, 0.03278285264968872, 0.14618459343910217, 0.008162498474121094, 0.13972881436347961, -0.010944679379463196, -0.029398620128631592, 0.04926353693008423, 0.037389397621154785, 0.0364735871553421, 0.18564002215862274, 0.7200073599815369, 0.3521926999092102, -0.012487866915762424, 0.33438900113105774, -0.36069315671920776, 0.16994304955005646, 1.1034491062164307, -1.6190201044082642, -0.6295787692070007, -0.17968249320983887, 1.211137294769287, -0.6290460824966431, 1.9149162769317627, -1.1618705987930298, -0.20724107325077057, 0.09461494535207748, 2.643364191055298, -0.7074105739593506, -0.08549477159976959, 0.04138666391372681, 0.0329522006213665, -0.22593766450881958, 0.016720697283744812, -0.01715920865535736, 0.09926710277795792, -0.11759580671787262, -0.007173909805715084, 1.066442847251892, 0.3274284899234772, -0.017560964450240135, -0.5968354344367981, 0.15509025752544403, 3.779367446899414, 0.053078792989254, 0.9226163029670715, -0.3656485676765442, 0.1730276495218277, -0.6302654147148132, 2.787888526916504, -0.6428929567337036, 0.5686430931091309, 0.0012190527049824595, -0.35026007890701294, 0.9998732805252075, 2.3229150772094727, 0.20855869352817535, 0.00847659818828106, 0.7442743182182312, 1.2996535301208496, 0.43091076612472534, -0.917306661605835, -0.5213833451271057, 0.24371810257434845, 0.3839968740940094, -0.028701266273856163, 0.15947015583515167, -0.1742398738861084, -1.2928493022918701, 0.173715278506279, 0.6779230833053589, -0.5803593993186951, 0.017303241416811943, -0.24076107144355774], [0.41730135679244995, 1.7247713804244995, -0.23089350759983063, -0.08000394701957703, -2.0247244834899902, 0.35311731696128845, 1.3689299821853638, -2.396253824234009, -0.4694404602050781, 0.028097057715058327, -1.572562575340271, -0.574429452419281, -0.21812804043293, -0.2655625641345978, -0.6716713309288025, -0.11223088949918747, -0.22971776127815247, 2.123298406600952, 0.12839752435684204, 0.1021416112780571, -0.09871570020914078, -1.3805863857269287, -0.060675352811813354, 0.3243946135044098, 0.03531557321548462, -0.3491738736629486, 1.6689828634262085, 0.3049623370170593, -0.26736995577812195, -0.18994930386543274, 0.39382264018058777, -0.2649978697299957, -0.18126191198825836, -0.18504495918750763, -0.15390563011169434, 0.08513692021369934, 0.037340760231018066, 0.10722944140434265, 0.03377532958984375, -0.014841035008430481, -0.14555160701274872, 0.052977561950683594, -0.18828818202018738, 0.20700356364250183, 0.1256507933139801, 0.03424113988876343, -0.024869486689567566, -0.028872519731521606, -0.12025580555200577, 0.1929284930229187, 0.05978280305862427, -0.05751681327819824, 0.13658761978149414, 0.07456269860267639, 0.13005581498146057, 0.1935202181339264, 0.006397843360900879, 0.13960817456245422, 0.20185509324073792, -0.14636260271072388, -0.018053188920021057, -0.11592434346675873, -0.09310213476419449, -0.12216542661190033, -0.5035440325737, 0.3234937787055969, 0.3181314766407013, 0.6975909471511841, 1.2845573425292969, -0.07618716359138489, -0.27614349126815796, -0.7508052587509155, 0.6105291247367859, 0.21173425018787384, 0.6295263767242432, -0.37124744057655334, -0.2778191566467285, -0.10522863268852234, -0.00851290114223957, 0.6986744403839111, 0.1291382759809494, -0.18864203989505768, 0.9384604692459106, 0.7622750997543335, -0.1804376095533371, -0.34048205614089966, -0.5390686988830566, -0.12891711294651031, 0.4407287836074829, 0.09696691483259201, 0.3848712146282196, 0.17837652564048767, -0.7477204203605652, -0.4352864921092987, 0.25383591651916504, 1.4015164375305176, -0.4739531874656677, 1.2844250202178955, 0.020373523235321045, -1.1872080564498901, 1.2941906452178955, -1.0310194492340088, 1.9297791719436646, -0.5109073519706726, 0.04915454983711243, 0.4549756646156311, 0.6974793076515198, 0.0024845991283655167, 0.7973401546478271, 0.23587821424007416, 1.4062488079071045, -0.17877082526683807, 0.22755903005599976, -1.5799239873886108, -0.08095857501029968, 0.1937672197818756, 0.4654862880706787, -0.8970880508422852, 0.11601739376783371, 0.6705614328384399, -0.22149699926376343, 0.5526483058929443, 1.7271537780761719, -0.0023696809075772762, -0.11851392686367035, 0.6751962900161743, 0.14570869505405426, 0.65702885389328], [0.3513883054256439, -1.1417306661605835, 0.37569403648376465, 1.1369357109069824, -1.6170129776000977, -0.024588635191321373, 0.8371845483779907, -3.9577643871307373, -2.5960426330566406, 0.9510892629623413, -1.2362626791000366, 1.5365982055664062, 0.08941798657178879, 1.2585222721099854, 0.1372578740119934, 0.011898948810994625, 0.5469577312469482, 2.945892810821533, -1.3698099851608276, -3.05130672454834, -0.3632667362689972, -1.9744747877120972, -0.02987256646156311, -0.37577322125434875, -0.23326271772384644, -0.061384301632642746, 3.016638994216919, 0.5194562077522278, -0.20682449638843536, -0.4152008593082428, 0.30862054228782654, -0.5593883991241455, -0.0567956268787384, -0.16489000618457794, 0.12366646528244019, -0.16558116674423218, 0.13179799914360046, 0.1442638635635376, 0.13570034503936768, 0.08275461196899414, -0.05845165252685547, -0.07024307548999786, -0.1959279328584671, 0.126837819814682, 0.07679188251495361, 0.155742347240448, -0.1062595397233963, -0.10866216570138931, -0.04947438836097717, 0.0709138810634613, 0.10109460353851318, -0.07094138860702515, -0.17711369693279266, -0.11209956556558609, 0.20391759276390076, -0.033934637904167175, -0.14134594798088074, 0.13591861724853516, 0.11392199993133545, 0.08031564950942993, -0.05955986678600311, -0.1654861569404602, -0.19748401641845703, -0.05831344425678253, -0.8852996826171875, -0.3860601782798767, 0.7772140502929688, 1.1787887811660767, 0.642090916633606, 0.2782873511314392, -0.2993127703666687, -1.6641697883605957, 5.755226135253906, -0.44683802127838135, 0.4605749547481537, 0.8597539663314819, 0.352336585521698, -1.084991455078125, -0.7651423811912537, 0.8095033168792725, 0.27029484510421753, -0.17922018468379974, -0.8297910094261169, 0.6210317611694336, 0.1835811734199524, -0.5078310966491699, 0.3760688006877899, 0.07588392496109009, 0.6345152258872986, -0.10184022039175034, 0.6106635928153992, -0.1050112247467041, -0.4311128258705139, -0.39342236518859863, 0.21408015489578247, -0.5336043238639832, -0.41455116868019104, -2.0588645935058594, -0.07042833417654037, -1.30034601688385, 0.9087124466896057, -0.4438319802284241, 1.5924657583236694, -2.7492668628692627, 0.15947489440441132, 0.09556330740451813, 0.07936973869800568, -0.5081090927124023, -0.5275111198425293, -1.214709758758545, 1.771989345550537, -0.1906825453042984, -0.31062406301498413, -2.6162519454956055, 0.7617706060409546, -0.758285641670227, 0.9257568717002869, -1.1018657684326172, -0.01784847490489483, 0.4042516052722931, -0.24745489656925201, 0.37687957286834717, 2.1317214965820312, -1.6586233377456665, -0.11532878130674362, 0.5885939598083496, 0.04204664006829262, 0.624335527420044], [0.14063778519630432, 4.046182632446289, 0.08841950446367264, -0.1985737681388855, -0.9871969223022461, 1.1027493476867676, 0.7623690366744995, 1.6259351968765259, 1.1982909440994263, -0.27922576665878296, -0.723621666431427, -0.1548650562763214, -0.538266658782959, -1.2072802782058716, 0.4982527494430542, 0.033344343304634094, -0.1512347161769867, -0.8260201811790466, -0.5934197902679443, 0.4934675991535187, 0.5269308090209961, 0.5199702382087708, -0.007971059530973434, 0.07656266540288925, 0.34255269169807434, -0.5425685048103333, -0.45219823718070984, -0.19906631112098694, 0.14459574222564697, -0.6540941596031189, -0.2633037567138672, 0.09905426949262619, -0.07958266139030457, 0.03354603052139282, -0.052750587463378906, 0.1674986481666565, -0.11738253384828568, -0.015127509832382202, 0.06266793608665466, 0.010682851076126099, -0.12323399633169174, 0.16351285576820374, 0.09511306881904602, -0.007348641753196716, 0.10540932416915894, 0.20243602991104126, -0.10476414114236832, -0.061341896653175354, 0.08582571148872375, 0.01616320013999939, -0.017450034618377686, 0.12034764885902405, 0.005467996001243591, 0.020709216594696045, -0.11502407491207123, 0.19228631258010864, 0.10484299063682556, 0.07764461636543274, -0.07650052011013031, 0.19900590181350708, 0.15881794691085815, -0.11299169808626175, -0.09079882502555847, 0.0432257354259491, 0.2828404903411865, 0.9381658434867859, -0.3638833463191986, -0.3525359630584717, 4.71795129776001, -0.23158273100852966, 0.2301402986049652, 0.7295960783958435, -1.2940239906311035, 0.026369895786046982, 0.375326544046402, -0.08132314682006836, -0.5546762943267822, 0.4341428279876709, 0.2738412916660309, -0.5236124992370605, 0.02349078096449375, 1.6220594644546509, -0.5800085067749023, -0.550504744052887, 0.03629210218787193, 0.01812606304883957, 0.3195028603076935, 0.1315620243549347, -0.02754628285765648, 0.3744126558303833, -0.19594769179821014, -0.09526221454143524, 0.4040241837501526, 0.2874404191970825, -0.17500966787338257, 0.7698650360107422, -0.1827707439661026, 3.514535427093506, 0.019549161195755005, -0.18649595975875854, 0.8041833639144897, -0.056578800082206726, 1.0297660827636719, 1.242613434791565, -0.20639610290527344, -0.2838965356349945, 0.9540100693702698, 0.14576083421707153, 2.075301170349121, 1.1414666175842285, -1.1312638521194458, 0.01664094440639019, 0.605208694934845, 1.0155800580978394, 0.3164066970348358, 0.18727101385593414, -0.38872161507606506, 0.6454154253005981, -0.014044025912880898, -0.4374469816684723, 0.17580318450927734, -0.19864821434020996, -0.9081544280052185, 0.3092944324016571, 0.15753500163555145, -0.5223240256309509, -0.08880344033241272, 0.15086667239665985]], "bias:0": [-0.13264864683151245, 0.05361640453338623, 0.08116914331912994, 0.27949729561805725, 0.6116361618041992, -0.5474746227264404, -0.4519837498664856, -1.1355743408203125, 0.956089198589325, 0.06972849369049072, -0.17390432953834534, 0.7352292537689209, -0.18471306562423706, -0.22752222418785095, -0.5736105442047119, 0.13963967561721802, -0.6349372267723083, 0.5378075242042542, 0.3375263810157776, 0.5623217821121216, -0.3737800717353821, -0.9796456694602966, -0.12575899064540863, -0.962616503238678, -0.14512816071510315, -0.12345198541879654, -0.8664082288742065, -1.2290699481964111, 0.5501958131790161, -0.3064576983451843, -0.19627030193805695, 0.053749896585941315, 1.0, 1.0, 1.0, 1.0, 1.0, 1.0, 1.0, 1.0, 1.0, 1.0, 1.0, 1.0, 1.0, 1.0, 1.0, 1.0, 1.0, 1.0, 1.0, 1.0, 1.0, 1.0, 1.0, 1.0, 1.0, 1.0, 1.0, 1.0, 1.0, 1.0, 1.0, 1.0, 0.14224782586097717, -0.5967554450035095, 0.10874614864587784, 0.22764304280281067, 0.12646104395389557, 0.10257764905691147, -0.09409061074256897, -0.3394075632095337, 0.05730142071843147, 0.3196350038051605, 0.3264099657535553, -0.04250192269682884, 0.14213615655899048, -0.19244883954524994, -0.14937558770179749, -0.09141542762517929, -0.19257977604866028, -0.01986534520983696, -0.003906244644895196, -0.469639390707016, -0.26922065019607544, -0.048275914043188095, 0.12291371822357178, 0.43718189001083374, -0.02234061062335968, -0.049215588718652725, 0.12789152562618256, 0.20022618770599365, 0.1910756677389145, -0.05601009353995323, 0.25795602798461914, 0.05988103523850441, -0.10737812519073486, -0.027522418648004532, -0.08040065318346024, 0.24881677329540253, 0.1465398073196411, -0.18204174935817719, -1.4683200120925903, 0.8931230902671814, 0.16492797434329987, -0.7160214781761169, 0.043845854699611664, 0.947708785533905, 0.0648777186870575, 0.1264103800058365, 0.5131809115409851, 0.09089652448892593, -0.9145065546035767, 0.28265538811683655, -0.008119232952594757, 1.8542912006378174, -0.9369013905525208, -0.44034889340400696, 0.058007948100566864, -1.6658848524093628, -0.24491611123085022, -0.12804992496967316, -0.215560182929039, -1.6235780715942383, 0.18504227697849274, -0.1273992359638214, -0.15974149107933044, 0.38093048334121704]}, "input_size": 120, "conv1d_stride": 12, "conv1d_1_stride": 12}