{"conv1d": {"bias:0": [0.0003996947780251503, -0.0009056199342012405, 7.595168426632881e-06, 0.003177478676661849], "kernel:0": [[[-0.2041178196668625, -0.29825738072395325, -0.7017825841903687, 0.22268088161945343]], [[0.19315138459205627, 0.34279173612594604, -0.22160488367080688, 0.10665512830018997]], [[0.05633271113038063, -0.0966595858335495, 0.1986241638660431, 0.07533037662506104]], [[0.12720978260040283, 0.02967800386250019, 0.12014786899089813, 0.10857492685317993]], [[0.6385732293128967, -0.07406290620565414, 0.07823213934898376, -0.17360685765743256]], [[0.22509613633155823, -0.07313274592161179, -0.2852405905723572, 0.04641489312052727]], [[0.4390456974506378, -0.09763068705797195, 0.07267102599143982, -0.609127402305603]], [[-0.1395866721868515, 0.023949692025780678, 0.000520356057677418, -0.5020046830177307]], [[-0.49785131216049194, -0.0738404244184494, -0.033602192997932434, 0.017616620287299156]], [[-0.4997238218784332, -0.43144384026527405, 0.27827736735343933, 0.8616805672645569]], [[-1.0665147304534912, -0.5351691246032715, 0.929547131061554, 1.2436434030532837]], [[1.3511134386062622, 0.9042050242424011, -0.48652833700180054, -0.912205696105957]]]}, "conv1d_1": {"bias:0": [0.005308784544467926, -0.009410190396010876, -0.06626803427934647, 0.005774019286036491], "kernel:0": [[[0.13591492176055908, -0.00979471206665039, 0.12060445547103882, -0.07920712232589722], [-0.24233436584472656, -0.24561643600463867, 0.04999417066574097, -0.021857857704162598], [0.15832185745239258, 0.2314462661743164, -0.08323520421981812, 0.1924775242805481], [0.189916729927063, -0.12464284896850586, -0.17369836568832397, 0.19912689924240112]], [[-0.18401922285556793, -0.09520290791988373, -0.3538989722728729, 0.476095974445343], [-0.1887689232826233, 0.6044436097145081, 0.9126030206680298, 0.2200850397348404], [0.06815779209136963, 0.654265284538269, 2.334238052368164, 0.4922524392604828], [0.060659706592559814, 0.0358554907143116, -1.8436641693115234, -0.031034791842103004]], [[0.29149457812309265, -0.19150732457637787, 0.23176971077919006, 0.40944650769233704], [-0.2320529818534851, -0.28897058963775635, -0.5612062215805054, -0.15884000062942505], [0.35046958923339844, 0.13004262745380402, 0.21980829536914825, 0.25831085443496704], [0.04289201647043228, -0.11498578637838364, -0.4158785343170166, 0.2505965530872345]], [[0.5945471525192261, 0.11201514303684235, -0.5413424968719482, 0.4034539461135864], [-0.2888668179512024, -0.26901549100875854, 0.24492888152599335, -0.36074143648147583], [-0.07064513117074966, -0.009214285761117935, -0.6853810548782349, 0.16363638639450073], [0.46441468596458435, -0.4867990016937256, 0.10641401261091232, 0.5785366892814636]], [[-0.2367825210094452, -0.25429436564445496, -0.30452102422714233, 0.1423376351594925], [0.392684668302536, 0.07693322002887726, 0.33370375633239746, -0.3548160791397095], [-0.37186476588249207, -0.3004264235496521, 0.0053429133258759975, 0.0013363657053560019], [-0.13455113768577576, 0.09383029490709305, 0.4511505961418152, 0.33267027139663696]], [[-0.40050381422042847, -0.1542893946170807, 0.03556567803025246, 0.0686783567070961], [0.050877463072538376, -0.12588350474834442, -0.7190287709236145, -0.15216946601867676], [-0.3574889302253723, 0.003818084252998233, 0.039211928844451904, 0.07548253983259201], [-0.18992464244365692, -0.15086372196674347, -0.23111611604690552, 0.376041442155838]], [[-0.32662081718444824, -0.3345051109790802, 0.08908773213624954, 0.19343192875385284], [0.2136254906654358, 0.14217835664749146, -0.29225555062294006, -0.16767801344394684], [-0.18092645704746246, 0.016953378915786743, -0.14882756769657135, 0.21974004805088043], [0.17778950929641724, 0.014758373610675335, 0.3196130096912384, 0.4640231430530548]], [[-0.08170666545629501, 0.18025168776512146, -0.21251656115055084, 0.32083019614219666], [-0.004717630334198475, 0.15074649453163147, -0.3499605655670166, 0.06475718319416046], [0.2711648643016815, -0.3392026126384735, -0.21767054498195648, -0.033806271851062775], [-0.4106772840023041, 0.4934271275997162, -0.2738337218761444, 0.7326041460037231]], [[-0.6043388843536377, -0.021263422444462776, 0.13580958545207977, 0.39518988132476807], [0.4860096573829651, 0.056843578815460205, -0.3708947002887726, -0.5316280722618103], [-0.31094038486480713, -0.09091012924909592, -0.08548207581043243, 0.24473929405212402], [-0.9141467213630676, 0.4297093152999878, -0.02448202855885029, 0.8135172724723816]], [[-0.008565768599510193, -0.12330222874879837, -0.10283399373292923, -0.3174212872982025], [0.17348575592041016, -0.0801304504275322, -0.508931577205658, 0.2259741723537445], [0.2961887717247009, -0.029675057157874107, -0.07093450427055359, -0.4894388020038605], [-0.5343976020812988, 0.07659237086772919, 0.2248145192861557, -0.09006199985742569]], [[-0.8938030004501343, 0.6542989015579224, 1.0328469276428223, 1.2400102615356445], [-0.45238015055656433, 0.6931493878364563, 1.5622384548187256, 0.7763336896896362], [0.7635396122932434, -0.9039933085441589, 0.8204746246337891, -0.33282241225242615], [2.197833299636841, -2.3509132862091064, 1.2647109031677246, -2.294782876968384]], [[0.15963131189346313, -0.1524062156677246, 0.049322307109832764, -0.02434086799621582], [0.10700368881225586, 0.17659145593643188, -0.18645232915878296, 0.2344813346862793], [0.16297376155853271, -0.24990713596343994, -0.07999330759048462, 0.038671910762786865], [-0.21113580465316772, -0.19832831621170044, -0.17750632762908936, -0.16482502222061157]]]}, "dense": {"bias:0": [-0.003906140336766839], "kernel:0": [[3.199204002157785e-05], [-0.0029053681064397097], [0.003445912152528763], [0.3989887833595276], [-0.019612714648246765], [-0.0890733078122139], [0.2031497210264206], [-0.18413805961608887], [0.001256705611012876], [-8.446591527899727e-05], [0.07921051979064941], [-0.2738438546657562], [0.12389224767684937], [-0.19789521396160126], [-9.401649731444195e-05], [0.337907075881958], [0.4572714567184448], [0.17421509325504303], [0.0003909232036676258], [0.10531970113515854], [0.11611726135015488], [-0.29530349373817444], [0.2992228865623474], [-0.31305596232414246]]}, "lstm": {"lstm_cell": {}, "kernel:0": [[0.5300778150558472, -0.7372857332229614, 0.14988842606544495, 0.008375676348805428, 0.3481408357620239, -2.4144351482391357, -0.5714668035507202, -1.9518675804138184, -0.33116963505744934, 0.22896762192249298, 1.0103859901428223, -0.347400963306427, -0.2810521125793457, -1.2035715579986572, -0.26848873496055603, -0.3273535966873169, 0.8806142210960388, -0.41850119829177856, 0.03272629901766777, 0.3891206681728363, -1.595179557800293, 2.7017862796783447, 0.11589255183935165, 3.1045525074005127, 0.09173671901226044, 0.06046460568904877, -0.035876646637916565, -0.028084218502044678, 0.017052724957466125, -0.18515101075172424, -0.14939671754837036, 0.016301020979881287, -0.1638241708278656, 0.23530705273151398, 0.1253342479467392, -0.02241295576095581, 0.22052769362926483, 0.22698114812374115, 0.1282636672258377, -0.17165134847164154, -0.13365091383457184, -0.18248508870601654, 0.10586680471897125, -0.11007648706436157, -0.17289218306541443, -0.17488223314285278, 0.13021807372570038, -0.14448419213294983, -0.008047663606703281, 0.0653354600071907, 0.059974174946546555, 0.03989734500646591, -0.06923023611307144, -0.45901593565940857, 0.47585469484329224, 0.4216614365577698, 0.0025856762658804655, -0.00020427769050002098, 0.7762680053710938, -0.24908384680747986, 0.1535540372133255, -0.03931257873773575, -0.0005230812239460647, 0.48904287815093994, 0.5344052314758301, 0.47462397813796997, -0.10646336525678635, -0.009213781915605068, 0.11541620641946793, -0.5813907384872437, 0.46201565861701965, 0.40449416637420654, 0.45772585272789, -0.8193532228469849, -0.027885504066944122, 0.17661651968955994, 0.35725340247154236, 0.7061072587966919, -0.43104034662246704, -1.9835467338562012, -0.08618085086345673, 0.003229755675420165, -1.2626570463180542, -0.44607415795326233, -0.30848440527915955, -1.1435550451278687, -0.33308061957359314, -0.4695720076560974, 0.20204517245292664, 0.20849385857582092, 0.2682453989982605, -0.22190578281879425, -1.6659321784973145, 2.466749668121338, 0.15100157260894775, 1.422872543334961], [-0.1900160163640976, -0.5189253091812134, -0.9101567268371582, 0.32272666692733765, -0.46704334020614624, 3.7262260913848877, 0.4665836691856384, -0.19664937257766724, -0.009567088447511196, -0.03997090086340904, -1.312366247177124, 0.5764003396034241, 0.5852589011192322, -0.6221485137939453, -0.03234773874282837, 1.0035046339035034, 0.14372998476028442, 1.0768834352493286, -0.2270830273628235, -1.5364495515823364, -0.011058671399950981, -1.2697274684906006, -0.23724624514579773, 0.19611817598342896, 0.002675965428352356, 0.08087222278118134, -0.1661340296268463, 0.09834368526935577, -0.14452898502349854, 0.06257016956806183, 0.08619113266468048, 0.23426105082035065, 0.1311563402414322, -0.12197639048099518, -0.19252382218837738, -0.09522013366222382, 0.22361718118190765, -0.22948864102363586, -0.03536196053028107, 0.06864048540592194, -0.03054836392402649, 0.17607815563678741, 0.07518844306468964, 0.011759862303733826, 0.18044622242450714, -0.24455219507217407, -0.17145773768424988, 0.00014938414096832275, 0.04189993441104889, 0.0611577145755291, -0.08522182703018188, -0.534430742263794, 0.08895540237426758, 0.9987809658050537, 0.11311057209968567, 0.11793919652700424, -0.03805501013994217, -0.0006193971494212747, -0.0016654195496812463, 0.26379597187042236, 0.042494967579841614, 0.6384467482566833, -0.000899889855645597, 0.38882920145988464, -0.2942971885204315, -0.14857016503810883, -0.15186651051044464, -0.43499675393104553, 0.08323977142572403, 0.10991434752941132, -0.23994892835617065, 0.46707627177238464, -0.3378433287143707, -0.5901657938957214, -0.9971740245819092, -0.012448713183403015, -0.4696595370769501, -0.024220967665314674, 1.5373916625976562, 0.10975992679595947, 0.30323904752731323, 0.5346118807792664, -1.837206244468689, 0.28293389081954956, 1.1886457204818726, -0.5246279835700989, -0.21155761182308197, 0.33863723278045654, -0.5206854939460754, 0.8456596732139587, 0.6290420889854431, -1.0496857166290283, 0.1808711737394333, -2.0642571449279785, -0.08551213145256042, -0.1308813840150833], [0.10884197056293488, 0.10828246921300888, 0.8272246718406677, 0.895104706287384, 0.7162914276123047, -0.8490691184997559, -0.8576887249946594, 2.7534213066101074, 0.1220225989818573, 0.05474725365638733, -4.118040561676025, 0.41377362608909607, -2.192110061645508, 2.269717216491699, 0.9410802721977234, -0.6658341884613037, 1.431905746459961, -0.48177242279052734, -0.3914174735546112, 3.5031466484069824, 1.873725414276123, 3.3253390789031982, -0.3410601019859314, 1.863136649131775, 0.07058106362819672, -0.07015644013881683, -0.009300202131271362, -0.1995260864496231, 0.2160734087228775, 0.21941052377223969, -0.21002086997032166, -0.2437240183353424, 0.00942598283290863, 0.1637754589319229, -0.1517903059720993, -0.17772486805915833, -0.007052958011627197, -0.0727245956659317, -0.10094833374023438, -0.220223531126976, 0.049701765179634094, -0.08385787904262543, 0.24174635112285614, -0.001033395528793335, -0.004297852516174316, 0.0038143694400787354, -0.17491324245929718, -0.07640236616134644, -0.007047658320516348, 0.041782647371292114, -0.02528504841029644, -0.16831718385219574, 0.18333345651626587, 0.06006241217255592, -0.06938759237527847, -0.02417009510099888, -0.02169014886021614, 2.148921885236632e-05, 0.4535372853279114, -0.10268878191709518, -0.21278195083141327, -0.38534483313560486, -0.00017705111531540751, 0.2054155468940735, -0.2881675660610199, -0.12968382239341736, -0.15579836070537567, 0.45568570494651794, -0.21150881052017212, -0.3451305627822876, -0.12561465799808502, 0.2833670675754547, 0.5928908586502075, -0.14872068166732788, 0.9021618962287903, 0.11197467893362045, 0.8104282021522522, -8.034083366394043, -0.10919871926307678, 3.0453596115112305, 0.3369241952896118, -0.3036782145500183, -2.2808992862701416, 0.1945118010044098, 1.4183053970336914, 1.751037836074829, 1.1001672744750977, -0.9133291840553284, -1.0159610509872437, -2.264193058013916, 0.7680737376213074, 3.3826825618743896, 1.655639886856079, 4.9068603515625, 0.7751162052154541, -2.615211248397827], [0.11263234913349152, -0.5129305124282837, 0.35711362957954407, -0.17421695590019226, -0.26304706931114197, 4.521597862243652, -0.08304022252559662, -2.985279083251953, 0.4461211562156677, -0.3106749951839447, -0.5515541434288025, 0.17475005984306335, -0.3107035756111145, 1.0980085134506226, -0.19897787272930145, -0.8358768224716187, -0.26416829228401184, -0.8785979747772217, 0.3801394999027252, 0.10375551879405975, 0.8435889482498169, 1.1629817485809326, -0.08824258297681808, 0.5545269250869751, 0.18859101831912994, -0.044125527143478394, -0.045604631304740906, 0.08381347358226776, 0.13838858902454376, -0.1754520982503891, 0.18717877566814423, -0.018100440502166748, 0.1636909693479538, 0.1844610720872879, -0.054330408573150635, -0.1882573813199997, -0.1949414759874344, 0.14273492991924286, -0.13526427745819092, -0.04778343439102173, -0.21029844880104065, -0.19818182289600372, 0.0985424667596817, -0.12180854380130768, 0.13578207790851593, 0.07599799335002899, -0.23529590666294098, -0.006278276443481445, -0.02517160214483738, 0.030229508876800537, 0.08115760236978531, -0.5460527539253235, -0.0006798470858484507, -0.168816938996315, -0.3868008852005005, 0.5746225118637085, 0.01747729443013668, 0.00014625700714532286, 0.2923088073730469, 0.3503856062889099, -0.489027738571167, 0.22139988839626312, 0.0001612817432032898, -0.6328403353691101, -0.4334705173969269, -0.5140291452407837, -0.0422053299844265, 0.09804704785346985, -0.48208603262901306, -0.4596649408340454, -0.29586079716682434, 0.5560287833213806, -0.11088813096284866, -0.3405023217201233, 0.1287260502576828, 0.5485807061195374, -0.17373870313167572, 2.042609930038452, -0.4680699110031128, -3.008669376373291, 0.4727398157119751, -0.07385627925395966, -1.1859147548675537, 0.5057698488235474, -0.6572740077972412, 1.0858566761016846, -0.12899744510650635, -0.41270628571510315, -0.7097363471984863, -0.8043490052223206, 0.506351888179779, 0.9872658252716064, 0.5359012484550476, 0.2549045979976654, -0.17335103452205658, -0.9237501621246338]], "bias:0": [-0.7403794527053833, -0.41992270946502686, -1.006985068321228, -0.07042866200208664, -0.9830154180526733, 0.3876167833805084, -0.2852886915206909, -0.8892858624458313, -0.5664448738098145, -0.23156127333641052, -1.0077604055404663, -0.2209254801273346, -0.24079589545726776, -0.7518726587295532, -0.2553393542766571, -0.05138523876667023, -0.14442092180252075, -0.7054634094238281, -0.4931851625442505, -0.3396168649196625, -1.3111155033111572, -1.2211169004440308, -0.14718927443027496, -0.68174147605896, 1.0, 1.0, 1.0, 1.0, 1.0, 1.0, 1.0, 1.0, 1.0, 1.0, 1.0, 1.0, 1.0, 1.0, 1.0, 1.0, 1.0, 1.0, 1.0, 1.0, 1.0, 1.0, 1.0, 1.0, 0.0009950054809451103, 0.005305769387632608, -0.004469603765755892, -0.011917893774807453, 0.015057943761348724, -0.025970637798309326, 0.003082344774156809, 0.03183012083172798, -0.0021942134480923414, -1.9053277355851606e-05, -0.0013624064158648252, 0.0024050353094935417, -0.000213868566788733, -0.02076873928308487, -4.225203156238422e-05, 0.013492591679096222, -0.010169405490159988, 0.017886720597743988, -0.009909618645906448, -0.032630160450935364, 0.048183221369981766, -0.008537577465176582, -0.009197569452226162, -0.04953300952911377, -0.7471820116043091, -0.4242260456085205, -1.0057908296585083, -0.08826031535863876, -0.9754107594490051, 0.24650149047374725, -0.3244529962539673, -0.8986586332321167, -0.5639110803604126, -0.23490914702415466, -0.8165348768234253, -0.2224123626947403, -0.3988765776157379, -0.7280337810516357, -0.2583158016204834, -0.06702126562595367, -0.11034143716096878, -0.631836473941803, -0.48103800415992737, -0.45123371481895447, -1.2679529190063477, -1.2732340097427368, -0.15712709724903107, -1.1800005435943604]}, "input_size": 120, "conv1d_stride": 12, "conv1d_1_stride": 12}