{"conv1d": {"bias:0": [0.01928171142935753, -0.006042396649718285, -0.01737215928733349, 0.029658645391464233], "kernel:0": [[[0.8502187132835388, -5.5955939292907715, -1.8808482885360718, -5.419396877288818]], [[-0.11969702690839767, -4.837228298187256, -1.312136173248291, -3.963733673095703]], [[-1.174850583076477, -3.19278883934021, -0.6559665203094482, -2.270634889602661]], [[-1.9140244722366333, -1.4454739093780518, 0.9442197680473328, -0.9788823127746582]], [[-2.5271363258361816, 0.5508089065551758, 2.1527414321899414, -0.6389945149421692]], [[-3.059288740158081, 1.9535071849822998, 2.878056287765503, -0.32075241208076477]], [[-2.9454152584075928, 3.146336793899536, 3.2651424407958984, -0.06806598603725433]], [[-2.564797878265381, 3.245448589324951, 2.8276994228363037, -0.7151205539703369]], [[-1.4734001159667969, 3.0866103172302246, 2.3172245025634766, -0.8994000554084778]], [[-0.19986392557621002, 2.5467798709869385, 1.4326541423797607, -1.8474065065383911]], [[0.7335296273231506, 1.7026454210281372, -0.30312177538871765, -1.7925727367401123]], [[1.9774036407470703, 0.5863626003265381, -1.8979566097259521, -1.8539927005767822]]]}, "conv1d_1": {"bias:0": [0.12489455938339233, -0.15297815203666687, -0.04228682070970535, -0.0891532301902771], "kernel:0": [[[0.07300597429275513, -0.1642361283302307, 0.13082635402679443, 0.23266726732254028], [-0.18600821495056152, 0.1255474090576172, -0.19814366102218628, -0.08897888660430908], [0.22706592082977295, -0.16245687007904053, 0.15640926361083984, 0.10980147123336792], [-0.059812843799591064, 0.027898430824279785, 0.03410017490386963, 0.024181127548217773]], [[-0.10860463976860046, 0.2691255807876587, -0.6493424773216248, 0.35266026854515076], [0.8876200914382935, 0.16550874710083008, -0.5933977961540222, 0.3481731116771698], [0.18394269049167633, -0.013024987652897835, 0.355072557926178, -0.28292787075042725], [1.759505033493042, -0.42503073811531067, 0.20816141366958618, -0.6726952195167542]], [[0.8405274152755737, 0.1040952056646347, -0.7646514773368835, 0.17010530829429626], [0.43380826711654663, 0.21214114129543304, -0.25241541862487793, 0.517976701259613], [-0.5446071028709412, -0.07393042743206024, 0.5674471259117126, -0.3572690486907959], [1.106563687324524, -0.2906440198421478, 0.09386288374662399, -0.10980559885501862]], [[-0.695393443107605, -0.04434134438633919, 0.12182442098855972, 0.20156075060367584], [-0.34454473853111267, -0.027287539094686508, 0.02675747685134411, -0.07713455706834793], [0.1397409737110138, 0.23205775022506714, 0.03530888259410858, -0.0699448212981224], [0.35883480310440063, 0.30690670013427734, 0.3986194431781769, 0.3701564371585846]], [[-0.9550352096557617, 0.049610354006290436, 0.09355463087558746, 0.347523033618927], [0.23473778367042542, -0.10154782980680466, 0.002215833868831396, -0.28977084159851074], [0.5910601019859314, 0.008790194056928158, -0.38210391998291016, -0.17574745416641235], [0.5582432150840759, -0.24614349007606506, 0.6494227051734924, 0.35334083437919617]], [[-0.028851956129074097, -0.1495777666568756, 0.678284764289856, 0.8068844676017761], [0.619401752948761, 0.02071371302008629, 0.025447677820920944, -0.025636842474341393], [0.5371032953262329, -0.06472700089216232, -0.6525346636772156, -0.762878954410553], [-0.3588000237941742, -0.297948956489563, 1.516681432723999, 0.9085829257965088]], [[0.2678333818912506, 0.3030231297016144, -0.8631231784820557, -0.5513262748718262], [1.2870286703109741, -0.45338883996009827, 2.133547306060791, 2.111605405807495], [0.4718811511993408, -0.19788430631160736, 1.389182448387146, 1.0323059558868408], [0.014171270653605461, -0.1849365383386612, -0.018014686182141304, -0.43933406472206116]], [[-0.02237897925078869, -0.1981745958328247, -0.16652189195156097, -0.04526279494166374], [0.370849609375, 0.37933847308158875, -0.23243196308612823, -0.47425395250320435], [0.1678714156150818, 0.08878149837255478, 0.17342688143253326, -0.006493641994893551], [-0.4090921878814697, -0.25229448080062866, -0.5882889628410339, -0.7555680871009827]], [[-0.07398612797260284, -0.8027554750442505, -0.16992266476154327, -0.29481765627861023], [0.06700418889522552, 0.44734492897987366, 0.78262859582901, -0.5575346350669861], [0.20990949869155884, 0.6662840247154236, 0.43624699115753174, 0.40175238251686096], [-0.7480957508087158, -1.1552371978759766, 0.002129229949787259, 0.03147910162806511]], [[-0.4604038894176483, -2.9074759483337402, -0.009015219286084175, -1.0531004667282104], [0.07404628396034241, -0.5954828262329102, 3.0015320777893066, -2.649503707885742], [0.009254577569663525, 2.487306833267212, 0.7261061072349548, 0.4584842622280121], [-1.0633158683776855, -3.361734628677368, -1.0734094381332397, 0.9439427852630615]], [[1.5328173637390137, 4.3395676612854, 1.630530834197998, -1.1312860250473022], [-2.9213154315948486, -1.4608701467514038, -6.547626495361328, 6.48765754699707], [-2.0514283180236816, -4.56339693069458, -2.9673702716827393, 2.4413695335388184], [0.11537938565015793, 3.3152477741241455, -1.3293296098709106, 2.5725533962249756]], [[0.16043400764465332, -0.03760749101638794, 0.05356860160827637, -0.013506114482879639], [-0.13026028871536255, -0.19738471508026123, -0.1551918387413025, 0.1200982928276062], [0.14187687635421753, -0.24116867780685425, -0.24720966815948486, 0.18440479040145874], [0.22547203302383423, -0.1335417628288269, 0.07659947872161865, -0.08918994665145874]]]}, "dense": {"bias:0": [-0.07398176193237305], "kernel:0": [[0.07190565764904022], [0.07013947516679764], [-0.14548832178115845], [0.04034142196178436], [-0.06241457909345627], [0.1405964493751526], [-0.04553195834159851], [-0.1598321497440338], [0.16786612570285797], [0.23600241541862488], [-0.013716590590775013], [0.06644688546657562], [-0.08721250295639038], [0.23428677022457123], [0.08986601233482361], [-0.10540991276502609], [-0.2889203727245331], [-0.12737387418746948], [-0.14862900972366333], [0.048824410885572433], [-0.06884261965751648], [0.12577246129512787], [-0.03806329146027565], [-0.04354707896709442]]}, "lstm": {"lstm_cell": {}, "kernel:0": [[0.4555641710758209, -0.027407152578234673, -0.16183307766914368, 0.37843650579452515, -0.009731740690767765, 0.14544996619224548, -0.40343552827835083, -0.8050650954246521, 0.5645802617073059, -2.339730978012085, -0.719923734664917, 0.2643981873989105, -0.33361580967903137, -0.24123264849185944, 0.05118504539132118, -0.10676069557666779, 1.4853532314300537, 0.1663825362920761, 0.41241925954818726, -0.7226619124412537, -0.5217954516410828, -0.08303727209568024, -1.7125110626220703, 0.9037985801696777, 0.17344488203525543, 0.12376220524311066, 0.1602933555841446, 0.09516827762126923, -0.064048632979393, -0.09023594856262207, -0.14674252271652222, -0.21562929451465607, 0.05739404261112213, -0.06178078055381775, -0.04073619842529297, -0.010015144944190979, 0.15123696625232697, -0.1211148053407669, -0.016261175274848938, 0.04876933991909027, 0.2007850855588913, -0.19989149272441864, 0.12353993952274323, 0.11632995307445526, -0.23750413954257965, 0.021349087357521057, -0.05423526465892792, 0.19719399511814117, -0.0011388418497517705, -0.07977594435214996, 0.9555411338806152, 0.04275091364979744, -0.17799106240272522, -0.13081224262714386, 1.167364239692688, 0.6103349328041077, -0.9280505776405334, -1.102094054222107, -0.7277071475982666, -1.8870294094085693, 4.981843948364258, -0.21243847906589508, -0.6915669441223145, -0.043217841535806656, 0.9594999551773071, -0.010128092020750046, 0.44304606318473816, 0.030520116910338402, -0.5570353865623474, -0.9985933303833008, -0.33967533707618713, 3.863034963607788, -0.39981600642204285, -0.04240836575627327, -0.5563669800758362, 0.07174526900053024, 0.19688847661018372, 0.39396724104881287, 0.16237880289554596, 0.14636698365211487, -0.02261178009212017, 1.8376851081848145, -1.525402545928955, 0.45678043365478516, 0.09493596106767654, -0.22846198081970215, -0.4763149917125702, -0.24915561079978943, -1.480393886566162, -0.5239445567131042, 0.4605591297149658, -0.495829313993454, 0.10898233950138092, -0.37442052364349365, 1.3949390649795532, 0.572576105594635], [0.5905436873435974, 1.2690352201461792, -1.4318960905075073, 0.0713222548365593, -0.5235388278961182, 2.3012359142303467, 0.20294643938541412, -3.3412187099456787, 2.3227031230926514, -4.3803558349609375, -4.6141133308410645, 0.29437005519866943, -1.6913851499557495, -1.5825974941253662, 0.4469461143016815, 2.285670280456543, 2.3606975078582764, 2.0277528762817383, -0.30231940746307373, -1.2144219875335693, -0.8340594172477722, 0.11956764757633209, 0.3307533264160156, 0.33590421080589294, 0.04272688925266266, 0.04359595477581024, -0.029814794659614563, -0.1602582484483719, -0.14858803153038025, 0.14224715530872345, 0.05226559937000275, -0.10736104846000671, -0.0879969447851181, 0.06137256324291229, -0.2134493738412857, 0.19114060699939728, 0.09048111736774445, -0.01708228886127472, 0.23550818860530853, 0.01975293457508087, 0.04125349223613739, 0.09228737652301788, -0.13828825950622559, 0.22025121748447418, -0.026660189032554626, 0.06002916395664215, -0.04647970199584961, 0.10591895878314972, 0.17329061031341553, -0.05647103488445282, 0.2106989622116089, -0.32453709840774536, -0.17926780879497528, -1.1498324871063232, 0.11911916732788086, 1.1835534572601318, -0.5819876790046692, -0.18806539475917816, -2.4329652786254883, 0.8786904215812683, -1.6409770250320435, -1.2193886041641235, 0.49122437834739685, -1.1695306301116943, 1.9705530405044556, -3.131808280944824, -0.28405874967575073, -0.46529892086982727, -2.8823559284210205, 0.2883056402206421, -0.38710933923721313, -0.20809903740882874, -2.149562358856201, -0.9198088645935059, 0.22465643286705017, 1.1575247049331665, 0.8355291485786438, -0.19222857058048248, -0.39498817920684814, 1.0570430755615234, -1.513791561126709, 2.974260091781616, -5.013935089111328, -0.48047029972076416, 1.1296746730804443, -0.8385476469993591, -1.4977800846099854, -1.4745486974716187, -2.9381978511810303, -4.084389686584473, -0.07356598973274231, -1.0290539264678955, 0.2556218206882477, 0.07004234939813614, 1.9038900136947632, -1.212825894355774], [-0.016970016062259674, -0.5557568669319153, -0.17172062397003174, 0.5912148952484131, 0.2675590515136719, 0.16477301716804504, -0.3849187195301056, -1.3617910146713257, 0.2448238730430603, -2.8234784603118896, -3.705307960510254, -0.6710755228996277, -1.4102789163589478, -0.4830905497074127, 0.03477669507265091, 1.934969425201416, 2.042940378189087, -0.8616300225257874, 0.9304566383361816, -1.6382356882095337, 0.019016968086361885, -0.38998332619667053, -1.3732190132141113, -0.3929036259651184, -0.06241750717163086, 0.03760750591754913, -0.14773908257484436, -0.15446293354034424, 0.06835998594760895, -0.06594565510749817, -0.21921442449092865, 0.19819118082523346, -0.2358493059873581, -0.17382460832595825, -0.03830188512802124, 0.11200885474681854, 0.17674238979816437, -0.16062039136886597, 0.10548581182956696, -0.23342137038707733, 0.16383345425128937, 0.09826396405696869, 0.2179918736219406, -0.0791458934545517, -0.10063250362873077, -0.0865919440984726, -0.03679843246936798, -0.04860319197177887, 0.036072276532649994, -0.7515457272529602, 0.046693943440914154, 0.42075982689857483, 1.185255765914917, -0.06872426718473434, 1.096869707107544, 1.7740857601165771, -2.837306261062622, -12.312821388244629, -1.1489025354385376, -0.07950056344270706, -1.8949745893478394, -0.4079057574272156, -4.064452171325684, 0.46207067370414734, -0.8331574201583862, 1.6171046495437622, 0.6961173415184021, 0.5571727752685547, 0.7176845073699951, 0.33001402020454407, 0.745414137840271, -3.472032308578491, -0.9202432036399841, -0.7250426411628723, 0.0797310322523117, 0.470837265253067, -0.2754962146282196, -0.08506110310554504, -0.3996959626674652, 0.2901207506656647, 0.7532864212989807, 2.4776415824890137, -3.317753314971924, 0.537078857421875, 1.0799272060394287, -0.34313783049583435, -0.8351760506629944, 0.5465454459190369, -1.793594479560852, -0.04520050436258316, -0.22690853476524353, 0.2502312958240509, 0.00030594365671277046, 0.2910985052585602, 1.4438937902450562, -0.24283449351787567], [0.13942112028598785, 1.233710527420044, 0.053960323333740234, -0.4208999276161194, -0.4981754422187805, 0.1712043136358261, -0.5457764863967896, 0.8919517397880554, 0.31553149223327637, 1.8730356693267822, 2.38482666015625, -0.2617627680301666, 1.0820841789245605, 0.14224646985530853, -0.7340617775917053, -0.8781869411468506, -1.0558682680130005, 1.2652809619903564, 1.0076838731765747, -0.8173482418060303, 0.5787850022315979, -0.5668904185295105, -3.29048228263855, 1.9919222593307495, 0.02767185866832733, 0.010505303740501404, 0.18304724991321564, 0.14047156274318695, -0.10773329436779022, 0.019229158759117126, -0.07500138878822327, -0.2424413114786148, 0.11046101152896881, -0.23460468649864197, -0.15966805815696716, -0.07355605065822601, 0.17829297482967377, -0.10327203571796417, -0.032919541001319885, 0.18732811510562897, -0.05238625407218933, -0.06980130076408386, -0.2202376127243042, -0.23942820727825165, -0.22994497418403625, -0.24039974808692932, 0.10111986100673676, 0.048769935965538025, 0.7479581832885742, 0.643717885017395, -0.08941470086574554, -0.6526227593421936, 1.7365796566009521, -0.11684481799602509, 0.4831218421459198, -1.6962881088256836, 2.332179069519043, 0.7628264427185059, 0.6195436716079712, 1.6884751319885254, -2.599440097808838, 0.23508243262767792, -4.37016487121582, -0.8436800837516785, -0.6394587159156799, -2.749178886413574, 0.703567385673523, -0.09846052527427673, -2.3626692295074463, 0.06472039967775345, -1.2441003322601318, 1.1050610542297363, 1.2587038278579712, 0.5908065438270569, 0.014504498802125454, -0.2505439817905426, 1.0675755739212036, 0.08844151347875595, 0.9154630899429321, -0.1932142674922943, -1.1187270879745483, -1.2696731090545654, 2.1379759311676025, -0.016389740630984306, -0.42468810081481934, 0.25148484110832214, 1.1354111433029175, -0.8005664348602295, 1.2412148714065552, -1.13051176071167, -0.2517150044441223, -5.324244499206543, -0.5485647916793823, 0.22777432203292847, -2.5467660427093506, -1.944507360458374]], "bias:0": [0.10252513736486435, -1.1330554485321045, -0.10357015579938889, 1.8838950395584106, 2.2388880252838135, -0.6393317580223083, -1.410576581954956, 1.5407085418701172, 1.753234624862671, 0.44376417994499207, -0.46349772810935974, 1.0933407545089722, 1.221089243888855, 0.7248300909996033, 0.259777694940567, -1.2973260879516602, -0.15301541984081268, 0.5704737305641174, -0.14425736665725708, 1.8221744298934937, 1.8835664987564087, 1.2626540660858154, -0.7173113226890564, 2.013162136077881, 1.0, 1.0, 1.0, 1.0, 1.0, 1.0, 1.0, 1.0, 1.0, 1.0, 1.0, 1.0, 1.0, 1.0, 1.0, 1.0, 1.0, 1.0, 1.0, 1.0, 1.0, 1.0, 1.0, 1.0, -0.853839635848999, -0.46989983320236206, -0.5735343098640442, -0.26752009987831116, 0.16592803597450256, -0.016046445816755295, -0.5938616394996643, 0.04276534169912338, -0.13329462707042694, -0.16306623816490173, -1.1751651763916016, 0.6196730136871338, 0.5748189687728882, 0.8829475045204163, 0.33591344952583313, -0.40517404675483704, 0.17080341279506683, -0.19748759269714355, 0.8568198680877686, 1.4357645511627197, -0.5746386647224426, 0.5061910152435303, -1.229657769203186, -0.19009624421596527, -1.6141321659088135, 0.9507222175598145, -0.16546513140201569, 0.3482136130332947, 2.958134889602661, -0.188932403922081, 0.8775103092193604, 0.8320461511611938, -0.02694946900010109, 0.7798593640327454, -0.040588364005088806, 1.3052984476089478, 0.3124452829360962, 0.5298671126365662, 2.056222677230835, 2.3936710357666016, 0.06484775245189667, 1.2590335607528687, 1.4767545461654663, -0.6254410743713379, 1.0284217596054077, 0.6327375769615173, 1.8500534296035767, 2.574861526489258]}, "input_size": 120, "conv1d_stride": 12, "conv1d_1_stride": 12}