{"conv1d": {"bias:0": [-0.00877294596284628, 0.004345460329204798, -0.01304535660892725, 0.00515680992975831], "kernel:0": [[[0.35856932401657104, 0.9155964255332947, -0.7788227796554565, -0.9179949760437012]], [[0.018155118450522423, 0.6149714589118958, -0.5615507364273071, -1.0330203771591187]], [[-0.2716326415538788, 0.5804962515830994, 0.2294880896806717, -1.3216233253479004]], [[-0.29859110713005066, 0.1362919956445694, 0.43779456615448, -1.3386799097061157]], [[-0.6609998941421509, 0.00039638642920181155, 1.4147573709487915, -1.4580447673797607]], [[0.06640611588954926, 0.21894259750843048, 1.7231274843215942, -1.0613781213760376]], [[0.41084691882133484, -0.31721818447113037, 1.6947689056396484, -0.06659603863954544]], [[0.7533060312271118, -0.8460358381271362, 1.5269074440002441, 0.3975682854652405]], [[1.821128249168396, -1.1469913721084595, 1.4298837184906006, 1.1890754699707031]], [[1.6920852661132812, -1.1241235733032227, 0.4249635636806488, 1.1411762237548828]], [[1.6781461238861084, -0.8251505494117737, 0.06762316823005676, 1.197180151939392]], [[1.205391526222229, -0.9373494982719421, -1.4886256456375122, 1.4269887208938599]]]}, "conv1d_1": {"bias:0": [0.00036120228469371796, 0.02824430912733078, 0.004643106367439032, -0.005561197176575661], "kernel:0": [[[0.060175955295562744, 0.16225916147232056, -0.17377936840057373, -0.12490725517272949], [0.026904284954071045, 0.08933204412460327, -0.23264425992965698, -0.23086762428283691], [0.2424282431602478, 0.1216663122177124, -0.030355632305145264, -0.19585472345352173], [-0.15165889263153076, 0.09984874725341797, -0.0682646632194519, 0.20074492692947388]], [[-0.6698555946350098, -0.1985749900341034, -0.41914743185043335, 0.3462287485599518], [-0.31299304962158203, -0.22780826687812805, -0.27741539478302, 0.3417474627494812], [0.1543668806552887, 0.4111022353172302, 0.14345194399356842, -0.18593204021453857], [0.9321426153182983, -0.2837049663066864, 0.21737278997898102, 0.1533292829990387]], [[-0.20814216136932373, 0.19735658168792725, -0.07529652863740921, -0.16190145909786224], [0.13160523772239685, 0.11023266613483429, 0.08887197077274323, 0.16227176785469055], [-0.15324899554252625, 0.20692269504070282, 0.10435707122087479, 0.12322226911783218], [0.3180317282676697, 0.024173086509108543, 0.2041560560464859, 0.19802625477313995]], [[-0.3470306992530823, 0.05684799328446388, 0.027531197294592857, 0.046719152480363846], [0.09935122728347778, -0.021978015080094337, -0.13022370636463165, -0.10875757783651352], [-0.02218509651720524, 0.25399649143218994, -0.17165575921535492, -0.03981230407953262], [0.24292854964733124, 0.1120319813489914, -0.07944649457931519, -0.25571829080581665]], [[-0.10832508653402328, 0.4469362199306488, -0.1886337399482727, 0.20304669439792633], [0.5067648887634277, -0.26773348450660706, -0.028069933876395226, 0.04919549450278282], [-0.3947591483592987, 0.32121381163597107, -0.034003421664237976, 0.17296309769153595], [0.35076963901519775, -0.04611129313707352, 0.11135976016521454, 0.006896070204675198]], [[-0.041027605533599854, 0.11477787792682648, 0.10729960352182388, 0.192697212100029], [0.23084308207035065, 0.055026110261678696, -0.09962082654237747, 0.007745723240077496], [-0.19608516991138458, 0.268451452255249, -0.18073242902755737, 0.1807454377412796], [0.376114159822464, 0.10216954350471497, -0.11378709971904755, -0.012295766733586788]], [[0.25989899039268494, 0.29808661341667175, -0.03355218097567558, 0.514420747756958], [-0.08339287340641022, -0.19312560558319092, 0.0284762941300869, -0.12161924690008163], [0.014229116030037403, -0.14264044165611267, -0.018081307411193848, 0.04122123122215271], [0.6279942989349365, -0.3717794120311737, 0.17298464477062225, -0.03465396165847778]], [[0.6420981884002686, 0.23176036775112152, -0.06198328360915184, 0.24859842658042908], [-0.3474760949611664, -0.1480533629655838, -0.033438004553318024, -0.11285380274057388], [0.10150345414876938, 0.17835311591625214, -0.12608075141906738, 0.45910224318504333], [0.06406291574239731, -0.007553450763225555, -0.20391182601451874, -0.24122707545757294]], [[1.6849780082702637, -0.053331613540649414, 0.12619704008102417, -0.23395821452140808], [-0.8155688643455505, -0.11625419557094574, 0.08093176037073135, 0.2101847231388092], [0.9999189972877502, -0.038117747753858566, -0.12407635152339935, 0.5906240940093994], [-0.4516451954841614, -0.4259444773197174, -0.5473914742469788, -0.9311915040016174]], [[1.0619920492172241, 0.7997846603393555, -0.3049863278865814, -1.81840980052948], [-0.427523136138916, -0.5505223274230957, 0.08995082229375839, 1.03084135055542], [0.37216344475746155, 0.28033584356307983, -0.319663941860199, -1.5135632753372192], [-0.4353179335594177, -0.005851792171597481, -0.9984279870986938, 0.3940444886684418]], [[-1.5007468461990356, -1.5412616729736328, -1.1381042003631592, 0.9052796959877014], [1.2809579372406006, 1.1579869985580444, 0.8825563788414001, -1.0958970785140991], [-1.79770028591156, -1.1378874778747559, 1.9323701858520508, 0.7380191087722778], [-0.9436372518539429, -1.3365532159805298, -2.7050771713256836, 1.3627989292144775]], [[-0.1288740038871765, 0.21700310707092285, 0.1602577567100525, 0.06087285280227661], [-0.12544500827789307, 0.19083178043365479, 0.1022806167602539, -0.22091788053512573], [0.1306954026222229, -0.22545063495635986, -0.2408081293106079, -0.1944170594215393], [-0.08964914083480835, -0.09909021854400635, 0.1226312518119812, -0.13122516870498657]]]}, "dense": {"bias:0": [0.017267636954784393], "kernel:0": [[-0.12572354078292847], [0.38892295956611633], [0.05449226498603821], [0.11579521000385284], [0.18549755215644836], [0.45399585366249084], [-0.42359378933906555], [0.05661651864647865], [0.08993926644325256], [-0.11692269146442413], [-0.09966874122619629], [-0.3505622446537018], [0.10588138550519943], [0.30044952034950256], [0.08946431428194046], [0.25913718342781067], [0.09799429029226303], [-0.09085765480995178], [0.1714712232351303], [0.3910389840602875], [-0.0986088290810585], [-0.17456315457820892], [-0.1773286759853363], [0.10442103445529938]]}, "lstm": {"lstm_cell": {}, "kernel:0": [[-1.096297264099121, -2.3177151679992676, 1.7219966650009155, 0.9296738505363464, 0.3596864640712738, -2.121288776397705, 0.490018755197525, 1.8801078796386719, 0.7923073172569275, -0.28880202770233154, -0.2605782449245453, -0.44919800758361816, 1.3696457147598267, -0.04962185025215149, -1.501278042793274, -0.2064765840768814, -0.012908197939395905, 0.17163583636283875, 0.6345497965812683, -0.018699489533901215, 1.0108168125152588, 0.18173955380916595, 3.751271963119507, -1.2950221300125122, -0.1849137246608734, 0.11180980503559113, -0.18279635906219482, 0.007562741637229919, 0.18905629217624664, -0.015329629182815552, -0.08182279765605927, 0.09998349845409393, -0.005156815052032471, -0.16218721866607666, 0.14177797734737396, -0.12248873710632324, -0.15698781609535217, -0.14370688796043396, 0.2177797108888626, -0.24246449768543243, 0.07203151285648346, 0.030907168984413147, 0.1770513504743576, -0.23845280706882477, 0.09007014334201813, -0.08035361766815186, -0.07674768567085266, 0.1421799510717392, 0.9454441666603088, -1.5664172172546387, 0.7169158458709717, 0.0012773852795362473, -0.031329166144132614, 0.8464747667312622, 1.1973474025726318, 0.3756920397281647, -0.1278163492679596, -0.4551903307437897, -0.14788676798343658, 0.5495216250419617, 0.8571967482566833, -0.39988023042678833, 1.676668643951416, -0.3749675154685974, 0.1300509124994278, 1.1121182441711426, 0.184464231133461, -0.6071313619613647, -0.2030879557132721, 0.4147564768791199, 2.364715814590454, -0.15980325639247894, 1.0551626682281494, 2.2719831466674805, 0.201420396566391, -0.9955167174339294, -0.5425916910171509, 2.0798799991607666, 0.17358995974063873, -1.1642147302627563, 0.11106894165277481, 0.06633419543504715, 0.14876006543636322, 0.2787622809410095, -0.3804607391357422, 0.24979805946350098, 0.6779819130897522, -0.26888951659202576, -0.19399046897888184, -0.38477474451065063, -1.075558066368103, -0.22703079879283905, -0.03866656869649887, -0.15070904791355133, -2.3605995178222656, -0.3729762136936188], [-1.442899465560913, -2.673787832260132, 2.099372625350952, 0.5691841244697571, -0.09444717317819595, -2.4148035049438477, 0.6438381671905518, 1.128462553024292, -0.29017823934555054, -0.0044805207289755344, 1.825711965560913, -0.17574578523635864, 0.4638926386833191, 0.3273545503616333, -0.8859543800354004, 0.08691133558750153, -0.14947932958602905, 0.3697316348552704, 1.6292057037353516, -0.07322938740253448, 0.9623119235038757, 0.06930621713399887, 3.8573920726776123, 0.49720218777656555, -0.18561598658561707, -0.20213547348976135, 0.2433619350194931, 0.0074570924043655396, -0.15862011909484863, 0.11194051802158356, 0.2121250182390213, -0.05289509892463684, 0.07462780177593231, 0.10496418178081512, -0.2119733691215515, 0.052655115723609924, 0.17843444645404816, -0.20935913920402527, 0.002539128065109253, 0.17828048765659332, 0.24238817393779755, -0.07157474756240845, 0.24330364167690277, 0.07788123190402985, 0.08090217411518097, -0.05716562271118164, 0.1653560847043991, 0.059324994683265686, 0.17510376870632172, -1.961189866065979, 0.9661529660224915, 0.4003465473651886, -0.687263011932373, 1.0781505107879639, 1.675743818283081, -0.23738929629325867, -0.22773155570030212, 0.12944243848323822, 0.9063777327537537, 1.0893704891204834, 0.7024587988853455, -0.20739799737930298, 0.9485639333724976, 0.11990001052618027, -0.960603654384613, -1.6147412061691284, -0.992552638053894, -0.7140729427337646, -0.04122631251811981, 0.46271777153015137, 0.002501625567674637, -0.12172044068574905, 0.87458336353302, 1.1072075366973877, -0.1326647400856018, -0.8396602869033813, -0.8283299207687378, 0.9681280255317688, 0.2214478701353073, -0.6847131252288818, 0.916254997253418, 0.12200982868671417, -1.0806912183761597, -0.13460659980773926, -0.7711766362190247, 0.06407324969768524, -0.29389137029647827, -0.6036922931671143, -0.42450234293937683, -0.5430202484130859, -1.3016223907470703, -0.15404972434043884, 0.025203626602888107, -0.13479045033454895, -2.870335102081299, -0.6612877249717712], [0.27813294529914856, -1.8788528442382812, -1.584803581237793, 0.7437837719917297, -0.08542484045028687, -1.6390525102615356, -0.5394862294197083, -1.7050217390060425, 1.740688443183899, 0.006796115543693304, -1.4029276371002197, 0.11256352812051773, 1.4381940364837646, 0.6600618958473206, 0.5092727541923523, 0.31251049041748047, -0.34291237592697144, 1.2524473667144775, 2.089721441268921, 0.07488443702459335, -0.5808156728744507, 2.7113823890686035, -2.370936870574951, -0.1264251470565796, 0.005468621850013733, 0.11599864065647125, 0.18742384016513824, -0.09490932524204254, -0.026223987340927124, -0.22247783839702606, 0.1761551946401596, -0.23835480213165283, -0.04033942520618439, -0.05419503152370453, -0.061918482184410095, -0.010336458683013916, 0.2273157387971878, -0.0734814703464508, 0.1283418983221054, 0.2400144785642624, -0.1951419711112976, -0.1351279765367508, 0.14713899791240692, -0.10621511936187744, 0.04571108520030975, 0.19813282787799835, -0.2421640306711197, 0.17665047943592072, 1.8728125095367432, -2.746222496032715, 0.4965991973876953, 0.4850289225578308, 0.03690008074045181, 1.4421809911727905, -0.18104685842990875, 0.10220455378293991, -0.2693663537502289, -0.10349714010953903, -0.9828498959541321, 3.447847604751587, -0.48528432846069336, 0.635616660118103, -0.6198555827140808, 0.07171063870191574, -0.9363448023796082, -0.005035181995481253, -1.1209325790405273, -0.8483945727348328, 0.7193445563316345, -1.8464593887329102, -3.605318784713745, -1.6305253505706787, 0.34928008913993835, 0.9992524981498718, 0.7029550671577454, -0.6820358633995056, -0.2192903459072113, 0.934256911277771, 0.6836086511611938, -2.1054651737213135, -0.6790831685066223, 0.31175708770751953, 0.30669495463371277, -0.5837645530700684, -1.478685736656189, -0.5074734091758728, -0.9882823824882507, -1.6346559524536133, 0.4765075147151947, -0.7733988761901855, -1.4102787971496582, 0.3954901397228241, -2.6875693798065186, -3.0793869495391846, 1.9754747152328491, -0.0603385791182518], [0.7135233879089355, 1.7183059453964233, -2.631000518798828, -1.1772032976150513, 0.01244442444294691, 1.576676368713379, -0.29631927609443665, -1.046053171157837, 0.1251623034477234, -0.2962873578071594, -0.5315519571304321, 0.2594536542892456, -0.196486696600914, -0.15405087172985077, 1.3123661279678345, 0.016743253916502, 0.6347601413726807, 1.2529816627502441, -1.227085828781128, 0.0673937126994133, -1.3197669982910156, -0.9073180556297302, -3.718437671661377, -0.2853828966617584, 0.20194508135318756, -0.16797661781311035, 0.029978856444358826, 0.16176928579807281, -0.026325196027755737, -0.23676462471485138, 0.06484754383563995, 0.13164012134075165, 0.07611642777919769, -0.19836421310901642, -0.08446721732616425, -0.029042452573776245, -0.21236728131771088, 0.13331611454486847, 0.17474673688411713, -0.011960864067077637, 0.23758883774280548, 0.0475144237279892, 0.17989562451839447, 0.1613238900899887, -0.16334401071071625, 0.09969057142734528, -0.033838704228401184, -0.16710850596427917, 0.4564823806285858, 2.5593371391296387, -0.917505145072937, -0.33027440309524536, 0.3938342332839966, -1.4171041250228882, -1.5343983173370361, -1.0704509019851685, 0.20316287875175476, -0.8124978542327881, -0.06192309036850929, -1.0115320682525635, 0.24944859743118286, 0.48487213253974915, 3.4913995265960693, 0.1252707839012146, -0.25437813997268677, -0.5582213997840881, 0.352994441986084, 0.7441278696060181, 0.35398322343826294, -0.05098423361778259, -1.0933799743652344, -0.03139989823102951, -0.41064032912254333, -0.5450906157493591, -0.6092894077301025, 0.5843826532363892, 0.5701286196708679, -0.43663153052330017, -0.5301393866539001, -1.2827826738357544, -0.1285199075937271, 0.11307015269994736, 0.11722194403409958, 0.00923096388578415, 0.18295197188854218, -0.23853306472301483, -0.9734157919883728, 0.5337235331535339, -0.7012228965759277, -0.9854719042778015, 1.310246229171753, 0.14905515313148499, 0.5275749564170837, 0.9085933566093445, 2.6233983039855957, 0.0030137549620121717]], "bias:0": [0.16573230922222137, 0.444113552570343, 0.23229673504829407, -0.45655474066734314, -0.21434655785560608, 0.2683948576450348, 0.3569542467594147, 0.49441951513290405, -1.3104456663131714, 0.14262628555297852, -0.7758744955062866, 0.794608473777771, -0.5197691917419434, 0.1535957306623459, 1.1091257333755493, -1.2897340059280396, 0.2940438687801361, 0.17877858877182007, 0.003136269049718976, 0.21131505072116852, -0.6123068332672119, -0.38725215196609497, 0.711093544960022, 0.656447172164917, 1.0, 1.0, 1.0, 1.0, 1.0, 1.0, 1.0, 1.0, 1.0, 1.0, 1.0, 1.0, 1.0, 1.0, 1.0, 1.0, 1.0, 1.0, 1.0, 1.0, 1.0, 1.0, 1.0, 1.0, -0.029229704290628433, 0.04557466879487038, -0.10004343092441559, -0.034251075237989426, 0.0428101047873497, 0.05885731801390648, 0.0757109746336937, -0.13416226208209991, -0.11870314925909042, -0.019721539691090584, -0.11638014763593674, 0.002011196920648217, -0.14560271799564362, 0.07081318646669388, -0.10250513255596161, 0.1261419653892517, -0.027162443846464157, -0.03158663585782051, 0.04774262756109238, -0.10777108371257782, -0.04991958662867546, -0.042316898703575134, 0.005224475637078285, 0.06553284823894501, -0.15494520962238312, 0.5129380822181702, 0.5828243494033813, -0.4558737277984619, -0.5066231489181519, 0.11543548852205276, 0.005976784974336624, -0.429925799369812, -0.21907059848308563, -0.025646353140473366, 0.04761451482772827, 0.41241493821144104, -0.6019138693809509, -0.29660388827323914, 0.5436001420021057, -0.593565821647644, 0.06852857023477554, 0.07709256559610367, -0.04350890964269638, -0.038444794714450836, -0.3586598038673401, -0.014850758016109467, 0.11607153713703156, 0.15493065118789673]}, "input_size": 120, "conv1d_stride": 12, "conv1d_1_stride": 12}