{"conv1d": {"bias:0": [0.013251439668238163, -0.027663711458444595, -0.017736131325364113, 0.02596927434206009], "kernel:0": [[[-0.17332340776920319, -1.7079086303710938, -0.37569618225097656, -0.37942633032798767]], [[0.20283715426921844, -0.6470556855201721, 0.2405974268913269, -0.5854771137237549]], [[-0.18637272715568542, -0.02907588891685009, 0.42945578694343567, -0.274759441614151]], [[-0.25336432456970215, 0.09124095737934113, 0.4186965227127075, -0.11616925150156021]], [[-0.21884103119373322, 0.26586025953292847, 0.0253561083227396, -0.41696590185165405]], [[-0.1373634785413742, -0.2521248161792755, -0.07977265119552612, 0.2719848155975342]], [[-0.07046619802713394, -0.37870103120803833, 0.002579321386292577, 0.3693096935749054]], [[0.022226285189390182, -0.4334489405155182, -0.3360898792743683, 0.5358744859695435]], [[1.2005915641784668, 0.37052008509635925, 0.18196719884872437, 0.04000711441040039]], [[1.638122797012329, 0.841331422328949, 0.9916996955871582, -0.5558018684387207]], [[1.0612890720367432, 0.39355969429016113, 0.49686944484710693, -0.6468760967254639]], [[-2.6353390216827393, -1.960938572883606, -2.3082234859466553, 1.7883992195129395]]]}, "conv1d_1": {"bias:0": [-0.04282170161604881, 0.030195655301213264, 0.017778092995285988, 0.044335901737213135], "kernel:0": [[[-0.1618565320968628, -0.05801749229431152, 0.0640529990196228, 0.040322721004486084], [-0.06046772003173828, -0.22737693786621094, 0.20046252012252808, 0.10342419147491455], [-0.05883079767227173, 0.19206279516220093, -0.054632604122161865, 0.05122476816177368], [0.14185184240341187, 0.0947577953338623, -0.10348176956176758, 0.016358017921447754]], [[0.29179707169532776, 0.4993487596511841, 0.12474609911441803, -0.18925398588180542], [1.1985536813735962, 1.3505438566207886, 0.7344391942024231, 0.24248169362545013], [0.6721180081367493, 0.2896026074886322, 0.10173513740301132, -0.9157344698905945], [0.527765691280365, -0.072734035551548, -0.30053243041038513, -0.5176604986190796]], [[0.3620397448539734, -0.041333772242069244, 0.28280508518218994, -0.34534314274787903], [-0.430452436208725, 0.2632324695587158, -0.1268734335899353, 0.5166066884994507], [0.20124390721321106, 0.26253581047058105, 0.06305145472288132, -0.2532477378845215], [0.11068391054868698, -0.16256703436374664, -0.3820360600948334, 0.23489825427532196]], [[0.30631574988365173, 0.2790379524230957, 0.45342952013015747, -0.10054056346416473], [0.0465628057718277, 0.8096160292625427, 0.11547496914863586, -0.15274617075920105], [0.08395220339298248, -0.06444881111383438, 0.030969301238656044, -0.3362411856651306], [0.24572418630123138, -0.37208864092826843, 0.09203596413135529, 0.37952500581741333]], [[0.09581337869167328, 0.09313198924064636, 0.7099788784980774, 0.1686859428882599], [0.06022220477461815, 0.47913265228271484, -0.24208799004554749, -0.2355295568704605], [0.23579102754592896, 0.18075919151306152, 0.2033502161502838, 0.11541774123907089], [0.22447963058948517, -0.005845540203154087, 0.06780778616666794, 0.6734071969985962]], [[0.18583662807941437, 0.42013248801231384, 0.5716182589530945, 0.01486933883279562], [0.40016886591911316, 0.24494750797748566, -0.3116346597671509, -0.8148757219314575], [0.11816858500242233, -0.06528770923614502, 0.297047883272171, 0.16701574623584747], [-0.042398471385240555, -0.07153330743312836, 0.06624363362789154, 0.5412188172340393]], [[0.11261177062988281, 0.6380375027656555, 0.14578337967395782, -0.27093392610549927], [0.5811654925346375, 0.05329281836748123, 0.0934978723526001, -0.36828917264938354], [0.07995167374610901, -0.09761649370193481, 0.15819969773292542, -0.12783029675483704], [-0.5589079856872559, 0.1282372623682022, -0.13905397057533264, 0.1510937213897705]], [[0.004839842673391104, 0.27392977476119995, 0.49245792627334595, -0.36635029315948486], [0.989469587802887, 0.26744189858436584, 0.0815052017569542, -0.09844966977834702], [-0.33312779664993286, 0.5133737921714783, 0.04668145254254341, -0.20998920500278473], [-0.44476208090782166, 0.3114122748374939, -0.2757921814918518, 0.19354982674121857]], [[0.4189784526824951, 0.3280426859855652, 0.5181769728660583, -0.4314170777797699], [0.3493089973926544, 0.30795958638191223, -0.02870847098529339, -0.05904093384742737], [-0.04884681850671768, 0.5144940614700317, 0.05884866043925285, -0.40250301361083984], [-0.33823657035827637, 0.10976722836494446, -0.2283163219690323, 0.2178187519311905]], [[-0.1084446832537651, 0.31943079829216003, 0.27652159333229065, -0.12397558242082596], [0.45445775985717773, 0.31434914469718933, 0.2735392153263092, -0.33174434304237366], [0.22093982994556427, 0.5665101408958435, 0.8767973780632019, -0.751447856426239], [-0.10470156371593475, 0.19663885235786438, -0.580314576625824, 0.328365683555603]], [[-1.1377688646316528, -2.448348045349121, -1.9751241207122803, 1.6868308782577515], [-0.8635867238044739, -0.4046192169189453, -1.6375482082366943, 1.4160735607147217], [-1.0126618146896362, -1.481137990951538, -2.1013095378875732, 1.954920768737793], [0.7273521423339844, 0.7988390922546387, 1.0759897232055664, -1.2357641458511353]], [[-0.2227964997291565, 0.042738914489746094, -0.15625864267349243, -0.182641863822937], [-0.012914538383483887, -0.20203983783721924, 0.20602232217788696, 0.18256419897079468], [0.082713782787323, 0.12676072120666504, -0.1410643458366394, -0.07854419946670532], [0.12291812896728516, 0.13573163747787476, -0.07960832118988037, 0.16507083177566528]]]}, "dense": {"bias:0": [-0.07730649411678314], "kernel:0": [[0.4879581928253174], [-0.018172025680541992], [-0.4383598566055298], [-0.2831466495990753], [0.22908221185207367], [0.05331098660826683], [0.20391502976417542], [0.14176921546459198], [0.27537429332733154], [0.18404743075370789], [-0.12490993738174438], [-0.1857701539993286], [-0.0708075538277626], [0.10624416917562485], [-0.2975950241088867], [-0.17089465260505676], [0.48158636689186096], [-0.31879934668540955], [0.013516402803361416], [0.24818827211856842], [0.015912633389234543], [0.3364076316356659], [-0.09754650294780731], [0.38613006472587585]]}, "lstm": {"lstm_cell": {}, "kernel:0": [[0.9753069877624512, 1.7491447925567627, -0.30143383145332336, -0.2479609102010727, 0.32947683334350586, 0.17706294357776642, -1.3857587575912476, -0.21390895545482635, -0.9021357893943787, -1.1864984035491943, 0.011593452654778957, 1.0483511686325073, -0.6218242049217224, -1.5562360286712646, 0.23263545334339142, -0.5297573208808899, -0.4148270785808563, 0.4530096650123596, -1.776160717010498, 0.8799041509628296, -1.6881043910980225, 0.6453827619552612, -0.11205538362264633, 1.3524529933929443, 0.06974203884601593, -0.1421995609998703, 0.05307625234127045, 0.2277785688638687, -0.18468567728996277, -0.21225759387016296, -0.10054981708526611, -0.1701940894126892, 0.1612492948770523, 0.039626941084861755, 0.0956253856420517, -0.23602107167243958, -0.09446939826011658, -0.11156441271305084, -0.04643484950065613, -0.046361908316612244, 0.10412748157978058, -0.07758614420890808, 0.23157523572444916, 0.12460534274578094, -0.190496563911438, 0.04737292230129242, 0.23632650077342987, -0.2219851166009903, -0.5048505067825317, 0.379700243473053, 0.148778036236763, 0.34836265444755554, -0.784241259098053, -0.25161829590797424, -0.1601235568523407, -0.3157193660736084, -0.8436728715896606, -0.07228219509124756, 0.18485766649246216, -0.34942638874053955, 0.2025481015443802, 0.11712410300970078, 0.13811641931533813, 0.03492148220539093, -0.5271435976028442, 0.11485260725021362, -0.39409339427948, -0.2261802852153778, -0.520977795124054, -0.3673994541168213, -0.08923307061195374, -0.5844900608062744, 0.7911546230316162, -0.1452997475862503, -1.2743839025497437, -0.0008449208689853549, -4.192337512969971, -0.3230862021446228, 0.6649197340011597, 1.633532166481018, -0.21299301087856293, 0.4536600410938263, -0.022394327446818352, 0.12336748093366623, -0.3196887671947479, -0.7519334554672241, 0.48429423570632935, 1.5047370195388794, 0.06083220615983009, 1.1375523805618286, 0.9517374634742737, -1.0152604579925537, 0.6069911122322083, -0.3377739489078522, -0.19977574050426483, -0.7628132700920105], [0.45246562361717224, -1.1320470571517944, 0.6156944632530212, 0.7211863398551941, -4.140728950500488, 0.38154885172843933, -0.6902027130126953, -0.6998643279075623, -1.043953776359558, -1.6550580263137817, 1.4265717267990112, -0.9995473623275757, -1.0076349973678589, -1.0011208057403564, -0.044959280639886856, 0.9404860138893127, -1.8268927335739136, 1.7744048833847046, -1.24991774559021, -1.0565879344940186, 0.7487750053405762, -0.43900707364082336, 0.19204296171665192, 0.41643357276916504, 0.1789795309305191, -0.04939649999141693, 0.10101835429668427, 0.08112670481204987, -0.2380804419517517, -0.21485303342342377, 0.12131114304065704, -0.09415356814861298, -0.15659379959106445, 0.1146470159292221, -0.07541370391845703, -0.20385944843292236, 0.1385556012392044, 0.03248889744281769, 0.10392294824123383, -0.23840421438217163, -0.11899341642856598, 0.06645666062831879, 0.12227912247180939, 0.097114697098732, 0.08771432936191559, -0.2447744607925415, 0.13221462070941925, 0.007465377449989319, -0.6171013712882996, -0.1666102260351181, -0.01545829325914383, 0.2720746099948883, 1.2683007717132568, -0.003753338009119034, -0.5949220657348633, 0.20646986365318298, -0.7006731629371643, -0.718260645866394, 0.10502517968416214, 1.1513153314590454, 0.3627104163169861, 0.07485167682170868, 1.02772855758667, -0.33392003178596497, -0.15626168251037598, -0.1849023699760437, -0.715502142906189, -0.6497122645378113, 0.38741549849510193, -1.557425856590271, 0.5625788569450378, -0.22736434638500214, 0.14032913744449615, -2.1526999473571777, -0.45233607292175293, 0.5368627309799194, -0.9002659916877747, -2.134282350540161, -0.8019236326217651, 0.42506441473960876, -0.16234949231147766, 0.03458365052938461, -1.6350462436676025, -0.7544183135032654, -0.8706239461898804, -0.43136802315711975, -0.34858137369155884, 0.15369795262813568, -0.19264550507068634, 1.6727221012115479, -0.2250940203666687, 2.5349857807159424, -0.5244833827018738, 0.15659457445144653, -1.3976030349731445, -0.9786974787712097], [1.1619980335235596, -3.760288953781128, 2.5364480018615723, 0.4184653162956238, 2.349559783935547, 0.6283678412437439, 0.2207709103822708, 0.08872198313474655, -0.480480432510376, 0.4605032205581665, -0.749099612236023, -0.6641404032707214, 0.23151907324790955, -0.9690276384353638, 1.0791678428649902, -0.7538318634033203, -1.1999069452285767, 1.4913511276245117, -1.8431932926177979, 0.994297444820404, 0.2755632996559143, 0.03560443967580795, 0.20722465217113495, -0.41198524832725525, 0.11022700369358063, 0.1429637223482132, -0.22949114441871643, -0.23384355008602142, 0.16901059448719025, -0.07989184558391571, 0.19375307857990265, 0.004391878843307495, -0.08296458423137665, -0.056206926703453064, 0.2268202155828476, 0.04014630615711212, 0.020922765135765076, -0.16318410634994507, -0.213401198387146, -0.07164214551448822, 0.18674124777317047, -0.020824000239372253, 0.038524284958839417, 0.09983967244625092, 0.20191098749637604, 0.14878059923648834, 0.0411086231470108, 0.08865191042423248, -1.1584551334381104, 1.0074055194854736, 0.9138299822807312, 0.06894700974225998, -1.2637090682983398, -0.8109254240989685, -0.4309350848197937, 0.5852117538452148, -0.04298768192529678, -0.09673158079385757, -0.04616749286651611, -0.9965575933456421, 0.10651470720767975, -0.5831068158149719, 0.5867272615432739, 0.4578205347061157, -0.6964004635810852, 0.5132590532302856, -0.8584729433059692, -0.7296988368034363, -0.07799014449119568, -0.5043518543243408, 0.18051494657993317, -0.28809067606925964, -0.4013654291629791, -2.8459596633911133, -0.6386625170707703, 0.7398186922073364, 2.670121431350708, -1.3289737701416016, 0.07464649528265, -1.1726510524749756, -0.27708181738853455, 0.45886269211769104, -0.12458409368991852, 0.4461562931537628, 0.19017142057418823, 0.5426634550094604, 1.5486745834350586, -0.869760274887085, 0.9142866134643555, 1.1490792036056519, 0.1813942939043045, 1.5752432346343994, -0.4756678342819214, -1.4207768440246582, -1.104849100112915, -0.697974443435669], [-1.8248422145843506, 0.16222308576107025, -1.4825429916381836, -0.781840980052948, 0.5916024446487427, -1.3804562091827393, 0.5018259882926941, 1.709299087524414, 0.8616610169410706, 1.28506338596344, -0.46073785424232483, -0.1481466144323349, 0.5755926370620728, 0.5499128699302673, -1.9226422309875488, 4.346519470214844, 2.021132230758667, -0.4281056225299835, -2.3486642837524414, -1.5977286100387573, -0.024952702224254608, -2.2654802799224854, 0.30477094650268555, -0.5669350624084473, -0.20499855279922485, -0.06878899037837982, -0.16858917474746704, 0.008069530129432678, -0.13916485011577606, 0.0426323264837265, -0.07622691988945007, 0.11246554553508759, 0.03597073256969452, 0.028166845440864563, -0.020790129899978638, 0.04273529350757599, 0.0436386913061142, -0.19307944178581238, 0.21591176092624664, 0.23261626064777374, -0.159907728433609, 0.22011251747608185, -0.01251286268234253, 0.15294821560382843, -0.22149263322353363, 0.1915828138589859, -0.14061574637889862, 0.13842986524105072, 0.8339573740959167, -0.6553670167922974, -0.8295829892158508, -0.09334570169448853, 0.26340338587760925, 0.42454642057418823, 0.1422317922115326, 0.9194227457046509, 0.7285277247428894, 0.5354759693145752, -0.29824161529541016, -0.655493438243866, -0.5257365703582764, 0.4558568596839905, 0.1797388792037964, -0.63068026304245, 0.8586479425430298, -0.7095145583152771, -1.3925206661224365, 0.09207388013601303, -0.19688361883163452, 0.008464524522423744, 0.20180991291999817, 0.6043458580970764, -1.2135928869247437, 2.6960887908935547, 1.5055030584335327, -0.8426043391227722, -1.29303777217865, 0.42763543128967285, -0.08299434930086136, -0.5292918086051941, 0.8597090840339661, 1.1027108430862427, 0.8525247573852539, 0.8746791481971741, 0.875407338142395, -0.03213083744049072, -1.4049111604690552, -0.6533637046813965, -0.5621151924133301, -0.14633436501026154, 1.4920220375061035, -1.7565836906433105, 0.20352153480052948, 2.2107110023498535, -0.06296974420547485, 1.4004017114639282]], "bias:0": [0.016826510429382324, -0.2871944010257721, -0.20856131613254547, -0.825796902179718, -1.7527754306793213, -0.25509878993034363, -0.5942453742027283, 0.06866012513637543, -0.5035834312438965, -0.8458331227302551, -0.5549728870391846, -0.14091922342777252, -0.8477073311805725, -0.6150223612785339, -0.27636435627937317, -0.8610442876815796, -0.18455709517002106, -1.6774471998214722, -0.2106376737356186, -0.5078527927398682, -0.6069819331169128, 0.3879143297672272, -0.6018065810203552, -0.13438332080841064, 1.0, 1.0, 1.0, 1.0, 1.0, 1.0, 1.0, 1.0, 1.0, 1.0, 1.0, 1.0, 1.0, 1.0, 1.0, 1.0, 1.0, 1.0, 1.0, 1.0, 1.0, 1.0, 1.0, 1.0, 0.41049280762672424, -0.19094674289226532, -0.130129873752594, 0.0799882635474205, -0.15072478353977203, -0.059522561728954315, 0.09895603358745575, -0.03325340151786804, 0.017234357073903084, 0.16193416714668274, 0.06794554740190506, 0.06027821823954582, 0.039149943739175797, -0.021969739347696304, 0.02705908566713333, 0.1351901739835739, -0.10016334801912308, 0.0010961613152176142, 0.012406839989125729, -0.038821421563625336, -0.08116966485977173, -0.19237302243709564, -0.1054503470659256, -0.09678899496793747, 0.13779723644256592, -0.09606324136257172, 0.4138181209564209, -0.8364361524581909, -1.1711126565933228, -0.37458252906799316, -0.6281635761260986, -0.473837673664093, -0.5204910635948181, -0.6836840510368347, -0.47148439288139343, -0.2904376685619354, -0.8886045217514038, -0.5601035356521606, -0.2821795344352722, -0.6085683703422546, 0.16487731039524078, -1.7510852813720703, -0.07818038016557693, -0.49094560742378235, -0.3144591152667999, 0.09327276796102524, -0.683356523513794, -0.09204515069723129]}, "input_size": 120, "conv1d_stride": 12, "conv1d_1_stride": 12}