{"conv1d": {"bias:0": [-0.005168178118765354, -0.0004229459445923567, 0.0010249953484162688, 0.0033285527024418116], "kernel:0": [[[-1.1859575510025024, 1.4252985715866089, 1.9724907875061035, -1.2914663553237915]], [[-0.8867722153663635, 1.2726819515228271, 1.526499629020691, -1.1501827239990234]], [[-0.7461689710617065, 1.3905794620513916, 1.2404900789260864, -1.1283401250839233]], [[-0.6110638976097107, 0.6728957295417786, 0.9657400250434875, -1.3638886213302612]], [[-0.48820173740386963, -0.046490706503391266, 1.015961766242981, -1.9191138744354248]], [[-0.5368054509162903, -0.011846891604363918, 0.28253859281539917, -1.762805700302124]], [[0.28414347767829895, -0.9547135233879089, 0.3379421830177307, -1.213287591934204]], [[0.07238886505365372, -1.6137229204177856, -0.07247550040483475, -1.3755028247833252]], [[-0.19340164959430695, -1.6578104496002197, 0.022649243474006653, -1.0784350633621216]], [[-0.2574392259120941, -1.6612831354141235, 0.05817593261599541, -0.4923188090324402]], [[-0.25283077359199524, -1.913225531578064, -0.06509219110012054, -0.6386017799377441]], [[-0.5046414732933044, -1.4141292572021484, 0.08256378769874573, 0.18414658308029175]]]}, "conv1d_1": {"bias:0": [-0.17305907607078552, 0.19198118150234222, -0.15538892149925232, 0.07332640141248703], "kernel:0": [[[0.18880081176757812, -0.07042229175567627, -0.231647789478302, 0.04252791404724121], [-0.10008740425109863, 0.20980894565582275, 0.11989271640777588, 0.1273897886276245], [0.21928149461746216, -0.20035165548324585, -0.07032126188278198, 0.21094352006912231], [-0.10121738910675049, 0.1096232533454895, 0.0332755446434021, 0.06414783000946045]], [[-0.20219287276268005, -0.2376764416694641, 0.07119244337081909, 0.025516755878925323], [-0.024688413366675377, -0.10943704098463058, 0.055424559861421585, -0.23190632462501526], [-0.11839612573385239, 0.12766620516777039, 0.019386960193514824, -0.1604061871767044], [-0.07449887692928314, 0.22292155027389526, -0.06702028959989548, -0.07937586307525635]], [[-0.017804330214858055, 0.20321540534496307, 0.025250863283872604, 0.27150654792785645], [-0.09383152425289154, 0.1778835654258728, -0.16419155895709991, -0.07844184339046478], [0.061473969370126724, -0.1128922700881958, -0.0003162601205985993, -0.12369220703840256], [0.021426444873213768, -0.14843133091926575, -0.02610541135072708, -0.012880104593932629]], [[-0.17652954161167145, -0.014770429581403732, -0.14313378930091858, 0.24688082933425903], [-0.10868963599205017, -0.04973728582262993, -0.05078762769699097, 0.030364036560058594], [-0.0013681752607226372, -0.028525622561573982, -0.06608253717422485, -0.04222509637475014], [-0.11069938540458679, -0.16529713571071625, 0.15682652592658997, 0.0037940379697829485]], [[0.34412163496017456, -0.13230448961257935, -0.1780587136745453, -0.04564059153199196], [0.3027523458003998, 0.11109334230422974, -0.2536410987377167, -0.0358913317322731], [-0.05966555327177048, -0.09256795793771744, 0.32726913690567017, 0.12905678153038025], [0.3235161304473877, 0.017331445589661598, -0.3431268632411957, 0.21011556684970856]], [[-0.08714289963245392, 0.3201952874660492, 0.17972616851329803, 0.20169687271118164], [-0.18234370648860931, 0.7689774036407471, -0.21185557544231415, 0.06628132611513138], [-0.10908596217632294, -0.5382606387138367, 0.04656632989645004, -0.24421413242816925], [0.04086394980549812, 0.708426296710968, -0.2073592096567154, -0.012634306214749813]], [[-0.8524773120880127, 0.44959139823913574, 0.29572200775146484, 0.04119269922375679], [-1.3691534996032715, -0.1936480700969696, -0.018853114917874336, 0.15181919932365417], [0.9995161294937134, -0.6481003761291504, -0.25482097268104553, -0.23664790391921997], [-1.3769258260726929, 0.9318423271179199, 0.07753360271453857, 0.0057386308908462524]], [[-0.6577193737030029, -1.4363864660263062, -0.27556878328323364, 0.41045185923576355], [0.23024798929691315, -2.737673044204712, -1.3030140399932861, 0.3628610372543335], [1.5308632850646973, 1.5809203386306763, -0.020574059337377548, -0.3176504075527191], [-1.4406629800796509, -2.122065305709839, -0.32996973395347595, 0.16973508894443512]], [[1.5411405563354492, -1.3997722864151, -1.5569952726364136, 0.8205304145812988], [2.237971067428589, 0.7689222693443298, -1.415704607963562, 1.0310964584350586], [-1.5415111780166626, 1.8266818523406982, 1.5191420316696167, -0.775981605052948], [1.6894800662994385, -1.7624261379241943, -1.7284332513809204, 1.3316915035247803]], [[0.7766072154045105, 1.1322250366210938, 1.44092857837677, 0.1695670634508133], [-1.464720606803894, 1.006096363067627, 3.7505133152008057, -2.0068304538726807], [-1.3852752447128296, -1.8974980115890503, -1.3104361295700073, -0.5795149803161621], [0.8708786964416504, 2.116394519805908, 2.416790723800659, 0.4165433943271637]], [[-0.501807689666748, 0.728009819984436, 0.3668147325515747, -2.071368932723999], [0.11210747063159943, -0.03303597867488861, -0.0896022617816925, 0.9678928852081299], [0.6320614814758301, -0.11130524426698685, -0.07085683196783066, 2.2005608081817627], [-0.09537238627672195, 0.04160153865814209, -0.3855358362197876, -1.5175845623016357]], [[0.06217551231384277, 0.21089118719100952, 0.2318752408027649, -0.05042552947998047], [-0.1097293496131897, -0.020380735397338867, -0.12571114301681519, -0.17526108026504517], [0.03663843870162964, 0.21416950225830078, -0.2449347972869873, -0.21508121490478516], [-0.036299705505371094, 0.046589016914367676, 0.178855299949646, 0.1937474012374878]]]}, "dense": {"bias:0": [-0.14943958818912506], "kernel:0": [[0.21374286711215973], [0.19089020788669586], [-0.2127794474363327], [0.17384731769561768], [0.18421442806720734], [0.2677628993988037], [-0.1964373141527176], [0.22840669751167297], [0.1762494146823883], [-0.2672998309135437], [-0.14578600227832794], [0.09477492421865463], [0.12793268263339996], [-0.5022957921028137], [-0.28707149624824524], [-0.17261911928653717], [0.11928101629018784], [0.3346502184867859], [-0.14657698571681976], [-0.1629369854927063], [0.1743747740983963], [0.2540404796600342], [0.13221211731433868], [0.22346992790699005]]}, "lstm": {"lstm_cell": {}, "kernel:0": [[0.4034990668296814, -0.691021203994751, -2.6815500259399414, 0.25681161880493164, -0.13595134019851685, 0.2426127791404724, 0.2898622453212738, 0.5215045809745789, 0.18837977945804596, 0.10543572902679443, 0.2628514766693115, 0.6717645525932312, -1.039851188659668, -0.12223925441503525, 0.39750733971595764, -1.770635962486267, -0.3360559642314911, -0.26982271671295166, -1.7056803703308105, 0.3435687720775604, 1.7697350978851318, 1.03424870967865, 1.1274261474609375, 0.675464391708374, -0.14873561263084412, -0.07867828011512756, -0.22684034705162048, 0.10185413062572479, 0.18047745525836945, 0.0880323201417923, -0.03456643223762512, -0.14541229605674744, -0.19105440378189087, -0.14024128019809723, 0.0771728903055191, -0.11024363338947296, 0.01193179190158844, -0.10969629883766174, -0.15500590205192566, 0.14520777761936188, 0.217414990067482, -0.060935020446777344, -0.23879392445087433, -0.10507507622241974, -0.14310728013515472, -0.12559960782527924, -0.009749308228492737, 0.16303034126758575, 0.37556153535842896, -0.13785740733146667, -2.5142383575439453, -3.0261590480804443, 0.23959021270275116, 0.7350619435310364, -0.13729605078697205, 0.37615060806274414, 1.4205093383789062, 0.09662845730781555, 0.11050023138523102, -0.00064511236269027, -0.27601003646850586, -0.581340491771698, -0.30514955520629883, 1.496747374534607, -0.8302786946296692, -0.19501323997974396, 0.2703064978122711, 0.2792086899280548, 0.4375488758087158, -0.34592270851135254, 1.0518665313720703, 2.383009672164917, -0.330727219581604, -0.46236053109169006, 2.3606886863708496, 0.09069494158029556, -0.24323423206806183, 1.0887444019317627, -0.2862665355205536, -0.4228854477405548, -0.31441381573677063, -0.5076999664306641, -1.4434906244277954, 0.7090778946876526, -0.6161870360374451, 0.4017101228237152, -0.6845880746841431, 0.046623118221759796, 0.5444023609161377, 0.03095872700214386, 2.117541790008545, -0.792637288570404, 0.01929999142885208, 0.2997814118862152, -0.9452157616615295, -0.8962933421134949], [-1.4677302837371826, 1.6386823654174805, 2.3476057052612305, -0.9008141160011292, -0.27258771657943726, -0.8420972228050232, -0.2681031823158264, -0.9165277481079102, 0.1340305656194687, -0.5779786705970764, -3.8344027996063232, -0.08910287171602249, 0.22398565709590912, 0.02825145609676838, 0.78371661901474, 1.5543028116226196, 2.3674075603485107, 0.044275470077991486, -1.5459694862365723, 1.1050026416778564, 0.9384288191795349, 0.1870243400335312, -1.9484485387802124, -0.603198230266571, 0.2280222624540329, 0.2303614765405655, -0.08314375579357147, -0.1732000708580017, 0.2028190940618515, -0.10127036273479462, 0.00481744110584259, 0.03601296246051788, 0.0640731006860733, 0.0018484890460968018, -0.11769494414329529, -0.03021840751171112, 0.025546595454216003, -0.0801771879196167, -0.010812312364578247, -0.05749371647834778, 0.11572538316249847, 0.12826551496982574, -0.15699827671051025, 0.019124314188957214, -0.22634296119213104, 0.04897741973400116, 0.1972348541021347, 0.004759922623634338, 3.631092071533203, 0.1974000483751297, -2.1395721435546875, -4.465213298797607, 0.2638016641139984, -0.006913724821060896, 0.28449660539627075, -0.6433504223823547, -0.466251403093338, -0.06920160353183746, 0.5128839015960693, 0.18638606369495392, 0.6186274290084839, 0.08265507966279984, 0.170458123087883, -0.6424263715744019, -1.2701060771942139, 0.053831323981285095, 0.13785392045974731, -0.19672685861587524, 1.1609538793563843, 0.02832934632897377, -1.013275146484375, -2.487532138824463, 0.8022331595420837, 0.13283182680606842, -2.0829601287841797, 1.7822952270507812, 1.1173933744430542, 0.6460959315299988, 0.3139440417289734, 0.6783201098442078, 0.15403008460998535, 0.290157675743103, 0.5273005962371826, 0.7606378793716431, -0.18389515578746796, -0.20655696094036102, -0.1786528080701828, -0.6988072395324707, -0.11765643209218979, 0.43966174125671387, 0.045634761452674866, 0.13804049789905548, 1.4932712316513062, -0.3473508358001709, 1.604582667350769, 0.18462127447128296], [-1.9244338274002075, 1.2729946374893188, 2.9316580295562744, 0.126408189535141, -0.30095338821411133, 0.05150080472230911, 1.0791020393371582, -0.5693195462226868, 0.3988262414932251, -0.42917123436927795, -1.379401445388794, 0.1014137789607048, 2.2490427494049072, -0.21321652829647064, -0.18578678369522095, 2.029057025909424, 0.7232481837272644, -0.6569815874099731, 0.3816312253475189, -0.41120219230651855, -0.10018527507781982, 0.751380443572998, -0.47487786412239075, -0.8158039450645447, -0.2375478297472, -0.05833917856216431, 0.13159359991550446, -0.09026393294334412, 0.2388046532869339, 0.001797795295715332, -0.021527603268623352, 0.18341387808322906, -0.01728534698486328, 0.218039408326149, 0.2101753205060959, -0.1990647166967392, -0.0996539443731308, 0.2316398173570633, 0.11134721338748932, -0.06075684726238251, -0.20228345692157745, -0.173586905002594, -0.11564981937408447, -0.2234135866165161, -0.007485240697860718, -0.23818205296993256, -0.16853275895118713, -0.15463879704475403, 2.8354241847991943, 0.31503385305404663, 1.4515838623046875, -0.1702396720647812, 0.11334699392318726, 0.9258139133453369, 0.027649588882923126, -0.3761593699455261, -0.9134020209312439, 0.12722766399383545, -0.10455256700515747, 0.15873396396636963, 0.8720306754112244, -0.8543028235435486, -0.38668742775917053, -0.8799781799316406, -0.3127093017101288, -0.10592993348836899, 0.5098696351051331, 0.4162955582141876, 0.37320083379745483, -0.1479755938053131, -0.04756394401192665, -2.8644156455993652, 0.8589951395988464, -0.15849900245666504, -3.0074880123138428, -0.08127619326114655, 1.4070518016815186, 0.42263495922088623, -0.03219754621386528, 0.8891708254814148, -0.7847203612327576, -0.6674608588218689, 2.612231969833374, 0.08721789717674255, -0.5187278389930725, 0.5496312379837036, -0.13132493197917938, -0.694084882736206, 0.07565157860517502, 0.13196730613708496, 0.054544106125831604, -0.044167496263980865, -0.1721608191728592, -0.07318273186683655, 0.6646154522895813, -0.34919190406799316], [0.27452796697616577, 0.3904561400413513, -2.888516902923584, 0.054287318140268326, -0.009799248538911343, 0.08525606244802475, -0.20607972145080566, 1.9774929285049438, -0.35605210065841675, 0.37005919218063354, -0.29635652899742126, -0.26142725348472595, -0.6852229237556458, 0.19103537499904633, -0.056206025183200836, -1.8856626749038696, -1.806935429573059, -0.010087327100336552, 0.29090598225593567, 0.14383180439472198, -0.25613728165626526, -0.2564481794834137, 3.6839439868927, 0.7756944894790649, -0.22913315892219543, 0.04582573473453522, 0.05411286652088165, -0.04545944929122925, -0.10609102249145508, 0.2415453940629959, -0.07437136769294739, -0.2395414412021637, -0.17742936313152313, -0.16232118010520935, -0.058778584003448486, -0.02921368181705475, -0.03101685643196106, 0.2289285808801651, -0.03814467787742615, -0.19543549418449402, -0.10763470828533173, -0.09487061202526093, 0.05138988792896271, -0.13785701990127563, -0.12678134441375732, 0.11624215543270111, -0.09825800359249115, 0.1727224737405777, 0.03406791388988495, -0.32616397738456726, -7.0081257820129395, -0.7797672152519226, -0.1127263531088829, -0.2962154448032379, -0.7172753214836121, 1.4307805299758911, 1.6986397504806519, -0.16951844096183777, -0.17533788084983826, -0.37274616956710815, -0.33279433846473694, -2.6826605796813965, 0.12528963387012482, 1.222269058227539, -0.27078312635421753, 0.1979367882013321, -0.15450042486190796, 0.05667800083756447, -0.14590083062648773, 0.36025235056877136, -0.6384323239326477, 2.6490890979766846, -0.053922973573207855, 0.17828327417373657, 3.0039398670196533, 0.18618586659431458, -0.004842020105570555, -0.6730049252510071, -0.3968791365623474, 0.04809809476137161, -0.01835738494992256, -0.0828164592385292, -0.9175841212272644, -1.9314849376678467, -0.05036742985248566, -0.15580162405967712, 0.033859334886074066, 0.5695791840553284, -0.757949709892273, -0.28119876980781555, -0.6782124042510986, 0.17035464942455292, 0.3234148621559143, 0.3916977643966675, -2.615246295928955, 0.24791397154331207]], "bias:0": [1.0875033140182495, 0.26878032088279724, 0.9298718571662903, 1.2772302627563477, 0.43683841824531555, 0.9567025899887085, 0.5789063572883606, -0.7190605998039246, 2.3722400665283203, -2.4212989807128906, -1.0933581590652466, -2.557708740234375, 0.7077736854553223, 0.0029009287245571613, 2.5932717323303223, -0.4524924159049988, -2.867182731628418, -2.3019306659698486, 1.0692577362060547, -1.0022618770599365, -0.7089672684669495, -5.860114574432373, -0.14666742086410522, 0.0936131477355957, 1.0, 1.0, 1.0, 1.0, 1.0, 1.0, 1.0, 1.0, 1.0, 1.0, 1.0, 1.0, 1.0, 1.0, 1.0, 1.0, 1.0, 1.0, 1.0, 1.0, 1.0, 1.0, 1.0, 1.0, -0.04137124866247177, 2.524305582046509, 0.5970871448516846, 0.2172030657529831, 1.6312495470046997, 0.6363096833229065, 0.0066948020830750465, 0.19369259476661682, 0.11744452267885208, -0.5642379522323608, 2.5609090328216553, -2.056736469268799, -0.2461588978767395, -0.37499645352363586, -5.066066265106201, 1.2982393503189087, -0.8507897853851318, -3.709970712661743, -2.968404531478882, 3.5642893314361572, -0.6124196648597717, 3.559403657913208, 1.0624510049819946, 0.2661174535751343, 2.009319305419922, 1.2843701839447021, 0.7526940703392029, 2.3677306175231934, 1.2057504653930664, -4.734943389892578, 1.0750532150268555, 1.3540154695510864, -0.05118449404835701, 2.5853803157806396, 1.3426932096481323, -5.648110866546631, -0.9635125398635864, -3.1469147205352783, -2.8862667083740234, -0.9954330921173096, 3.2111361026763916, 2.9510700702667236, -1.1992743015289307, -3.422312021255493, 2.6740682125091553, -0.8938112258911133, 1.3171521425247192, 3.7245140075683594]}, "input_size": 120, "conv1d_stride": 12, "conv1d_1_stride": 12}