{"conv1d": {"bias:0": [-0.14934204518795013, -0.22287416458129883, 0.2039863020181656, -0.19426625967025757], "kernel:0": [[[0.5214693546295166, 0.7690312266349792, 1.1094576120376587, -2.7234818935394287]], [[0.6112816333770752, -0.18218329548835754, -0.3110165297985077, -0.5890437960624695]], [[0.42005467414855957, 0.015671418979763985, -0.2721012234687805, 0.32893943786621094]], [[0.16084103286266327, 0.11853423714637756, -0.21594855189323425, 0.8134168386459351]], [[0.32028019428253174, -0.03313196823000908, 0.09219793230295181, 0.2843766212463379]], [[0.26468831300735474, 0.1718827486038208, 0.33867496252059937, 0.47279852628707886]], [[0.37672942876815796, -0.22125855088233948, 1.0002613067626953, -0.12329281121492386]], [[0.23348425328731537, -0.35046112537384033, 0.8583551049232483, 0.3149506151676178]], [[0.7731944918632507, -0.8887472152709961, 0.6729068756103516, 0.4873846471309662]], [[0.4604930579662323, -1.1013953685760498, 0.21363136172294617, 0.523501455783844]], [[0.45915651321411133, 0.35391664505004883, 0.49306225776672363, 0.8414427042007446]], [[-0.9685313105583191, 3.4325594902038574, 1.9862784147262573, -0.3693141043186188]]]}, "conv1d_1": {"bias:0": [0.2750060260295868, -0.2533626854419708, 0.24043455719947815, -0.30271267890930176], "kernel:0": [[[0.21439701318740845, -0.2413032054901123, 0.15419799089431763, -0.013563752174377441], [0.2051384449005127, 0.21364378929138184, -0.14086616039276123, -0.1794506311416626], [0.07571530342102051, -0.020350217819213867, -0.1535620093345642, 0.041777849197387695], [-0.13390153646469116, -0.021411120891571045, 0.2366465926170349, 0.09992235898971558]], [[0.10755514353513718, 0.5581606030464172, 0.9347550272941589, -0.9570551514625549], [0.9443866610527039, -0.24592769145965576, 0.11575637757778168, -0.6690871119499207], [0.22694166004657745, -0.29541757702827454, 0.7447802424430847, -0.2673764228820801], [-1.7980631589889526, 1.8938524723052979, 0.3211267292499542, -0.4583788216114044]], [[0.15172186493873596, 0.11848419904708862, 0.22254954278469086, 0.2943967282772064], [0.3286668062210083, -0.3324899673461914, -0.2306184023618698, -0.4879964292049408], [-0.16032280027866364, -0.11225210130214691, -0.3923502564430237, -0.057070791721343994], [0.4924658536911011, -0.21107909083366394, 0.8858639001846313, -0.29918932914733887]], [[-0.06013251468539238, 0.051411982625722885, 0.07674796879291534, 0.4719521701335907], [0.43284621834754944, 0.24201372265815735, 0.5614797472953796, -0.1352359503507614], [-0.016023434698581696, 0.031040046364068985, -0.3209571838378906, -0.7617811560630798], [0.13854578137397766, 0.06997184455394745, 0.21996918320655823, 0.3903863728046417]], [[0.056668322533369064, -0.09827746450901031, 0.27922186255455017, 0.49812284111976624], [0.2638276219367981, -0.17480559647083282, 0.2610868811607361, -0.3739709258079529], [0.09740069508552551, -0.02440347708761692, -0.18772463500499725, -0.5940976142883301], [0.08666885644197464, 0.001010814099572599, 0.16269999742507935, 0.4891655147075653]], [[-0.30824941396713257, -0.15421077609062195, -0.06947706639766693, 0.04549374058842659], [0.5271493792533875, -0.09203187376260757, 0.2431369423866272, -0.35564953088760376], [0.45406055450439453, 0.33849284052848816, -0.0423349030315876, -0.2965349853038788], [-0.2902899980545044, -0.4189206063747406, 0.23050980269908905, 0.15248805284500122]], [[-0.6339132785797119, -0.2449294477701187, -0.1822347193956375, -0.38786089420318604], [0.46516740322113037, -0.30318760871887207, 0.14979688823223114, -0.29532134532928467], [0.7117341756820679, 0.3735284209251404, -0.06169936805963516, 0.0896344929933548], [-0.32851970195770264, -0.31659996509552, 0.01710117608308792, -0.28745031356811523]], [[-0.34983348846435547, -0.1844717115163803, -0.18912507593631744, -0.14628246426582336], [0.10936373472213745, -0.19708557426929474, 0.4268428683280945, -0.4344112277030945], [0.34743210673332214, 0.1776895374059677, -0.20095838606357574, -0.3597635328769684], [-0.2532566785812378, -0.2254755049943924, 0.21138373017311096, -0.15883032977581024]], [[-0.06985455006361008, 0.13443030416965485, -0.026064420118927956, -0.10525017976760864], [0.2399815022945404, -0.34952372312545776, 0.34963154792785645, -0.207881361246109], [-0.07382640987634659, 0.3595236837863922, -0.12965039908885956, -0.0022128995042294264], [-0.08661824464797974, -0.03594965115189552, 0.23129186034202576, -0.11734597384929657]], [[0.00777758564800024, -0.13709628582000732, 0.13636937737464905, -0.1382976770401001], [0.6757961511611938, -0.5755411386489868, 0.7477833032608032, -0.8190426826477051], [0.19385308027267456, -0.1040116623044014, 0.5413592457771301, -0.168782576918602], [-0.061376117169857025, -0.22665061056613922, 0.27643048763275146, 0.25780847668647766]], [[0.6411904096603394, -0.7781664729118347, 1.3554110527038574, -0.8456146717071533], [-1.7549573183059692, 2.469437599182129, -3.02734637260437, 2.550959825515747], [-0.8165448307991028, 1.1252509355545044, -1.329511046409607, 0.9004037976264954], [0.7641981244087219, -0.7992476224899292, 1.0616683959960938, -0.8159908056259155]], [[0.20273315906524658, 0.24004828929901123, -0.031780779361724854, -0.1390000581741333], [-0.07540428638458252, -0.054765939712524414, -0.09229481220245361, 0.18765074014663696], [-0.1470242142677307, 0.0958893895149231, -0.2433803677558899, 0.15481078624725342], [-0.09099256992340088, -0.07161527872085571, 0.08618855476379395, 0.08580392599105835]]]}, "dense": {"bias:0": [0.07966417074203491], "kernel:0": [[-0.23722060024738312], [0.09648699313402176], [-0.10089156776666641], [-0.041509900242090225], [0.2314072847366333], [0.023714132606983185], [-0.013871491886675358], [0.5074445605278015], [-0.035300929099321365], [-0.013565385714173317], [0.07652629911899567], [-0.1050252765417099], [0.13929219543933868], [-0.09677442163228989], [-0.3541356325149536], [0.13445979356765747], [-0.017379771918058395], [-0.15324372053146362], [0.24567551910877228], [0.0026695241685956717], [0.3184133768081665], [-0.14309193193912506], [0.7084019184112549], [-0.06840714812278748]]}, "lstm": {"lstm_cell": {}, "kernel:0": [[1.2591770887374878, 4.637631893157959, 0.7450006604194641, -1.4322150945663452, 2.298715353012085, -0.6880688667297363, 0.1956166923046112, -0.07084032148122787, 0.15637338161468506, 1.8896763324737549, 0.7375840544700623, -1.270840048789978, -0.2759135663509369, -0.6208444237709045, -0.9467578530311584, -4.533542156219482, -0.4953659474849701, -2.2929325103759766, 0.3609274923801422, -0.5758721232414246, 0.7020031213760376, 1.765467643737793, -1.1348762512207031, 0.6700785160064697, -0.14935722947120667, -0.14919178187847137, -0.17169508337974548, 0.1067810207605362, 0.19838155806064606, 0.19189856946468353, 0.17908157408237457, -0.09667809307575226, 0.16877420246601105, 0.015932545065879822, 0.08002237975597382, -0.007183894515037537, 0.16299022734165192, -0.24464978277683258, -0.19987252354621887, 0.03739224374294281, 0.09889306128025055, 0.23562775552272797, -0.09380456805229187, -0.1716570109128952, 0.2089034467935562, -0.17361173033714294, 0.03085900843143463, 0.10881246626377106, -0.9830348491668701, -0.5070496201515198, -0.12310196459293365, 0.06010822579264641, 0.11629808694124222, -0.11391254514455795, -0.060348525643348694, -0.7355723977088928, -0.14600129425525665, 0.27445173263549805, -0.04318984970450401, 0.09190135449171066, 0.15190884470939636, -0.11922696232795715, 0.5318959355354309, -0.24562519788742065, 0.1750786304473877, 0.2999839782714844, 0.46077191829681396, 0.0015138916205614805, 0.5299953818321228, -0.48838409781455994, 0.32835158705711365, 0.0464048758149147, -1.8366897106170654, -1.5288379192352295, -0.8433502912521362, 0.6684364676475525, 1.5747907161712646, 0.8883190155029297, 0.7497803568840027, -2.458494186401367, 0.2977696359157562, -0.07723536342382431, 0.13638371229171753, 0.3878495693206787, 0.4606790244579315, -0.09101536870002747, -0.7695370316505432, -3.021303415298462, -0.463488906621933, 1.0423978567123413, 0.19345808029174805, -0.6359201073646545, -0.4204982817173004, 1.6127372980117798, -1.9606255292892456, -0.8858256340026855], [0.7591601014137268, 0.6374707818031311, 0.8636821508407593, -0.5799375772476196, 0.025053776800632477, 0.33284884691238403, -2.205261468887329, 0.9164489507675171, -0.07004763185977936, 0.5935834050178528, -1.425463080406189, 1.7290453910827637, -4.956070423126221, 0.947611927986145, -0.42211440205574036, 1.3438383340835571, -0.382768839597702, 2.283130407333374, 0.10602118074893951, 0.010761905461549759, -1.3911404609680176, -2.7721645832061768, 1.238008975982666, 0.18576577305793762, 0.04968594014644623, -0.1626710593700409, 0.18552331626415253, -0.13249926269054413, 0.050640031695365906, 0.14069966971874237, -0.24242396652698517, 0.22207750380039215, -0.2189996838569641, -0.1854025423526764, 0.20816151797771454, 0.06673716008663177, -0.10935793817043304, -0.15888649225234985, 0.17817969620227814, -0.04456101357936859, -0.07426507771015167, -0.23750589787960052, 0.09018824994564056, 0.06436295807361603, 0.17907635867595673, 0.16959623992443085, 0.023577645421028137, 0.026945993304252625, 1.2708652019500732, -0.5338777899742126, -0.0763329342007637, 0.2552317678928375, 0.5373424291610718, 0.1354507952928543, 0.13528944551944733, 0.5103232264518738, -0.44122785329818726, 0.7236317992210388, 0.5212774872779846, -0.2065822035074234, -0.3413066267967224, -0.5369880795478821, 0.359538197517395, -0.20619426667690277, -0.10147466510534286, 0.00014046909927856177, 0.0938955545425415, 0.137473002076149, -0.2525883913040161, -0.40603867173194885, -0.08854536712169647, 0.0004493767337407917, 2.128150224685669, -0.6687482595443726, -0.4350168704986572, -1.1610580682754517, -0.6633812785148621, -0.8825806975364685, 1.0030491352081299, 0.446902334690094, 0.08356259763240814, -0.8057291507720947, 0.8291758894920349, -1.7861326932907104, 0.8711177706718445, -0.42284995317459106, -0.3629535138607025, 1.2540264129638672, -0.37283751368522644, 0.8949974179267883, -0.4320822060108185, 0.10080844908952713, -0.03566184639930725, -0.5734931826591492, 0.8998599052429199, -0.9729775786399841], [-0.9421569108963013, -0.6821238994598389, -0.5066921710968018, -0.2551656663417816, -1.0972979068756104, -0.8939840197563171, -1.1950085163116455, 3.601785659790039, 0.515930712223053, -0.7371470928192139, -1.1708102226257324, -0.19231702387332916, 0.8209984302520752, -0.36852526664733887, 1.0595885515213013, 2.9902353286743164, 0.3337347209453583, 6.036853790283203, -0.11242151260375977, -0.15628187358379364, 0.5829830765724182, 0.3372223675251007, -1.2385560274124146, -0.026543814688920975, -0.22844864428043365, 0.1791354864835739, 0.12551988661289215, 0.06539569795131683, 0.11785663664340973, 0.1553688496351242, 0.11110849678516388, -0.08319158852100372, -0.1816374659538269, 0.07235871255397797, 0.11054258048534393, 0.07065050303936005, -0.10200439393520355, -0.15980727970600128, -0.06741231679916382, 0.17533670365810394, -0.1805669218301773, -0.03313036262989044, -0.08754871785640717, -0.15669962763786316, 0.07322157919406891, 0.0014642179012298584, 0.0641937106847763, 0.16145388782024384, 0.004554602783173323, -0.06602702289819717, -0.24676693975925446, 0.5351769328117371, -0.3469596803188324, 0.6367847323417664, -0.16079816222190857, 0.8598455190658569, -0.1930047869682312, 0.26638662815093994, 0.1252676546573639, 0.5876871347427368, 1.2732211351394653, -0.7802830338478088, -0.7842827439308167, -0.00850076973438263, -0.12481528520584106, 0.1803063452243805, 0.659237802028656, 0.2570246756076813, 0.8106210231781006, 0.5032000541687012, 0.9231804609298706, 0.1282096803188324, -0.9729530215263367, 0.7384692430496216, -0.3415152132511139, 0.5763640999794006, -2.1101880073547363, 1.108461618423462, 1.15446138381958, 0.5264760851860046, -0.4724511504173279, 0.8295922875404358, 0.27135688066482544, 1.1274940967559814, 1.3196194171905518, 0.5799849033355713, -1.7554905414581299, 3.2636942863464355, -0.7503253817558289, 1.7873358726501465, 0.544877290725708, -0.09315338730812073, -0.12609128654003143, -5.3227410316467285, 0.33527040481567383, 1.0963428020477295], [-0.47768479585647583, 2.223759889602661, 0.5861620903015137, 1.9460519552230835, -1.029173731803894, 1.350192904472351, 0.3883991539478302, -0.16507330536842346, 0.42499101161956787, 0.25994807481765747, 1.9821416139602661, 2.024070978164673, 3.6001081466674805, 0.9878751635551453, 2.622314453125, 0.3345321714878082, -0.0767098218202591, 4.117495536804199, 0.18408170342445374, -0.16578298807144165, -0.9425793886184692, -0.5021958351135254, 0.8388038277626038, 0.13315610587596893, 0.13189305365085602, -0.17304016649723053, 0.1781185418367386, 0.13296349346637726, -0.1338467299938202, -0.07612600922584534, 0.05130834877490997, -0.05999313294887543, -0.10197454690933228, 0.19506476819515228, -0.23845040798187256, -0.15288741886615753, 0.14964549243450165, 0.1365765482187271, -0.10803773999214172, -0.18596330285072327, -0.07402727007865906, 0.23020194470882416, 0.22001318633556366, -0.025528207421302795, -0.20531916618347168, 0.06548826396465302, -0.19375473260879517, 0.025497302412986755, -0.6625431776046753, -0.7367802262306213, 0.2661273777484894, -0.24204911291599274, -0.9860371947288513, -0.3205288052558899, -0.06714410334825516, 0.36827903985977173, 0.634055495262146, 0.04293215647339821, -0.5104451775550842, -0.416627436876297, -0.035468827933073044, 0.5297335982322693, 0.40519121289253235, -0.48340481519699097, 0.5716246962547302, 0.409487247467041, -0.5248833894729614, -0.04236467555165291, -0.650545597076416, 0.05690722167491913, -0.06149115040898323, -0.17585152387619019, -2.642394542694092, -0.7764986157417297, 0.4712049663066864, -0.17303282022476196, -0.6305463314056396, 0.3841722905635834, 0.18694861233234406, 0.2160753756761551, -0.552614688873291, 0.03433474525809288, -0.6423904299736023, -0.27637335658073425, -1.2225737571716309, -1.329076886177063, 0.6437313556671143, 1.9310836791992188, -0.7855619192123413, 5.155521392822266, -0.5078619718551636, -0.3818255066871643, 0.613224446773529, 1.7136850357055664, 0.1078726053237915, 0.8894661068916321]], "bias:0": [-0.6030223965644836, -0.05150981992483139, -0.8220310211181641, -0.6891321539878845, -1.9075922966003418, -0.934447169303894, -0.8032560348510742, -1.5458190441131592, -0.31921765208244324, -0.42958229780197144, -0.32920563220977783, -1.102684736251831, -0.06777766346931458, -0.5951656699180603, -1.4573707580566406, -1.4180022478103638, -0.4774033725261688, -1.13219153881073, -0.08815772086381912, -1.1238205432891846, 0.042949993163347244, -0.9828372001647949, -0.478051096200943, -0.9984090924263, 1.0, 1.0, 1.0, 1.0, 1.0, 1.0, 1.0, 1.0, 1.0, 1.0, 1.0, 1.0, 1.0, 1.0, 1.0, 1.0, 1.0, 1.0, 1.0, 1.0, 1.0, 1.0, 1.0, 1.0, 0.015276696532964706, -0.1876257210969925, -0.23952941596508026, 0.11631279438734055, 0.015478767454624176, 0.14651274681091309, 0.10826285183429718, 0.17029863595962524, -0.1629069447517395, 0.07411304116249084, -0.06202671676874161, 0.20272594690322876, -0.1734086126089096, -0.12937501072883606, -0.16948245465755463, -0.043973471969366074, -0.11505249887704849, 0.2824936807155609, 0.1708863377571106, 0.28224536776542664, 0.09522395581007004, -0.06456603109836578, 0.4434063732624054, 0.24040281772613525, -0.6325023174285889, -0.26262548565864563, -0.7477315068244934, -0.3629520833492279, -1.715531587600708, -0.46101832389831543, -0.3998977541923523, -0.1656293272972107, -0.35123521089553833, -0.28283339738845825, -0.32926881313323975, 0.0014034525956958532, 0.0936928316950798, -0.36342430114746094, -0.6760032773017883, -1.344607949256897, -0.5667865872383118, 0.18012773990631104, -0.1938788890838623, -1.0930585861206055, -0.1272151917219162, -0.6727793216705322, 0.23650404810905457, -1.089694619178772]}, "input_size": 120, "conv1d_stride": 12, "conv1d_1_stride": 12}